personality trait	-1.0642452	0.24492458	-0.038355783	0.9867039	0.2433983	0.7756062	0.44136566	1.0703139	0.7498979	0.37716144	0.16997609	1.8798445	-0.10500121	-1.44129	0.055361576	-0.5370575	0.22435492	-0.6483897	-0.8437393	1.2864022	-0.8132823	-1.8558406	0.17083879	0.22719637	-0.36572948	-1.6440905	-0.20736654	-1.0675374	-0.03844192	-0.122103296	-0.9264402	0.5130088	1.054652	-0.24466543	1.4504751	-0.084832765	0.5866323	-1.0594878	-1.2403221	-1.2188193	0.87937295	-1.7860961	-0.80332106	1.4413652	1.8411819	1.3997083	-1.455528	-0.8596466	0.51426846	0.068145424
tax	-0.31594107	-0.42106727	-0.9340414	1.9700114	-0.8129717	0.47398978	-0.548686	-0.6618579	-0.70641	-0.6052569	0.55110836	0.05355107	1.5599897	2.2305737	0.7271975	-1.7303591	-1.1119198	-0.24978681	0.010973627	-1.3111743	-0.38990352	-1.2606236	1.5265918	0.1842865	1.3365389	-0.61920124	0.34663123	-0.36688608	-0.6361074	3.4960532	-1.5108767	-0.18991584	-0.27517632	-0.3845323	0.33868894	-0.1442517	1.0212603	-0.63766056	-1.0558043	-1.9929494	-0.07637491	0.0012079254	1.361029	0.09628137	1.7867634	0.25855666	1.4559896	-0.5112274	-0.60582525	-0.22220993
key issue	-0.17110386	1.0061072	-0.6520753	-0.05834327	1.2007099	0.74614245	-0.36739382	-0.06751149	1.2117677	-1.04253	0.31402248	0.15303823	-0.6137004	0.45718303	-0.020419737	-1.5226283	-0.535169	-0.46832177	0.43967107	-0.98680115	-0.40107104	1.372274	1.3119992	0.3273493	-1.3345088	-0.9286172	-0.9511459	0.46791455	-0.9148088	-1.1325701	0.18672825	0.012958784	0.8988005	-1.2036352	0.55258125	-0.68001074	-1.1815927	1.1167287	0.26834735	-0.12201832	1.1775008	-0.671669	-0.3660302	-1.4256209	0.35429618	0.025406914	-0.088333614	0.68087053	-0.018022494	-1.1866554
donation	-0.68038404	-0.71668774	2.1600983	-1.4873527	2.0211766	-1.2976218	0.15288334	1.7196845	0.15111387	-0.10135086	-1.7139592	1.3392674	-1.1693895	1.0010313	1.1329366	1.0971174	0.6797051	-1.0050124	-0.2538573	0.38635197	-0.60367185	1.8553487	0.766106	1.3876584	-0.3561617	-0.17712307	-0.15177836	2.280187	-0.27917555	1.1702573	0.1971989	-0.5654454	-1.4158612	-1.3277653	-1.283603	-0.48632234	-0.57810855	1.751411	0.16904816	0.25518474	0.078020304	-0.30590302	2.0161924	0.34860337	1.5072721	1.1128074	-1.4169242	-1.8335339	0.8150764	-0.71632403
common item	0.17938493	-0.64986205	-0.678957	-1.3982286	0.012291318	0.9740375	-0.07614816	-1.1905718	-1.4839678	-0.8143317	-1.7817125	0.004534023	-0.09117026	-2.625635	-1.199152	-0.32382596	0.19751842	-0.919231	-1.809306	-0.5912104	-0.74975187	0.14400712	-0.40090463	-0.26133052	-0.7555976	0.98371124	0.36643776	-0.5636941	2.451546	-0.08412806	-1.0266848	1.4930089	1.0643688	1.9331996	-0.034201182	-1.4757785	-0.958218	1.479759	0.03469763	0.74215066	-1.0495012	0.42362046	-0.7530876	0.19435932	-0.68941176	1.4284117	-1.636202	-0.17896353	0.31384757	-0.13332817
big item	0.30823585	-1.1803571	0.21628618	1.6395699	0.15458089	-0.06454292	1.9448656	-0.54522216	1.5066514	0.5917213	-0.4149252	0.70104516	0.1713802	0.12272526	1.729875	0.75498515	0.97568923	0.5413702	0.65955824	0.7155152	-2.719715	1.950486	0.7255534	-0.009066654	0.31231633	1.4274733	-0.5719751	-0.45717135	2.3267395	-0.5958373	0.57798934	1.3678296	-0.56567615	-0.09543277	-0.4148797	0.594932	-0.24629219	-1.5018038	-0.5174617	0.015417319	0.61451566	1.0885372	1.5294387	0.42089698	0.26011983	-0.17684086	-1.0668448	0.8771505	2.030753	-0.75891787
supporting material	-0.12485106	-0.893907	0.6119529	-1.1697758	0.7580991	0.39500353	1.0090169	0.2724075	-1.6201911	1.6405932	-1.3353673	-0.36970186	1.2800952	0.8749432	0.07025158	0.1293928	-0.5354143	0.5212425	0.49835134	1.5949183	0.47117984	0.70527446	0.60949033	-0.07266456	-1.0982469	-1.0573617	0.09613623	1.3393914	-1.9513998	-0.46020472	-1.4818946	1.0372177	-0.8661965	0.52798164	-0.64202064	-0.023711462	1.3733832	1.6442716	-2.707465	-2.3507302	-1.0693351	0.10950552	-0.12378168	0.7120158	-0.1422928	0.8153102	0.24139303	-0.5637032	0.50333256	-0.986247
picture	-0.43735617	-0.84015983	2.232976	-0.47247773	0.4327905	0.028648397	1.4329695	0.15738295	1.0569973	0.989093	0.54066724	-0.5299178	-0.38382176	2.0245779	2.14583	0.36380062	0.5843351	1.3735434	-0.050342023	2.0469224	-0.55375624	-0.907051	-0.9551795	0.9205227	0.35336873	0.87142575	-0.31675372	-2.3754508	-0.22761643	0.10431889	-0.2635166	-0.51949716	0.08566792	-0.16186613	0.1888356	-0.78380847	0.39485052	0.2641677	0.24462645	1.2315886	-1.6512504	-0.4783703	1.1094759	-0.9167836	2.6050575	-0.0035580676	-0.34797257	-0.2614389	0.504617	-1.545565
noun	-0.63105065	-0.31129682	0.54588956	0.89319175	0.24604817	-2.0180736	0.82389104	-0.08533812	-0.13544492	-0.5885397	0.8294585	0.9908937	1.095007	0.7684947	-0.12811121	0.83254355	0.69382244	-2.461528	-0.53113776	-0.80102897	0.012258107	-1.3742541	-1.1503667	0.07988676	-1.2594695	-0.2737909	-1.1442931	0.72094095	0.5871081	0.08110675	-0.5437224	0.90235287	0.7654659	-1.2382807	-0.34810925	0.05980876	0.9922054	-0.14685605	0.5549382	0.22851829	1.2376564	2.571887	-1.4200392	0.61353576	-1.3841889	-0.05362007	1.4478462	-0.6582512	-0.5611442	0.7087418
traditional craft	0.32126337	0.17588046	0.544315	0.93683654	0.64617705	-1.2536601	-0.837077	-0.09370124	1.8602034	-0.2852055	-0.8873305	-0.22814105	-1.1781598	-0.75051093	-0.07374429	1.2724898	-0.9143411	0.08444725	0.54119515	-1.4100015	-0.09512518	-0.33088428	0.14324602	0.63084555	0.9958887	2.3176396	1.6893748	-0.22178966	0.3590775	2.2972066	0.43111217	0.570821	-1.7289833	-1.8096973	-0.46376026	-0.5841212	0.55214345	2.9348097	0.3031555	1.8679715	-0.19687119	2.6908052	-0.30931434	0.4081983	0.5400017	0.19050278	0.15503241	1.2630153	-0.013889831	1.8484904
volunteer activity	-0.5492098	1.0321726	-1.6397632	-0.36375573	1.302527	1.481071	-0.7643757	0.3165895	-1.6611946	0.89379895	1.4013019	0.108297914	-1.327432	1.1022856	-0.61580783	0.4019758	0.864654	-1.96724	0.5070604	0.36176917	0.0029430166	-0.8360124	-0.81904805	0.15768096	0.08980789	0.7146616	1.706123	0.2184729	0.05108454	0.53854	0.74424326	0.6380743	-1.0619309	2.064843	0.7553105	0.6426734	0.4334602	2.6270263	-0.9075204	1.5965579	-0.2580942	-0.6548016	-0.71197104	0.19976339	-0.681785	-1.2592939	0.42596233	0.39607075	1.2585096	0.6909351
large firm	0.7280299	-1.2196531	-1.592846	-0.0003029853	-0.25695822	0.106506556	1.9652917	2.2656674	-0.2713009	-0.10955028	1.0375262	-0.20443396	-0.36296687	1.9270538	1.2498914	-0.18868382	-0.2570893	0.14445114	-1.4240707	0.25634587	-0.5554741	-0.442065	-0.4481241	-0.46769586	-0.95110255	-1.0875356	-1.2351192	-1.6983773	0.6413379	2.5627277	0.68985444	-0.30620554	0.06772214	0.59319097	-0.1868667	0.253494	-0.86494184	-0.012588078	-0.23879984	0.1945658	0.78681445	-1.4094043	-0.28809875	-0.6008123	0.1414183	-2.001881	-0.26477632	-0.011678461	1.189302	0.87982345
column	-1.554468	1.1349635	-1.1760092	1.0590676	1.3152407	1.0435145	-1.4592227	0.25892806	0.11661602	-0.28546843	0.16230977	-0.59433174	-0.9082585	0.3907845	1.3096963	-0.56618255	0.54200315	-0.6092453	0.7687939	-1.1559249	1.1214561	1.3124453	-0.41028294	0.7029922	0.39812663	0.66439307	2.2236662	0.57003015	-0.019034404	0.94552976	0.98722804	0.1466509	0.5659302	-0.599205	0.30855358	1.1591336	0.008101486	0.28513494	1.6758945	-2.6372724	0.32522488	0.90990394	-1.238351	-0.20788573	-0.19411254	1.0378076	-0.61784977	-0.93281335	-0.039361544	0.6691888
information	-0.49154332	-0.64669454	-0.99847484	-0.3920842	0.27134955	0.5840797	-0.5228577	-0.29400617	-0.77965844	1.1699874	-0.32475236	0.23146527	-0.95148194	0.14523035	-0.43406656	-0.23501463	0.82961863	0.017924864	0.57615644	1.2159392	0.15345283	-0.83845824	-1.4511228	-0.70301515	0.37874693	0.7081143	-1.8187703	0.45148182	-0.2638998	1.016041	-0.21125536	0.17948903	1.0441976	-0.7802833	0.17797755	1.586281	0.6689792	0.3133239	0.15138505	0.4492327	0.6630845	0.37924895	0.2469907	-0.28344795	0.77735806	-0.4385267	-0.52169454	-0.5521577	-0.23922653	0.7362944
controversial topic	-0.6645238	0.57994205	0.065076	-0.54485106	-2.3692408	0.80785	-1.4919841	1.5721622	-0.20217772	0.86820984	0.30909058	-1.3447436	-0.12498354	0.34725267	-0.644699	-0.020696249	-0.17399243	-0.22372949	2.388143	0.4991415	-1.8570288	0.3422621	-0.663049	-0.24533609	2.0181546	-0.42709833	-0.8567616	0.5464682	-1.789115	-0.77577645	0.95540404	0.28768483	1.3672652	-0.03670823	-0.7922184	1.0762875	0.86920637	-0.51239777	-1.1687375	-3.015941	-1.2566186	-1.4792503	1.8333666	0.6723944	0.74175143	2.501753	1.0462288	-0.16287471	0.21559031	-0.38911855
scientific discipline	1.0357322	0.22943826	0.62985194	1.4608516	1.0753752	0.6426733	0.6764846	-0.18379666	0.91899854	-0.5890643	-0.16318667	1.1499032	1.3872045	-1.0004827	-0.81672454	-1.7294825	0.8667913	-0.8494615	1.4089787	0.70837677	1.3224726	-0.53278136	-0.13595675	1.5321013	0.21573153	0.9834198	0.139082	0.2903134	-0.5314895	0.17470227	-1.6007981	-2.049794	-0.1181304	0.053873144	0.77021885	-0.21919806	1.0335643	0.33274347	-0.76524425	0.47550258	-0.093958974	-2.0175512	-1.4152079	-1.3025813	1.768796	0.5372068	-0.40234333	-1.8554484	-1.3443261	-1.2532593
terminology	-1.4270399	-0.47240618	1.3016162	-1.7215669	0.00093381293	0.13358302	-1.5235572	-0.41968957	-1.4477388	1.6976793	0.7067914	0.71388954	0.0210758	-2.0761402	-0.16677982	0.6670384	0.26607144	0.82415885	0.51154125	2.163535	0.21720156	-0.9759062	-1.7657113	-0.71435285	-0.83970964	-2.105605	-0.51559776	1.4214134	1.266523	-0.9239782	0.52299833	-0.38229176	-0.111173905	-1.4614906	0.12316623	-0.65698576	-1.4667696	-0.30235654	0.26869303	-0.6765655	-0.7188255	0.52465755	1.0332373	-0.047717832	0.30195078	-0.45908174	-0.4777129	-0.3968295	0.7688667	0.6435137
quality material	0.6666459	-1.0925119	-1.9382777	-0.020159649	-0.42635703	-0.75701696	0.24921682	-0.4951157	0.5592524	-0.31167138	1.2432863	-1.7476575	0.6902631	-2.7482436	1.6145006	-0.06351312	2.2251346	-1.6908014	-1.28964	2.4480045	-0.036563363	-1.412938	1.5971074	-0.26778993	-1.6330181	-0.20469737	0.82182825	0.6229917	-0.048897542	0.59816074	-0.23479798	-1.312735	-0.01453452	-2.3677654	-0.003405245	-0.6332134	-0.8845894	-0.91565484	-0.3298334	-0.97876847	-0.14014776	-0.2413041	-0.06805553	-0.08167473	-2.3116884	0.7162319	-0.21050009	-0.06598584	-0.54640824	-0.41819245
committee	-1.6637982	-1.5573893	-1.2333422	0.21428135	-0.31839752	0.40165934	2.795859	-0.91417056	-0.78363395	2.2804427	1.865912	0.94925606	0.13430248	0.4393981	-0.069790184	2.1748564	0.34227937	-3.0244155	0.62051314	1.2537773	-0.9636931	0.86943513	0.5945881	-0.15311675	1.4219322	0.80550474	-0.15750335	0.46169728	-0.6001023	-0.18553247	0.12780702	0.8507195	-0.80157125	1.0405747	-0.027254302	0.29918066	-0.15528719	-1.678166	0.8838785	-1.2415879	1.1516968	-0.8779726	0.41313225	-0.45495063	-0.59597117	1.0176252	1.091809	1.0052086	1.6955245	1.4619043
headliner	-0.26039648	1.3631386	0.30502966	0.26135114	-0.60283464	-2.2917092	-0.032091506	1.3521715	1.8001152	-1.2173196	-0.3353016	-0.6170714	0.87354475	0.9605126	-0.5067686	-1.7722793	0.40776497	-1.9581392	-0.23561344	0.840818	0.39573902	0.30762193	-0.5139502	-0.9625577	-1.2791051	-0.9659481	-0.5349525	-0.11992035	-0.9186446	2.9352324	-1.035633	0.09922033	0.6099557	-0.46812713	-1.3213159	0.033042744	-0.5107214	-0.71266073	1.2774721	0.64328	0.25368527	-1.0282978	-0.25067332	0.86938214	0.8313098	0.16299461	0.7405146	1.9467949	-0.79251903	-0.32402545
occasion	0.39319846	1.7161684	-1.0996646	-0.94258815	0.021537352	1.7962297	-0.53845537	-0.37199268	0.2411203	0.73663694	0.16134103	-0.48493785	0.66174823	-1.4995615	0.11451188	-0.5737585	0.0725885	-0.85279006	0.83869	0.92733634	0.78789014	-1.2485563	0.14688802	-0.103165716	0.5938539	0.3143977	-0.31832072	-0.7220455	-0.7462729	-0.7865085	-0.753235	-2.4313593	0.9105507	-0.522103	-1.2183516	0.039196663	-0.4740095	0.94732714	0.69852823	0.54304826	1.6633008	0.69713205	-1.4248371	-0.7010774	0.37676787	1.7728819	1.3150822	0.98236394	-1.1496252	-1.072081
operating expense	1.4256576	2.5463254	0.4632495	0.079777345	0.29783565	-0.7663316	-0.36838216	-1.0533553	-0.09966773	-1.9852171	-1.070029	1.8701925	-0.57376075	0.5342646	0.36850446	2.0281086	-0.6332467	-0.46941203	-1.2201357	-1.5328859	0.6861346	1.5453044	-1.3644812	0.31074286	-0.43834096	1.2313107	0.30262485	-0.15569383	-0.71479213	1.4597752	-1.4553579	-0.8183785	0.2208323	-0.09964219	-2.2919297	0.1872729	-0.31076783	1.2371715	-0.37324783	0.9374977	-1.3619572	0.17948723	0.50224954	0.29851007	0.5420773	0.078872025	0.74434376	0.5546644	-1.513077	0.29848883
specie	0.34363952	-0.2831553	-1.0717645	-1.4513667	-1.3827587	-0.1429228	-0.85420233	-0.1602535	-0.6032602	0.36720347	0.55403703	0.8225511	1.1706858	-0.8322573	0.17937814	1.4736224	-1.103005	1.0136366	0.17199384	-0.6720735	0.2883888	0.20663533	-0.5771894	1.3024325	1.5232704	-0.30583873	-1.934192	-0.19499953	-0.59515	-0.8568983	0.5242858	-1.1089636	-0.6621679	0.50372314	1.0690514	0.04798848	-0.25889033	-0.93385625	0.839687	0.064283006	0.062211365	-0.8637637	-0.20147051	0.96404314	-0.06147319	-0.3771289	0.035520766	0.3979404	0.3548679	1.7277756
movement	0.5528989	0.85065395	-0.39871222	-0.6670774	-1.6395253	0.6800052	1.0643855	0.16431767	0.9932741	-0.30432066	-0.41856232	-0.097379774	-0.6320296	-0.587047	-1.3511429	0.49126253	1.4559231	0.9719702	-0.43142185	-1.8594425	1.5515066	-0.2056541	1.1834891	0.8767529	-1.6277894	-0.30682617	-0.89478093	0.23401484	1.9149294	-2.1343336	0.7734908	-1.1780499	0.43186128	1.4083083	0.55806524	2.098757	-0.54295206	0.48706332	0.26532984	-0.89239883	-0.057455562	-0.02269809	-0.16612272	0.9067653	1.005095	-0.7647772	-0.42293164	0.98684204	0.46122292	-1.1043392
science	0.5674883	0.7690889	0.49466023	-0.6198634	-1.2796559	1.051287	-0.09796752	0.89441085	-1.2026316	0.9887887	0.99246657	-0.63651866	-0.58795375	0.32510906	-0.44484392	0.35318545	-1.0073057	-0.1860535	0.24366377	0.45394698	-0.46114492	-1.5219746	0.9316968	2.1325984	0.90316105	-0.89126897	0.04838718	0.43641257	-0.13482362	-0.8749516	-0.39340204	0.9606762	1.2319576	-0.85392034	0.15394697	-0.9564657	0.0816766	-0.550607	0.32291347	0.22135633	-0.4671394	-1.6128558	0.71648574	0.09308848	2.4459214	-0.60629505	2.1319933	0.23446988	-2.3098512	2.1948597
website	0.007376464	0.16611256	-0.5600238	-0.005792469	-0.20069218	0.3318337	-0.064903125	0.7226092	0.51897144	-2.4043927	-0.83378667	-0.50915617	0.23332082	-0.07604445	1.3659387	-1.1964501	0.7537452	1.9204373	0.9939914	1.5454289	-1.3077867	-0.38150424	-0.08402303	1.5275083	-0.82479715	-0.27067712	0.13544571	-0.8714626	1.0542425	0.11803525	0.88629687	1.5190209	0.066996396	0.65853816	-1.7236533	1.3216013	-0.4142051	0.15010317	-0.5276507	1.1318576	0.7843981	0.3880139	1.409309	-1.2334001	1.9910345	0.55441016	1.067394	-1.0144688	-1.6420907	-0.44954142
ongoing cost	-0.79576254	-0.69795424	-0.2692688	-0.7912525	0.6105837	0.8050791	-1.4202849	-0.63288003	-1.8953674	0.7036085	-0.5498766	-3.2919765	-1.2232137	0.021443082	1.3789546	-1.2563809	-0.2774496	0.63047224	-1.3720438	-0.42001185	-0.90330684	-0.36386988	-1.0584265	-0.51732653	0.7050678	-0.3731062	-1.6832765	0.14916624	-1.241611	0.7297642	0.2693312	0.650028	-0.18100587	-0.87720996	-2.2178264	-0.8522523	-1.5935088	-1.9292568	0.35774547	-0.14562638	-1.2581766	1.0914634	1.486943	0.41949475	-0.054456256	0.33120027	0.08542427	-0.5707516	0.5317831	-1.2110596
vertical	-0.56647545	1.4694747	0.92598706	0.37357745	-0.25096756	-1.4232445	0.09444468	1.7618786	-1.066544	1.366765	0.25666812	-0.8153993	0.079757124	-1.1769754	-0.50749886	0.83088917	-0.041061908	-0.6215042	0.23521443	-1.1835464	0.39864215	0.71079296	1.3505118	-0.12254562	-0.039697643	-0.6304862	2.2714608	-0.29089898	0.15309529	-1.7701782	0.69538695	0.9221779	-0.09578892	-0.07165295	-0.5445282	-1.3619542	-0.3762056	1.3899745	1.1645908	0.9847797	-1.0087415	1.0635787	-2.4790652	0.9020678	0.8408964	0.51145405	-0.7083572	0.2120409	0.96960044	1.4430252
key product	-0.585732	-0.23560867	0.3656227	0.6279103	0.14155145	-0.61997324	0.27243328	-0.74207056	-0.121695675	-0.73577493	2.0004535	-1.8571326	1.365123	-1.6016227	-0.86997885	0.23079918	-0.47394744	-0.67663515	2.005369	-0.5070208	-1.9627585	0.82503223	0.04285104	-1.5262055	0.079712294	-0.47981247	1.1098835	1.0321962	-0.9082795	-0.3299182	0.19572307	-0.23848297	0.54446965	0.23260382	0.179615	-0.8811627	-1.7395334	-1.5445709	0.63682157	-0.14118163	1.175811	-0.2662724	-0.78870285	0.97506547	-1.2868737	1.1284927	1.6708649	2.4770677	0.8987545	1.7698222
topical issue	1.7021996	1.1340672	-0.75755537	0.6087906	-0.023004664	-0.6493455	-0.10013968	0.08060453	1.1752276	1.1718328	-1.3484243	0.13835502	0.07109776	0.07157042	-0.6311228	-1.6113659	-0.4581925	0.34706286	0.21891356	-1.7019753	0.6295295	1.9038633	0.59411454	0.16018718	-1.9811087	0.63306487	0.58025587	2.0214653	0.21175662	0.07770547	-0.5638129	-1.6205808	-0.9283483	-0.018545743	0.37318635	0.45640376	0.5607696	1.3741343	0.5929586	-1.6151999	-0.79244107	1.3431284	0.13743255	-0.74603516	-0.8190472	-0.5832826	1.4066968	1.4955207	0.014989391	1.0722034
auditing	-0.77403855	-0.6054836	-0.75049824	0.5975356	-0.78651714	1.0746827	0.42609298	1.8940122	-1.5668077	0.5086901	2.1259494	1.0678622	0.09861832	-0.029851517	-0.4117194	0.6575314	-0.9504877	1.289401	0.77544624	2.2006595	-0.233297	-0.75813144	-0.80195695	-1.6448452	-0.2922756	-1.503033	1.2181274	0.89171445	0.4843295	1.8401114	-0.51023626	-0.6521861	-0.5475503	1.3237846	-0.57938546	0.78355896	-0.19614112	1.2954265	-0.47355625	0.59430057	-0.4137254	0.3208771	-1.4614666	0.9353443	1.1087443	-0.63259846	1.1175649	-0.0862547	0.48588383	-0.98321724
analytical parameter	1.436642	-0.20801462	1.3340361	-0.22024909	-0.26668414	1.602983	-0.37060493	0.64621526	0.41786864	-0.7688958	-0.18556836	0.49769396	1.2661638	0.9805732	1.3619121	0.27842546	0.99819815	1.186339	1.7299628	-2.2371192	0.6606875	-0.22138682	-0.9722655	0.5105557	-0.1385157	2.3501325	-1.7287203	-0.7171764	0.6981006	0.47487512	-0.3368429	-0.463128	-3.0183473	1.031597	-0.14386459	-1.1587505	0.056814007	-0.14873287	0.02570702	-0.097063795	1.0657922	-0.87257874	0.7752434	0.16643642	-0.9753775	0.60142815	-0.70266557	-1.8154529	0.46020654	0.11706374
question	0.7520367	-0.9442291	1.7290399	-0.5310208	1.3988926	0.8085228	0.6190942	0.29607856	-1.1408775	0.7605334	0.40646413	-0.5158594	-0.49581045	-0.9046006	-0.093451366	-1.456233	0.34749243	-0.6701121	0.56644106	-0.95914674	0.80994385	-0.93934184	1.6670967	0.45272964	0.50982636	0.6217301	0.004160451	-0.74110305	-0.33860484	-1.0666949	-0.26945806	-1.8874173	0.25510222	1.221968	0.71108216	-0.32248607	-0.42352986	1.1083117	0.114418335	-0.5116126	0.32561848	0.83344513	1.9612796	0.5544996	-1.5243826	-0.4240501	-0.93578506	1.4467282	-0.08188653	-1.229478
electronic device	0.94153565	0.29824618	0.15465325	-0.68742204	-0.066643246	-1.5185227	-2.9235024	-2.367627	1.0192653	-0.2640626	-1.2114573	-0.85488695	0.03779251	0.8211455	0.9154798	2.9345675	-0.4056887	0.22398877	-0.20248339	0.39429563	0.14421771	0.45320857	-1.3686109	-1.1684108	0.16487361	0.16189942	0.90404737	-0.67997855	0.1790804	2.1363125	-1.0657197	0.7093448	0.85635275	1.251232	0.35837263	0.66225904	-0.83019304	-0.2798703	0.0020188391	0.039994754	-0.39209825	-2.685548	0.04137868	-0.999215	-1.6368719	-0.17753994	0.87925804	-0.1266877	0.6050832	0.26224288
plant material	0.22919087	-0.17459466	0.7456693	0.21791703	0.33673775	-1.9052982	-1.2036837	0.516718	-0.61182046	-1.4243348	-0.45145398	-1.0275382	-0.4854017	-0.19122288	-1.7068274	-0.079162806	-0.36598122	1.0764664	0.31999856	0.5391717	-0.35498607	-0.6132929	-1.3248571	-0.8024812	-0.5833056	1.9546733	-0.8016494	-1.1116761	-0.7762127	-1.1092798	0.13893034	-1.6007661	-1.0651354	1.0390058	0.71350026	1.2759207	1.8626374	0.27971515	-0.5665865	1.6038535	0.24541992	-0.39429694	-0.15217358	0.90285766	-0.037022978	-1.058508	-2.2327218	2.301312	1.0167153	-0.44043338
reference material	0.3418494	0.49599293	-1.286731	-0.031262577	-0.8723272	-0.4284505	1.0158191	0.94611675	-1.387043	-0.4374416	-0.50596243	-0.42413282	-1.670489	-2.007394	-0.63560665	-1.1675138	0.5351681	-0.7166533	1.7522963	-0.7042698	0.43126523	0.013563175	-0.1757353	-1.1215119	0.81868654	-2.5152285	-0.12730221	0.32624164	-1.1512009	0.9676055	-0.899576	-1.3179592	1.1624386	-1.1600553	0.82573175	-0.2245754	-1.0249163	0.11644503	-0.61900437	-0.67922765	-0.48820683	0.24065605	-0.7411251	0.97472817	-0.44358125	0.9830594	-0.16754144	-0.8773124	1.100415	0.24584736
hurdle	2.4606483	-1.0195184	1.0665107	-0.97043985	0.6682136	-1.0707064	-0.3192864	-1.911683	-0.47431475	0.5529152	1.7510184	0.4394258	-0.9399877	0.5567594	-0.9145482	-0.18410568	0.086759955	0.45993158	1.1577591	-1.3335572	-0.8205267	0.98693085	-0.23786072	-0.24771853	1.1106672	0.6923167	0.7219578	0.90583014	-0.4691519	-0.4379129	-0.41943496	1.0114582	2.2986588	-0.53330666	1.244345	0.62501997	1.0759449	-0.018430177	0.32120466	0.065019354	-2.748265	-0.25545967	0.3816653	0.8307511	-0.97897387	-0.29335728	-0.39468187	-0.5047608	1.3257183	1.9764963
expenditure	1.1717905	-1.5260108	-1.815856	0.2699357	0.31433994	-0.03880114	-1.1718991	-0.22234994	0.77138245	0.4990509	-0.7476184	0.51571584	-0.76575345	1.1768417	0.45705736	-1.9542764	-0.7083962	-0.9177499	1.3230976	0.9283942	1.6873235	-0.5230501	-0.64096993	0.9467512	-0.3725499	0.280767	-1.0345694	0.61167914	-1.1121179	0.5191366	-1.1939305	0.046815164	1.9756	0.52576256	0.4396691	0.6255192	0.6435569	0.2201744	1.224389	-0.59729946	0.24369831	0.10605014	0.7329774	1.5422425	1.4053301	0.08366307	0.41276938	-2.5716648	-1.824238	0.6394609
force	-0.20593023	0.13024873	0.26380223	-0.93668216	-1.1151636	0.25509816	-0.45632774	0.43090025	-0.88227737	0.63733834	-0.20333125	-0.96599114	0.22380424	0.66938645	-0.3707818	0.9791174	-0.47236	0.049866833	0.053935107	0.599441	-1.6022848	0.792395	-0.31828943	-1.1852059	-0.3159997	0.6042201	0.2890455	0.5570024	-2.1217282	-1.2622099	-0.2966254	0.49279368	-0.7779467	0.20611686	-0.90182775	-0.35212216	1.6696811	-1.144267	-1.1005195	0.86578953	1.8428595	0.09632013	0.6545307	0.011099454	0.43690884	2.0991669	-0.77639675	-0.092683315	-0.56373316	-0.7481938
public transportation	0.06659618	0.16286154	-0.15403505	-0.228187	1.0337222	-0.41926217	1.6791377	-0.21054189	0.64170486	1.5720534	1.3057505	0.36386088	2.412555	-0.18042935	0.72599924	-0.7001607	-0.22962959	1.1487962	0.7794205	0.3357037	-3.1905618	1.8967211	2.5390098	-0.40283728	-0.92672545	-1.7188725	2.05497	0.21178357	-2.44325	-0.6253626	0.11685692	0.6353659	-0.67937475	1.1084299	1.1166778	0.005385602	-0.13220744	-0.6229628	-1.2723083	0.18075678	-0.76559776	0.7963088	-0.9695464	-0.6818267	-1.3117445	-0.025844766	0.60571885	-0.017407848	0.1716353	1.2678506
play game	0.5499038	0.67391056	0.57912314	1.8488022	-1.7512352	-1.4016136	0.5973923	-0.34447664	-1.2144876	0.8179844	0.005194312	1.5242385	-0.57922125	-0.10827728	-1.1099466	0.031638004	-1.1879863	0.6773446	0.6731881	-0.16814959	0.15859015	0.3740186	-1.427052	0.8989052	1.0955763	-0.34819007	1.1974677	1.3430904	0.12606703	-0.43719667	-1.4763256	1.3509676	-0.7574061	-0.89167	0.89563197	0.8625231	-0.79426605	1.2136002	0.61824375	0.86704654	-2.2477212	-0.9267177	0.4303643	-1.3647232	-1.1780173	0.14053982	1.4133775	0.799598	0.54774266	1.4337059
performance parameter	0.012052253	0.25037682	-0.25109357	1.5362229	0.7199456	-0.94037104	-1.6509904	-0.61447763	1.1775924	-0.8224857	-1.4333764	-0.038373075	0.6739292	1.1262336	0.7190582	-1.1971434	1.1489909	1.5042452	-0.39799905	2.0147197	0.48836467	-2.343598	-1.9721222	-1.5758415	-0.5210202	-0.172492	-0.25541803	0.0060244296	-0.25871974	-1.8721575	-1.5754901	0.8932156	0.7921275	-0.54264396	0.8796332	0.11600721	0.37669274	0.5431572	1.0121557	-0.36018693	0.47200975	-0.33962718	0.12183122	-1.126581	-0.5833021	-0.8111854	-0.16950971	-1.0249879	0.75139	-0.8441374
public institution	-0.82008415	-0.6102941	-0.116984956	-1.7145795	0.21316177	0.20670098	-0.7107177	0.7908441	0.53114647	0.34584215	-0.053240806	0.60018426	-2.1036282	0.17971733	-0.7700135	0.54091805	1.220778	-0.8199609	0.48939303	0.53645784	0.9349243	-0.25243297	-1.8088055	-2.2335575	0.9973482	1.010682	0.6447738	-0.11247049	1.4855596	0.7327191	1.1301994	0.23405762	0.20534542	1.1105129	0.7846985	0.49673903	0.86994255	0.5115958	0.8657506	-1.8813404	-0.7039207	2.1901546	-0.2952702	-0.37858608	1.0015621	-0.575355	1.2462139	0.5750779	-0.46013832	0.9337575
contact information	0.9624566	1.218021	-1.3839402	0.82048196	-0.4622037	-1.6402003	0.82472914	1.1502331	0.09587691	-0.22059183	0.28144637	-0.17511453	1.0046741	-0.10963459	1.7719831	2.319418	-0.47645772	-0.6673937	-0.59758997	-0.23365927	-0.6522457	-1.9839244	0.77049637	-0.11865996	-1.3411595	0.06093891	0.3572045	1.3641165	-0.22725824	1.464633	0.76397896	0.5153074	0.6352172	0.62896144	-1.1955816	0.57492685	1.9845593	-0.56258637	0.40997297	-0.95264834	1.4920304	-0.6856561	-0.7314682	-0.43675816	0.181848	-2.079129	0.021554286	-0.8625875	-0.83241314	0.75809264
charity organization	0.6525101	0.3051	0.5722961	-2.7491586	0.5559127	1.0743152	0.6904976	-0.10757871	-0.052766588	-1.4704199	-1.1104593	-0.42693868	-0.52318335	1.0398768	0.62083685	0.9452243	-0.5228572	0.117425114	-0.71256626	0.9802968	-0.17540868	-2.119088	0.86941284	-0.479725	0.33959767	1.1729157	0.8928833	0.76481974	0.80451274	1.1918038	0.935174	0.96332395	0.092928395	1.5823065	0.17620212	-1.3828825	-0.9408926	1.8753389	0.7370783	-0.59906876	0.32351807	0.031733464	0.9817369	0.0540055	-0.034169845	2.3471258	1.1250045	-0.68382806	-0.93217057	0.9425738
community leader	-0.7477041	-0.41716766	-0.15170032	-0.15918848	-0.9631733	1.6430504	-1.8738818	0.77772206	0.3400024	-0.04055342	0.518711	0.33571565	0.45608646	1.249606	-0.79147536	0.6762164	-1.9183296	1.1249923	-0.89849246	-0.07903991	1.5464562	-1.1976515	0.54152036	1.7934896	1.2597513	0.28551075	1.4343001	-0.71407634	0.3287326	-1.5147066	-0.82112694	1.2177737	-0.3299746	-0.50911397	0.7575642	-1.1106337	1.4616954	-0.5792069	-1.6010082	0.91990227	0.4627033	-0.097754925	0.45304897	1.29441	-1.1071942	-0.35499826	-1.2660898	-1.2920336	0.19001563	1.3062794
intervention	0.42665684	0.12698315	-0.18307482	-0.2648305	-0.23132873	-0.67067164	-0.105235934	-0.33986744	-0.13657093	1.7153933	2.1591778	-0.0532681	0.60697037	1.1861204	-0.4504816	-0.10730678	-0.7871028	-1.2986362	0.9462604	2.5094569	-2.2559884	-0.36517122	-0.39035746	-0.61927086	-0.7088606	-1.4885579	-0.84180534	2.019917	0.31382996	-0.6807224	-0.84531957	-0.8935791	1.0045226	-0.35721776	0.3910792	0.14630637	-0.12829645	-0.8122932	-0.20103364	0.4141252	-0.42369124	-1.321342	0.095529705	1.192182	-0.9252234	0.44946173	-0.040862314	1.5927076	-1.2372544	-0.57399076
notable exception	-0.45824018	1.6184248	0.41003153	-0.58235234	1.8798178	0.15998954	0.062237337	1.4588845	0.9526434	0.41192225	0.6565097	1.321201	0.60802245	0.33268687	0.6209764	1.2606635	1.6431096	0.8662475	-0.534426	-1.819473	-0.25888273	-0.17136613	1.0535506	0.18590464	-0.035007134	0.9325647	0.61053926	-0.48630834	-0.4929253	-0.0049418528	-1.5890269	-0.2688687	-0.7999838	-0.6621849	-1.6647123	-1.1365656	0.3739279	-1.3650832	-2.188574	-0.62690055	0.22371326	0.74377114	-1.1218524	0.526063	1.3877649	0.6262003	-0.6789208	0.67835826	-0.18009757	-1.7599539
major	0.46986082	1.1385834	0.03660933	-1.0162668	-0.72169256	-0.45989457	-0.48722392	-0.7727017	0.25130516	1.0136161	0.17783312	-0.3710342	0.39348394	-0.49486417	1.8037335	0.8498482	-0.13065156	0.8172379	-0.0072780624	0.7370636	0.15566535	-1.0713854	-1.7988864	-0.22241706	-1.3808634	0.63096315	0.60588145	-0.750073	-1.2696165	-0.56102616	-1.2972887	0.0069526583	0.84111124	0.50301635	0.20833388	-1.3515395	-0.4948746	-0.9431926	0.26513058	-0.13639922	0.42231333	2.6836228	-1.5165007	0.98823065	0.62073034	-0.029271442	1.4755412	-0.6085145	-0.41605896	0.6602177
systemic effect	-1.7273561	-0.70727366	0.054311894	-1.5750601	-0.65653384	1.0685757	-0.7533505	1.5034819	0.7312302	-1.8668143	0.19520938	0.36301675	1.4998472	1.2371289	-0.11718487	0.9995621	-1.0849161	-1.0451734	0.21081223	-0.33250022	-0.87572914	1.2038817	0.025857452	-0.8075704	1.1840619	-1.1838341	-0.730139	0.052778266	0.4362515	-0.92231965	1.0156288	-1.5359733	-0.31888902	0.4475036	-0.28271517	-1.2042555	0.6594529	1.6467164	0.116200596	0.7256136	1.0962082	0.3849389	0.56553334	1.529097	1.4602944	2.0854788	0.16627029	-0.030369854	-0.4168689	-1.6328822
tropical fruit	-0.959551	2.0016487	1.0201502	0.008610731	-0.6271529	1.09966	-0.10254908	-0.18781255	-2.3840158	1.5842309	0.22930567	0.22739066	-0.37316558	-0.6259191	-0.10129828	2.0054567	-0.7958941	-1.3712552	0.020044914	-1.3073199	0.52620184	-0.5944595	-0.11520955	0.025802782	-0.44945118	0.24623834	1.3310292	-1.1639326	0.037431344	-2.3875318	0.93088174	0.22371687	-0.4546355	1.6494919	-1.1662961	0.03568568	0.65057296	0.028891353	0.10128459	-0.40795878	1.0905662	-1.2832214	-0.36966082	-1.4209851	-1.9978008	-0.15335342	-1.153046	0.017993892	0.51331854	0.7497036
visitor	0.7404214	-1.2443032	0.25795853	1.4633036	1.9761342	-0.72704625	0.89851207	1.5846493	0.953479	1.7506256	-0.9192258	1.614446	0.77751946	-0.5460869	-1.1056733	-0.9588402	1.0491271	0.9701463	-0.72206825	0.24010475	0.1053102	-1.1873697	0.9648958	-0.8463493	-0.7669335	-0.28159165	-1.2150993	-0.023002526	1.3946623	-0.50633216	-0.93595624	0.8823568	0.96029675	-1.3399875	0.16810232	0.47462	1.0741621	1.2936614	0.7668551	-0.42248318	-0.045407943	0.6869986	0.3970059	0.2390799	0.419645	0.021642756	0.82208395	1.4635096	0.36956364	0.89335954
mundane task	0.37935993	-1.5525912	-1.1849924	1.1168294	-0.53374094	0.8177211	-0.8214198	1.3456938	1.630944	0.8546206	-0.74395233	1.158137	0.22339897	-0.53496796	-0.1901541	0.89991856	-0.5210428	-1.2048463	0.018940706	-0.5758278	-1.0482248	0.11736951	0.27895558	0.7542344	-0.87785506	-0.481952	1.0512111	0.68589735	-1.2449042	-0.5254986	-1.0173315	-0.42326003	-2.6753852	-0.8003217	-2.240102	0.39775428	-2.0562823	0.7322907	-0.48454386	-0.3281259	0.41125542	-0.12464517	1.3321648	1.4881936	0.4553927	-0.15142554	0.4336709	0.48582315	-0.3505295	1.2496982
famous company	0.59165764	-0.25526062	-0.86138254	-1.2192845	-0.39176062	-1.6763941	-0.4105408	-0.80940986	-0.5466483	-1.1333212	1.4350675	2.0792634	-1.5024874	1.3954958	0.4740944	-1.2547307	-1.2978392	-0.7593164	-0.41668144	-0.6762334	0.8757249	0.2578457	-0.09932746	0.12133246	-0.72217596	-1.2314866	-0.35307935	-0.6448219	-0.11267199	-0.0865867	0.7374954	1.1095182	-0.113009326	0.09926472	1.2164075	0.6462813	-1.937631	1.4171654	-1.135386	1.0502155	-1.0504932	1.4502856	-0.13700598	0.42837575	0.30784962	-1.7372675	-0.5316619	1.2478913	1.0180062	0.56915146
fun event	0.2871276	0.6367229	-0.95823514	1.6015546	0.32380942	-0.055617638	1.6431786	0.44988915	0.13171624	0.58156765	0.51623476	1.5751264	-0.9792892	0.8145015	0.5333285	0.545369	0.045549102	1.1587577	-0.45237923	-2.2582445	-0.438969	-0.9925702	0.03661965	-0.35375157	0.00091939233	0.11136096	-0.44564062	1.3394797	0.025550185	0.382477	2.2846088	0.6940294	0.950844	1.8042841	1.502183	-0.23949625	-2.837981	-0.94235814	-0.070170544	2.057864	0.4595558	1.1992261	0.7849787	0.38102236	1.0811957	-0.03931921	-1.4627123	-0.014302308	-1.1684816	1.2560574
big brand	-1.9567885	1.0001614	0.06572276	-0.78662986	-0.19239481	0.08721555	1.208323	-0.9494645	-0.35280633	-1.5102901	0.19362137	-0.03982385	0.6670982	-1.996793	1.2649744	0.1969756	-0.18005653	0.06278841	-1.1373783	-0.07270129	-0.26592508	0.5158937	0.95154077	0.8917066	-0.6560509	-1.7999868	-0.069047436	0.5209754	0.7346103	-0.5881914	-0.04149775	-0.28561816	-0.56892425	-1.4089639	1.9998307	2.0354397	1.0213543	-0.059713066	0.1885539	-0.840355	-1.0458349	0.0019934438	-0.74121904	-1.4518061	-0.72476393	-0.560159	1.211045	-0.3057358	-1.5191463	-1.160563
irritation	1.0497234	-1.6531005	-0.34421563	-1.3427854	-0.4671479	2.3036778	-1.767536	-0.6544925	-0.90494096	-1.9357189	-0.5979453	0.7131781	-0.49168494	0.11437504	1.3244401	-1.1401398	-0.56435364	-0.34414074	-1.1428558	0.2243885	0.18821606	0.7099258	-1.8815084	0.18953574	1.8718051	0.5987032	-0.3229458	-0.27097845	0.33300948	0.33803827	0.7405582	-0.6531031	0.4430589	-1.2290158	-0.5524281	1.8634673	0.41586423	0.12613337	0.4065043	-0.0015270114	1.131286	-0.04395335	-0.6734007	-1.8584228	-0.08510781	-0.13170053	-0.19930816	0.19390152	-1.6198348	1.283795
neurological disease	-1.1195046	1.025687	-1.0666515	-1.5885202	1.1914682	-0.24850568	2.2934299	-0.903319	-0.2831099	-0.14286458	0.66933405	0.7758088	2.2363203	0.29530922	1.7831799	-1.0276669	0.28183237	-1.4270731	0.7719173	-2.3129814	0.34026292	-0.21004009	-0.37059882	-0.5746989	-0.043889925	0.0025253259	0.08745619	2.1664672	0.83915144	-1.1188829	-0.94651043	-0.573193	-0.9300683	0.12801018	0.1372084	0.37483203	0.16682716	-1.7418646	0.5277112	1.8823767	-1.467609	0.6062813	-0.67741317	-1.2191556	-0.50779253	-2.1881032	0.9401111	1.3705636	0.57058394	-0.39905378
everyday object	-1.7576071	-0.0068359543	0.34301907	0.43265888	-0.5032378	-1.3341247	1.9055529	0.8600858	-0.3081082	-0.0739212	-1.6015761	-0.26832402	1.079379	0.03929524	-0.5767442	0.013615297	-1.4135519	0.82372946	-1.8773845	-1.2858827	-1.3139716	-2.026807	-0.30436116	0.28170535	2.6452124	0.62668705	-0.1736252	-1.1053054	-0.8385062	-1.7158768	-0.70076686	-1.0317943	-0.9742287	-0.6366712	0.70078844	-1.0024993	-0.9044662	-0.016959472	2.4601192	-1.9562464	0.8162543	0.16252217	-0.4009757	-0.6460976	0.93663734	2.0706024	0.6196196	-0.18057543	1.4561313	0.8253811
sound effect	2.3059356	1.231349	-1.0227834	-0.34546772	-0.19791347	0.45299882	-0.35726058	-1.2142036	0.74430895	1.2798781	2.254276	0.30314773	-2.1873696	0.433611	-1.2344713	-1.9651761	1.2795714	-2.1847193	0.85826224	-0.5935219	0.8487052	1.1901748	1.0451667	0.41305703	0.026966883	1.0328673	0.25235325	0.38071403	-0.80955034	0.589906	-1.4037249	1.6011149	1.3714311	-0.32933763	0.38248613	0.06110668	-0.51750565	0.3121281	-0.32415578	-1.664043	1.0025945	1.6883917	-0.18410839	0.41726285	0.20944878	-0.77281964	0.05287478	-0.23015894	-2.4721081	1.2186733
differential diagnosis	-2.818077	1.3266121	-0.4654474	0.4939686	-2.7146034	-0.67650557	-0.5536377	-1.3658187	0.13341375	0.92673105	-0.10754493	0.75274414	0.0008412041	-0.14831817	1.6190614	-0.54700905	1.3266557	0.58209246	0.1283122	-0.535283	-0.26871017	-0.2527375	0.15615554	-0.70724297	2.512725	-0.8302667	-0.32875878	-0.14462426	-1.1196921	-1.3250673	-0.11560659	0.6710883	1.0698246	1.1619834	0.4506508	0.100117356	0.003648281	0.12999964	2.9093158	1.4113392	0.27268216	0.21603304	0.73651206	-0.028103	0.27817312	1.5159347	-1.826564	1.0669043	-1.4462659	1.4587282
insect	1.1760813	0.91559625	1.7973378	-1.5464358	-0.7780743	-1.0514654	0.5362859	-0.24435465	-0.41387957	-0.6079897	0.6086589	-0.19266266	-1.056778	-0.68118936	-1.3240033	0.025484582	0.2620126	-1.199487	0.29427624	-1.2248468	-1.3326191	1.1334307	-1.2535926	-0.56677336	-0.5564232	-0.1700953	-0.7250733	-0.648506	0.7362068	-0.004223192	-0.3992565	0.8210679	1.4164053	-1.4283024	-0.20586653	0.28199273	-0.5440224	-2.1274447	-0.15822363	0.5549383	-1.7539458	0.032495573	0.76955885	-1.7782223	-0.068806194	-0.7618621	-1.1294309	-1.3495637	1.007683	1.3621936
marketing material	-1.6235993	1.6608074	-1.3778458	0.22623539	1.7461008	-0.16787738	-0.6355737	-0.7140113	-1.1167244	-1.4173596	-1.4118453	0.31637186	0.43662933	-1.2282203	0.9925695	0.2221112	-1.3681723	-1.4775786	1.0775058	0.64784044	0.74826	-1.3824763	0.53278774	0.26794353	0.24528663	-0.5929693	2.5700421	-0.9753869	0.4897897	-1.2407941	1.1874518	-0.49990925	0.39537406	0.56671286	-1.1612271	-0.28339738	-1.1055051	0.19631264	0.5706802	-1.3855692	0.058184102	-0.70996416	-1.3658617	2.0154843	-1.280182	0.78135914	0.3886519	0.10838157	-0.021382146	-0.33082294
event	-0.30342454	-1.3514035	0.67413926	0.292388	0.23896347	-0.42798832	0.55532324	-0.4271892	-0.34614015	-0.053853795	-1.0208945	1.7366947	0.4947897	1.0369107	0.74453354	0.4591086	-0.20111407	-0.5703865	-0.08244564	-0.5171501	0.4877688	0.49634537	0.029886719	-0.14363831	-0.76977277	1.9157662	-0.85714936	-1.572954	0.35236084	-0.38960895	-0.5859727	-1.2370785	-0.032200664	0.3804404	-0.27348295	0.6644081	0.40259352	-0.33121094	0.2701447	0.5415611	1.023993	-1.0468946	-0.7029174	-0.7864467	-0.091196164	0.79885536	1.6639761	0.08174658	-1.1709793	-0.35425693
external partner	0.73927855	1.5732769	1.0134487	1.318807	-0.42768818	-0.5578787	1.7421454	-0.9959154	1.4984705	-1.7392577	-0.24226461	-0.50719506	0.41175324	0.8781822	-0.6158779	0.22408663	0.24802105	1.4138442	-0.2609975	0.03752859	0.7735323	0.031924814	-1.1585149	-0.9054277	0.73507136	0.6892404	-1.2099935	-0.807428	2.2203941	0.44317174	-2.4912286	-2.1638894	0.42958432	1.0312223	1.9987817	0.95918876	0.45073014	0.57003003	1.131936	0.68105376	0.088817894	1.2901481	-0.7554363	1.6719604	-0.21430047	-0.7454055	0.9010111	-0.67377824	1.6464727	1.5243424
radiation source	-0.85515153	1.55816	-0.68627965	-0.4326842	0.8845407	0.6251244	1.1390125	0.51223546	0.29107362	-0.340096	0.35732767	0.117411874	-2.2758555	-0.50483125	-1.4374421	-1.1659356	-0.17219171	0.67568535	0.32110313	-0.77452433	1.9188141	-0.39825737	-0.22443435	-0.48794445	0.21287103	-0.41219717	-0.8874554	-0.8390438	-0.3993253	-0.14756079	-2.265468	-0.26341638	0.93613946	2.4257607	-2.2791462	0.3967005	1.6653659	-1.038176	1.0853494	0.14749317	0.8244401	-0.91624963	0.60266185	-0.8749008	0.122693814	-1.53011	-0.15551446	1.3371983	-0.5518168	-0.42273086
abnormality	-0.33767828	-0.92511237	-0.26259786	-0.11110173	-1.0931388	-0.408489	2.532904	-0.18204321	0.18854724	0.88750464	-1.2549758	-0.95478445	-0.98986197	0.3946067	-0.43421793	0.16406952	-0.37726247	-0.90630335	0.3129004	-0.27339956	-1.5198798	-0.7451154	0.23340036	-0.6259732	-0.063265026	-0.555546	-0.26090932	-0.096820325	0.86868095	1.0047979	1.2042345	-2.1963997	-1.2316791	0.36090764	0.13296838	-0.4614248	-0.9159623	0.10966304	0.11321476	-1.6954552	0.9098036	-0.74012864	-0.7090541	1.9742873	-2.1391141	-1.4362584	0.453886	-0.24591218	0.77016443	0.52914053
heading	-0.21151574	0.13287245	0.44249928	1.0420139	1.4905112	-0.9588249	-1.2418573	0.15516645	-0.31666183	1.9546058	-1.9153978	-0.071679644	-0.08348536	0.35934353	-0.45074797	-1.0753659	0.29610705	-0.49825272	0.9106613	-0.07234171	-0.48343718	-0.9038039	2.1991203	0.15467602	0.6096624	0.9732059	-2.6755493	1.4914433	-1.2583909	-0.7505955	-0.116573855	-0.10750157	0.54086536	0.36749348	-0.23598659	0.5175707	-0.44086376	0.9753622	0.19198105	1.6086776	-0.20189072	0.9616114	-1.6700253	1.7408828	-1.8031064	0.24380673	0.4134642	1.2595042	-0.87006766	1.7840465
cognitive function	1.2507596	-1.2912813	-1.7746652	-0.3423848	1.0354898	1.4945778	1.5536615	0.4914747	-0.13282548	1.1820865	-1.6995007	-0.93185943	0.7143184	0.68940115	-1.0547527	-1.0069902	-1.3326437	0.4672883	-0.94817966	-0.9409188	-1.437568	0.82437265	-0.6829202	0.35442713	-0.57950133	0.772708	1.3459729	-0.22866732	1.1851552	-0.042299457	1.043352	1.1403636	0.6870982	-0.17643017	0.7239263	-0.9680354	-0.19499	1.1203697	0.5959073	1.1437277	-0.709183	0.98587674	0.36208788	0.5534606	-0.6491582	2.4019697	0.5275419	0.12128306	0.5885529	0.07816633
educational activity	0.5001108	0.6378821	0.035061985	0.9585828	-0.85875404	-0.0046470594	0.79594696	0.87704825	-1.482584	0.45871308	-1.0626563	0.5693247	-1.3448784	0.1803279	-0.7943542	-0.9241309	0.11190668	-0.18799023	-0.85462373	0.5029213	2.2742512	0.33487657	1.0155336	3.4419408	0.34670597	-1.0803772	1.4835942	2.5256553	-0.7826848	-0.9240974	1.0153207	-0.8395223	0.5651924	1.3202878	1.5870942	0.9365658	0.848428	0.1676567	0.693076	0.589445	1.9347883	0.84349173	-0.6655609	-0.41288447	-0.9353726	-0.729661	-0.8913027	1.8132371	-1.1046847	-1.5588139
non food item	-0.5321818	1.5576354	-1.4902334	-1.023153	-0.76725006	0.63480616	-1.2567881	0.83968705	1.3151923	0.3780895	-0.09279663	1.0590614	0.4882975	0.70871633	0.9364587	-1.9319683	0.37496924	0.7465139	0.92680407	-1.0004189	0.03470803	-1.1264375	-1.2753863	-0.15486445	2.1453173	-0.78922975	0.67521846	0.21433641	-2.956157	-0.37503535	-0.3420948	1.5319197	1.4678859	0.44092423	-1.7281073	-0.26276207	-2.0933943	-0.0250224	1.2397912	-1.2987483	0.41659796	-0.043436013	0.855915	0.5149857	-0.015945558	0.08120463	-0.6299403	1.7647301	-0.46207404	0.25225943
microorganism	1.4007046	-0.6648611	-0.6113976	-0.13844247	1.4352739	0.10657033	0.34795293	-0.06289282	-1.5489959	0.7492183	-0.9620703	2.1894436	-0.68873423	2.095333	-0.2875795	-0.82567596	0.6562872	-0.4109697	-1.3360542	1.4558315	-0.32751966	-1.687471	0.97156847	0.7693713	0.15855505	-2.1863575	1.0672783	-0.6396233	0.5605401	2.133158	1.4868102	0.43799853	0.16100475	-0.30553988	0.034532767	1.3164483	0.03693413	-1.5057607	1.5962942	0.25551972	0.2022299	-1.0616505	-0.2549922	0.04004573	0.5678896	0.5013484	-0.016345823	0.4465539	-0.77659106	-0.9841099
cation	0.10924859	-0.6150186	-0.8683023	0.9924128	-0.94015735	0.71685195	0.7569823	-1.425097	0.68929434	1.1460987	-0.055475514	-0.45190123	-1.170191	0.5726818	0.13533762	0.42404383	0.0901442	-0.09955785	-0.67893267	0.79353523	-0.33164966	0.65347517	-0.24317525	-2.411733	-0.4096319	-0.7787756	1.1030525	1.35279	-0.430879	-1.1894163	1.8205627	0.36300743	1.4308871	2.8840024	1.0337828	2.382559	1.7716762	1.8570299	-0.16615187	-1.1939228	0.13141364	0.65714437	0.49862412	0.8094045	-0.91142595	0.8811645	-0.23386331	-1.0956457	0.18261522	0.9526021
ability	1.2570802	-1.1749096	1.3671553	0.4074831	0.29673338	0.053960167	-0.45681772	1.3415177	2.6157758	1.3673629	0.017612796	-0.58381295	0.7983421	-1.1367803	-1.0081507	0.89572805	-1.4555085	0.36266616	-0.6502084	1.6617446	-1.9942378	-0.053387374	0.32029313	-1.3275692	0.45213258	-1.3432543	0.94009835	1.4709795	0.6636208	1.1865146	-1.7524537	-0.8190119	1.7675157	1.7562175	-0.36936605	0.26816	-0.51032555	-0.92445886	-0.0833034	0.93296105	0.14097264	-0.029467152	1.5031608	-1.6477311	-0.20074736	-0.029610021	-0.42015356	-1.0745487	-0.21045364	0.16055411
kind of information	-0.39805022	-0.62177646	0.22872901	-0.11480259	0.58123505	1.2248515	-0.043875307	-0.09387576	0.75776625	-0.76066154	-0.11475348	-0.7376392	-1.3171587	-1.4276787	-0.12835874	1.3078818	0.47994766	0.70329756	0.26690248	0.46220556	0.17797013	-0.772665	0.8399072	-1.1537237	-0.8143281	0.36980775	-0.64514697	0.46014026	-0.66775924	0.05887603	1.9906871	0.034100033	-1.2393929	0.40790448	-1.6355568	2.1659613	-0.9761654	0.45645797	-1.0437194	-1.7463045	-0.47602913	-0.6748983	0.89209926	-1.7243412	-0.3816433	-0.5101691	-0.17479746	2.372463	0.026252327	-0.40264872
promotional gift	-0.825954	0.46783888	-1.3826449	1.3132225	-0.061960503	1.1217444	-2.056314	1.4864489	0.717744	-1.3075025	-0.7531931	1.2445699	-0.6917214	-0.5016247	0.047279105	-0.7853083	1.4899436	-0.3436404	-0.15343828	-0.6229445	1.0081629	1.0394553	0.6469311	-1.4743878	1.0069469	0.79800797	0.095829576	0.3734917	1.816492	-1.0150572	0.38528782	0.00539805	-0.022857917	-0.15799548	0.6197891	0.00961069	2.3052368	-1.5629413	0.28004304	-0.38273138	-0.6519626	-0.5022264	0.83999217	1.73087	1.0194138	-0.97292346	-1.3382102	0.55431956	0.7769651	0.37747946
application field	1.9675108	-1.9338108	0.45574805	-0.31753215	-0.032607853	1.3047465	0.5366428	-0.9532613	1.4459751	-1.6342564	-0.36071223	0.26495928	1.7741879	0.60221654	1.2274239	-1.0339104	1.1241379	-0.8508646	0.20024352	0.54138136	-0.4791483	-0.15806186	0.61019427	0.7774711	0.055730235	-0.42376307	-0.39065674	0.40181163	-1.2769533	0.3092524	0.01099745	1.1471982	0.3672032	1.6297619	-0.1070465	0.7391658	0.42624897	0.75044787	0.9107959	-0.18958543	-0.6556061	-0.3749304	-3.575655	-1.5363404	-1.0327154	-1.340192	1.1758516	0.43981642	0.028451327	0.053224817
support material	2.9140356	-0.16407298	-1.5816348	-0.7952816	-0.8647013	-0.56777275	0.23094071	0.018517742	-0.020611297	0.9941748	-1.5173793	2.115192	-1.6570704	-1.1380303	-0.011821846	-0.21365035	1.0662694	-0.8444212	-0.47625434	-0.22230327	-0.67525035	-1.3070945	0.12045671	0.039369702	0.7448947	1.0726167	0.7703275	1.9729246	-0.6852851	0.061404668	0.2753828	-1.9939545	1.0098583	0.5692457	-0.66484517	-1.5439957	-0.89885145	-1.2822082	-0.65070796	0.67686296	0.048399292	-1.6934236	-0.93921304	0.18215391	-0.7150142	0.50078595	1.3619882	-0.13212554	-0.051039275	0.4788569
viral infection	-0.59062004	-0.06088318	0.751939	1.1370448	-2.1398847	-0.73563856	-0.5826127	0.10589039	-0.29860085	0.15745844	0.11395304	0.06670286	0.004125038	0.5972403	-0.78761363	2.0184038	-0.45279408	0.037910964	0.79135424	-1.3493034	-1.757925	2.3646321	-0.328975	0.4111509	1.39782	-0.9246278	0.8716369	-0.4158662	-0.28506726	0.80968887	0.5659328	0.07815142	0.22095251	0.3948727	-0.7492013	1.0625534	0.24530534	-0.45868057	0.8660421	0.043443926	1.3538167	-0.043621927	-1.4609036	-1.3193175	0.28679895	-0.095884174	-0.6692366	0.76966584	-2.2512288	0.9034367
technological solution	-0.22082977	-1.5515437	0.5000394	0.7828833	-0.63726974	-0.2685659	0.41745022	0.9182449	0.2302351	-0.27722433	0.16782983	-0.11886204	-0.033812374	-0.9504583	0.04872395	-1.0060965	-1.5825152	0.8059575	-2.50578	-0.19661896	-0.64128554	-0.060999043	1.0581504	-2.1224575	0.17584017	1.1414194	0.77585983	-0.8553951	-1.9210347	1.1310788	0.073256515	-0.8532131	1.8178782	1.4916525	-0.009045983	2.1946418	-1.8897302	1.3800936	-0.17930548	0.06277973	-1.2938751	0.008065993	-0.21735297	0.5433326	-0.12915558	1.7670794	-0.68007946	1.0012194	-0.29128847	-1.5254369
solid waste	-0.6934654	-1.3775463	2.017444	-1.3230356	0.6384091	-1.6561828	0.62327486	1.1688522	0.6031884	1.6569033	-2.946731	0.107294306	-0.8226714	0.5643541	1.1863186	-0.6009401	-0.7815928	0.43664086	-1.2728711	0.84346515	-1.7662872	0.6303787	0.22747599	-1.1890715	-0.75648385	0.1870401	0.8001807	-0.88624996	0.52657133	-0.022546573	0.40187833	1.2216624	-0.6282192	-0.88537264	-0.3664969	0.20343077	-1.2125852	0.81901413	0.14566213	-0.6616379	-1.070869	-0.4850985	0.49549374	0.6986863	1.8317479	-0.3630069	-2.2434564	0.8036542	0.12975569	0.09792082
pathogen	0.72808784	-0.870634	2.921288	-0.45461372	0.61659604	-0.6049361	0.19959791	0.28570208	-0.3905894	-0.36255231	-0.9353903	-1.4224391	-0.2190551	1.1342713	-0.7265954	2.1122155	-0.48605606	0.9547873	0.7141543	0.35953397	-0.10984737	-0.46527436	1.7680176	0.6269462	0.7681251	-2.2667649	0.18943366	1.6761225	-0.31189352	0.670125	-1.7875673	0.30520585	-1.214599	0.02781346	0.570146	0.47227085	-0.22863589	0.7679365	-1.0098581	0.016599707	0.082965225	0.37525457	-1.8241765	-0.8752931	-1.2116048	-0.383882	0.84017843	0.17039952	1.9655036	-0.3683088
matching accessory	-0.8657376	0.81203645	0.2924824	0.45240268	0.12268208	0.7413931	0.44832382	-0.29014271	-1.8157105	3.5133429	-1.0721029	-0.20987178	-0.6433341	-0.4824325	0.9513824	-0.50185907	-0.15259792	1.1765016	-0.8530117	1.416071	0.9327106	1.298724	1.0713354	-1.2463535	0.41095677	-2.034105	1.6653907	-0.30315217	-0.8703115	0.1906849	1.4961973	-0.7599462	-0.4759337	0.7807566	-0.53131485	-0.48511812	-2.4216924	-0.8973273	0.19508418	-1.4185653	-0.8821912	-0.33152786	-0.07788132	-1.0958549	-1.2890869	1.9841273	-0.20213899	0.12982927	1.213391	1.4916997
financial matter	-0.96890795	-0.32900196	-1.4320565	-0.60076797	0.70595986	-1.3863535	-0.41328967	-1.0388112	-1.4839901	-0.16920398	0.5929383	0.25727755	1.1658691	0.50711167	-0.05126208	0.9103556	-0.7002042	-0.9947519	0.737313	-3.4441304	2.0398345	0.7062297	-0.69397634	-0.30309877	1.3454431	1.1220053	-0.6537106	-0.9744195	0.71232426	0.07070285	0.11179513	-1.0230496	-1.2926905	-1.4960887	0.791826	-1.0757006	1.4205632	-0.4267368	-0.45962775	-0.9127493	0.43807033	-0.33893853	-1.2942454	-1.9053438	-1.1965818	-1.1242019	-0.651333	-0.15910214	1.7767754	1.3106594
success story	1.4316642	-0.610643	-1.5110611	1.7512354	-1.2844709	-2.1772733	0.14326803	-0.7688698	1.8250687	0.42839953	-0.896226	-0.933422	-0.95782125	-1.3827271	-0.077163234	-1.058448	-0.09884475	-0.9659647	-1.3639073	0.59855056	-0.3789043	-0.47715276	0.13047752	0.116912566	-0.25578552	-1.0338364	1.0046942	0.13419512	1.7184126	-1.677931	-2.112136	0.9934689	-0.828584	-0.95462847	1.0012428	-0.60544676	-1.8526169	-0.17011476	-1.1903659	-0.78426725	1.7716628	-0.70976514	1.3757118	-0.15897202	-0.75218904	-0.06530647	-1.7523694	2.0015745	1.5362514	-0.8064884
impurity	-0.3433253	1.2455314	0.7182597	-0.0030484889	0.8107255	0.17565434	0.5590813	-2.359539	0.19144252	-0.5969389	1.776021	-0.15852448	1.3837961	0.5235951	0.02972314	0.016204007	-0.85582393	0.25195575	-1.2093638	-0.3494018	-0.5277957	-1.4086705	0.8816539	-1.1984965	-0.21134442	0.42049542	0.3710286	-0.12247248	-0.0769788	-0.05500172	0.6382509	0.62007916	0.65069085	-1.8592831	1.1705773	-1.4467645	-0.29660973	-0.25397292	0.943475	0.7227604	0.60677576	1.7177782	-0.083717346	-0.47332364	-0.38418448	1.1079928	0.18103892	0.41696668	0.028881704	-1.7978114
actor	-0.72772694	-0.8517899	1.3249246	0.7465166	0.27868637	-1.8259194	-0.08407557	0.18930341	0.096794724	-0.5748104	0.2989112	0.48578307	-0.2668803	1.513448	-0.23118478	-0.3585227	0.82308763	1.6629761	0.09289564	1.2756046	-1.6699395	2.6518307	-0.35967982	0.1625481	1.0417063	-0.47592422	0.7559855	0.13386874	0.8200919	-0.61387086	1.0386019	1.4409992	-0.4084252	-1.3908504	-0.60806626	0.67207944	0.54424316	1.0079767	0.5695853	-2.3647258	0.44737083	-2.824198	-0.30912045	-0.58883953	0.46232563	0.4385964	0.3388764	1.1819043	-0.16928266	-0.23911536
dessert	0.004513832	-0.38179404	-0.6717028	-0.9489938	-0.51222783	0.27366212	0.11960241	-0.26200533	0.55414397	1.3249409	-1.2280662	-0.60857254	-1.0099539	-0.39785153	-0.28170422	1.0877326	0.23343386	-1.1729814	-1.182527	0.7974336	-0.23911163	0.33984327	-1.8800323	1.0713811	0.7179516	-0.34976995	-1.5885177	2.8858092	-0.27210647	1.5094059	0.96900415	-1.3178878	1.4268564	0.7654883	0.46582824	0.27879813	1.6015726	2.334054	0.6892017	1.3639165	-0.34413308	-1.5631082	-1.1330869	-1.130722	0.038723268	-0.1736304	0.4191895	0.3413942	-0.6095389	-0.013256835
soil condition	1.1352606	-2.1229184	0.81998575	0.42422783	-2.1937075	0.90277344	-1.0746083	0.38476714	-1.6469388	-0.9664961	1.1626401	-3.3416371	-0.03605943	-1.5768474	-1.1678144	-0.8640864	-0.051331542	-1.3054368	0.23135737	1.0820225	1.6543338	1.8236604	-0.015241746	2.7589364	0.18639249	0.79263216	0.6540694	-0.39717025	-0.103146724	0.2994547	-0.46436572	-0.45372745	0.59889126	-0.39140314	0.35357553	0.6146665	-0.49581504	-0.4857921	-0.5818232	0.04823804	-0.094179615	0.06241533	0.41084933	1.4194928	-1.6057673	0.46552247	0.70538706	-0.5078781	0.15933494	-1.1511102
locale	-0.36532038	1.1136179	0.32438964	-0.30132172	0.959412	1.3290913	1.7683706	1.5582993	0.55245215	-0.22173421	0.07062894	1.9847039	0.6482536	-0.6132641	0.70807236	0.47828215	1.4424671	0.4721072	0.39367652	-0.1907141	-1.0024174	-1.1585203	-0.69879776	0.5100625	-1.4112618	-0.56483775	-1.3307453	-0.19940373	-2.0349793	1.1357752	2.4488661	0.7890043	-1.7426193	-1.0013101	0.16086815	0.5503627	0.2660591	0.34921077	-0.28787705	0.7923306	-0.14117771	-1.6793613	-0.30788323	-0.11927661	0.22244842	-0.57961357	-0.050035577	0.37504342	-0.4581964	0.22377253
insulation material	-1.116697	-0.71438444	-2.6913402	-0.97754407	0.80671376	0.7576128	-0.21189477	1.231155	0.93305755	0.4809082	-0.8087219	0.8254655	-1.1995238	1.5330341	-1.0427474	-2.6669602	0.72816646	0.7098306	0.78701025	-0.7901647	-0.8476793	0.0017444268	-0.23184298	-0.054173253	0.43437672	-0.87360317	-1.5321282	-1.6346087	-1.8355983	-1.2370625	1.9750793	-0.4758426	1.5978408	-0.6634881	0.21083665	-0.42985967	-0.28848493	0.6946943	0.61487347	-0.88270617	-0.4029083	0.8576774	0.7706829	0.829141	1.0273968	0.52783954	0.33382317	1.2863101	1.3450009	0.9397624
electronic system	-0.91068643	-0.03632378	-0.22575863	-2.364467	1.6073259	-0.22214288	-2.2771103	-1.8284224	0.47792783	-0.84685403	-1.5730559	-0.68035823	0.6262295	1.9513776	0.8152137	-0.32540926	0.4335271	-0.86615556	-0.36178142	-0.29485872	0.23096453	0.35882542	-0.16931021	-0.6591462	-1.2693086	-0.17719449	0.020799715	-0.14089583	1.2906463	0.5092456	-0.047829315	0.957199	0.26960877	-1.4378915	1.1464353	-0.6222032	-0.17301424	1.0135854	3.0487516	0.6166421	-1.2848791	0.75923425	0.7427508	-0.2037327	0.5995939	-0.5670533	-1.253238	-0.24635403	-0.48789296	0.095607206
disease condition	1.1552513	-2.0358076	-0.75755274	1.1229213	0.14057238	1.7926931	-0.09212615	1.5777899	-0.30377382	0.7373418	0.9611548	1.5819311	-0.14551924	-0.10082203	0.31600296	1.5808182	0.28681895	-0.8971974	0.94768417	-0.91503525	-0.29398215	-1.9553287	-0.58630985	0.092514515	-0.62578565	-1.500428	0.68727297	0.07104347	0.23672453	0.52076197	0.32861668	-1.3859687	-1.6513636	0.31196365	-0.21191597	0.67342657	-0.10461089	1.5309184	-0.5980207	-0.34537017	-1.2313664	0.743249	-0.22875464	-0.8196424	-0.5042427	0.037518337	-1.6235777	1.6499348	0.9463603	-0.8838429
topic	0.30243227	1.0860882	0.20595588	0.66699284	-0.5083471	0.7085001	0.27911377	0.6345728	0.44638398	-0.6210898	1.1591123	0.3394856	-1.1085737	0.16739482	-0.40129247	0.7951631	-0.19930573	-0.14536153	-0.001401009	0.20506082	0.6140394	-0.6700438	-0.8592356	-0.11368191	-1.1239822	0.35501197	0.8383337	0.06321734	-0.772876	-0.068505354	-0.26306567	1.1471343	-0.7170617	-0.32104936	0.055746403	1.2555237	1.2770863	-0.05750802	-1.0718514	0.24410097	0.6503825	0.8946648	-1.0775454	0.11903614	0.07852648	1.1965085	-0.6863388	0.6577983	-0.117360815	0.2718926
tenant	0.11416911	-1.943686	1.5817726	0.7749086	-2.3224783	-2.0000863	-0.7601986	0.7638021	0.11162375	1.4962888	0.6914113	1.1648153	0.5575666	1.1993804	-1.6300637	0.03428895	0.3007557	-1.4923091	0.5314444	0.40589535	-1.7120639	1.1626831	0.69034743	-0.6190638	0.8476019	-1.2480662	0.30402642	0.9400725	-1.2949696	1.2575244	-0.0055421814	1.031437	0.047106266	1.6290789	0.069235206	-0.5525434	-0.80861074	0.11404315	-1.0462487	-0.10837786	1.6289905	0.53637546	-0.064836435	1.3213309	0.8063613	0.7282868	-1.0113467	-0.22404845	-0.5514457	0.6399548
socio cultural factor	0.113968	0.27746657	0.111279786	-1.1507467	-2.307723	-0.56688964	-0.6342664	-0.5245206	0.59637463	-2.3835483	1.3132061	-0.95204014	-1.6667747	0.78450733	-0.13838473	-1.9138672	-1.1965171	-0.069830246	0.01433963	0.6778439	0.07650607	0.782795	-0.00017222017	-1.3874612	-0.45118126	-1.6592294	-2.0118332	-0.86213654	0.6061194	1.1172777	-0.6023347	1.5660969	-1.058954	0.55491406	0.13584185	0.48422456	0.6262625	0.9728698	0.029245047	1.0634491	-0.6004207	0.95495284	-2.3836782	-0.8193205	-0.43113354	-0.14617942	-1.3503066	-0.037958987	0.77008796	-1.8113732
business sector	-0.69833654	0.5098699	-0.43774047	1.078668	1.030079	-0.83802325	1.8714714	-0.60027283	-0.025380697	-1.7232428	-1.566962	-1.1861649	0.31953043	-0.19549826	0.5164624	-0.5696398	-0.2871804	0.35294285	1.2239566	-0.3964919	-1.0777196	0.47111917	0.78457457	0.457832	-0.16167028	0.91923565	0.40594372	0.50340873	-2.2104971	2.1713595	-0.09561135	0.5288121	0.31005794	-0.4854646	1.2487668	-0.3102774	0.6655051	0.37146914	-0.7383256	0.42351925	0.07574495	1.4236965	-0.64230657	-0.321181	-0.121666715	0.45702296	-2.1913779	1.7346946	-1.1243432	-1.8622977
dry ingredient	-1.6466786	-0.437881	1.3997625	0.40934616	-0.74184346	0.8191196	2.0767498	0.3525224	-0.19017649	0.17534906	1.7594638	1.1049552	0.9355835	-0.0986227	-1.2748821	0.4281238	0.6863758	0.74177563	0.0048467144	1.4475522	-0.8326396	0.17417149	-0.15290982	0.7209462	-1.0417798	-1.0752604	-0.18948977	-0.3550516	-0.7168469	-0.4831056	0.3632205	-1.3002803	0.65050733	0.16917403	-2.0460136	1.3679218	-1.3198311	0.7256945	-0.16977513	2.571377	-0.3677089	1.0056422	0.66025877	-1.6491977	-1.0384867	-0.19955307	-1.0356504	-1.2967305	-0.3482019	0.38087946
global brand	0.99618983	-0.3333577	-2.8348901	-0.29143828	-1.6382406	-0.745017	-0.8882648	0.23349613	-0.20873317	-0.37392178	1.1465434	0.29453397	0.54724324	-0.18806587	0.31999758	2.2758653	2.723817	0.139727	-0.87924707	0.8280999	-0.4421484	-2.6119409	0.19514516	0.40256014	-0.65165484	-0.29432422	-0.7182054	1.8578149	-1.1009612	0.34691018	1.2105942	-0.5737589	-0.9262787	-0.28038067	-0.7930242	0.6452356	-0.18117735	-0.67982006	0.5195781	1.2888948	0.7947257	0.678545	0.28807276	0.94187886	-0.1294933	-0.9437998	0.99353707	-0.5931147	-1.4269979	-0.980328
delay	0.015464101	-1.7127746	0.040075563	0.087403566	-0.7898273	2.0716426	-1.7377849	1.0699954	-0.5331262	-0.6086702	-0.07075593	-0.5073713	0.80430126	0.01624157	0.76610816	1.6951828	-0.13311008	0.8955288	0.6270575	-0.9287979	1.4137667	0.009938503	0.86566556	1.8729658	-1.1709962	-1.1204861	-0.9262597	1.3171433	-0.5016777	-0.93659604	0.35985854	-0.12025907	-0.52268636	0.42670596	-0.60664696	1.4356533	1.1209468	0.6431622	-0.67314416	0.56779915	-1.2453325	0.9285564	0.21439458	0.2807463	-1.0189193	-0.021031085	-0.7083104	-0.62632143	0.25822213	-0.83092946
polymer	0.6582301	-0.46541527	-0.030400103	-0.23051812	0.29921973	-0.097426005	0.8379774	0.4345641	-0.9240229	-0.8394056	-1.2924069	-1.7684009	0.043207705	-0.27715132	2.2702196	-0.19148383	1.2595745	-0.07562714	1.9120902	1.0292103	-1.2338468	-0.13280667	-1.4408345	1.7224958	-0.70856744	-0.41326055	-0.1012468	0.6530411	-1.9128724	-1.055618	0.6636596	-0.79133385	0.5356638	0.93313473	-1.9299959	-0.14750274	0.47230774	0.5659389	1.0242685	0.7672624	-0.007862056	-0.57698214	0.39143428	0.71755224	0.79149604	0.08984293	-0.21828467	-0.5560187	1.2364067	0.61104536
malignancy	2.1337616	0.062179193	-0.50202036	0.653066	-0.17369184	0.9879854	-0.9115429	-0.37538236	0.15477385	0.6436741	-0.9314145	0.64385545	-0.028342007	0.107818395	0.9630645	-2.8827949	-0.72920585	-1.4348234	0.047261134	-1.6694597	0.9055884	-0.42566982	1.5385389	0.767387	0.18024944	1.2271446	-1.2166133	-0.89520454	0.9778203	0.3146338	0.31719044	-1.33892	-1.1832929	0.27634218	1.5819075	0.92081743	0.26956263	0.19061242	-0.05312708	-1.1003536	-0.30413353	0.018816458	2.676295	0.82143766	-1.1523715	-0.070448324	-0.016254779	-0.80025566	0.44121155	0.9885305
common	-0.50457424	0.21511213	-0.66611874	-0.22447161	1.2492923	-1.7650263	0.8547632	-0.16885708	-1.9503112	-0.20735288	-2.9486012	-2.5969996	0.63506603	0.84116876	-0.41708636	0.6366672	0.43390083	-0.4396667	-1.7594081	-0.15287378	0.34437376	1.8943337	0.4672805	-0.2463753	-0.051168725	0.29744282	-0.5648684	-0.2509289	-0.5846687	0.71639824	1.1388764	-1.4339033	1.3624241	-0.9164755	1.7545965	0.9506686	2.0180337	-1.0573705	0.16686204	0.85288453	-0.93162537	-0.27082795	-0.122928075	-0.55723935	0.63899624	1.9932823	-1.080601	-0.90649307	-0.54303724	0.60392874
aroma	-1.1146424	-0.65391946	0.16358246	0.6881607	0.2069071	-1.2166021	0.58881676	-1.4698787	-0.77494466	0.40247136	0.63442916	-1.4230827	1.5263798	-0.20212299	0.10141154	1.1944674	0.18908536	0.8145564	-0.40283817	-2.028114	-1.8343104	-0.43582493	0.38985837	0.074372925	-0.8117645	0.6660382	-0.00909772	-0.9860764	0.22031535	-0.14295433	0.9515558	-0.15591753	0.1907638	0.59977037	-2.3742783	-2.9766366	0.8309291	-0.34103918	0.8849619	1.242146	-1.8316894	-0.52652586	1.1520114	-0.14597154	0.95495564	0.031979144	-1.5391129	1.1002723	-0.5904961	0.48165292
essential nutrient	0.3535083	-1.2156117	0.48908982	-0.08872236	1.3641379	0.040502895	1.078763	-0.14342263	0.49320647	1.0028293	0.98191893	2.24195	-0.2511783	-0.29178014	1.8071916	-1.5962492	-0.87939477	-0.42732245	-0.50334835	-1.1909801	-0.5310366	-0.22365169	0.29042673	0.2993361	-1.6539354	0.8372164	-1.0933753	-0.582375	-0.72005725	0.8407886	-1.1705983	0.2230425	0.6623195	-1.2780273	-1.5145292	-0.8674986	-0.74032056	0.14903119	-0.5089464	-0.9843446	-1.0376012	1.5303428	0.86873996	-0.45747882	0.02992289	1.9398423	1.2392253	-0.46666235	-0.37742203	1.440419
packaging material	-0.82557493	0.5073789	-0.35371405	1.634478	-0.6043311	0.0390034	1.3179629	1.1383198	-0.17856273	0.08293782	-0.43874434	-1.479393	-0.16001065	-2.04734	-0.33351043	-1.0943204	0.29826477	-1.3860995	-1.1313951	-0.88467646	-1.4748092	-1.6781652	1.1196666	-0.6814806	0.30636367	0.9331488	0.2309158	-1.7090632	0.45025286	-0.89034224	1.070898	-0.2400674	-0.2342827	0.46653214	0.45781466	0.45221493	0.4910988	0.05594538	-2.247259	-1.0680048	1.6769876	-0.91708195	-2.096533	-0.47540754	-0.79838973	0.5185541	0.97966474	-0.2394401	-1.0768306	0.6401991
chinese company	0.030164927	-0.59321994	1.3907342	-1.2770433	-0.4195369	-0.22566658	-1.1433213	-0.41419485	-0.4249586	-1.8119223	1.1374718	-1.0580571	-0.6756579	0.2547763	0.9668984	0.35052273	0.33395034	-0.39676487	0.7218936	0.4228229	-2.233904	0.6116311	-0.42007446	-0.7407408	-1.3318831	0.7066181	0.117640056	-0.5128072	-0.6772581	1.7408671	0.40714565	0.7918941	0.8085449	0.88542825	1.056142	-0.30188793	-0.3456477	0.31200495	2.1301036	-1.6812198	1.464566	-0.61589146	1.3164362	0.6099467	-0.04279588	-0.7261173	-2.5365286	0.79192525	-2.4799004	-2.4322238
medium	-0.9681479	-1.0829746	-0.86359435	-1.285445	-0.74367577	-0.53692997	-0.24116501	0.12378445	-0.0458676	-0.93265253	1.0196979	-0.17775165	-1.1541145	-1.1087937	-0.026394071	-0.9689437	0.71894985	-0.83410037	0.35237336	-0.7113235	1.1584238	-0.21716265	0.6544841	0.042463176	1.2228482	-0.32716396	0.8100752	0.47274238	-1.2269506	-0.30778024	-0.05322603	0.03734064	-0.3650043	-0.70180047	-1.1970555	1.0589588	-0.2864325	-0.18213108	-0.13825801	-1.0008305	-0.6760788	1.1444958	-1.758942	0.5281295	0.15500641	-1.001754	0.76929325	-1.0430615	0.6286672	-1.4165465
prescription drug	1.1382282	-0.3111456	-1.6915047	0.59368753	-1.4283311	0.45710853	-0.470335	-0.8792981	0.03439115	0.817188	-1.2665843	-2.1561744	0.31811884	-1.3432634	0.78989327	0.21456167	-0.9758959	-1.1641902	-0.45377886	-0.06474461	0.75983167	0.23835555	-0.57403743	-1.167995	-1.3611212	-0.30773327	0.630632	-0.35607883	0.6989406	-1.0905215	0.53559697	-0.9982372	-0.864918	0.4418688	-0.17491865	1.4527977	1.8637697	0.17979643	-0.685716	-0.89952904	0.76059854	1.6716123	-1.0893569	-2.8440566	0.21275882	0.051491477	-0.9151857	0.7050743	0.22873633	-0.64770526
staff member	0.36660367	-0.4697705	0.3384146	-0.34301278	0.83037543	-1.9138386	1.3851864	-0.92905873	0.31609714	0.17004895	0.6259823	-0.10519108	0.5931391	1.7489996	0.62873846	1.2450722	-0.14158948	0.89588636	0.20683378	-0.31730816	0.55775774	-0.7479735	-0.145878	0.84848887	0.5569445	0.53945637	-0.036267757	2.8491685	-0.15831974	-2.0196037	0.31404707	0.67543817	-1.7684754	0.40546477	-3.0677006	-0.30273432	-0.29375783	-0.9413431	2.4589894	0.46326202	-1.5354855	0.9661048	-0.7630092	0.23023151	0.9691616	-1.3180492	2.3919294	0.015130676	0.011522317	0.22359128
social force	-1.1720606	0.8211805	-0.7115667	0.121610515	-0.061469585	0.32636055	1.3712021	0.054988705	0.96189415	-1.209275	-1.4605244	-0.8719396	-0.36495042	-0.32157302	-1.1571517	-0.1542541	-1.3594884	0.99116486	0.27471623	-1.5941265	-1.6317832	-1.1471796	2.0765898	-0.61704314	-1.3614653	1.3035744	-1.1594747	-1.2002478	0.7671052	1.1795945	-0.34428877	1.6353527	0.59414583	0.27534398	0.33505976	-0.24469213	0.4987288	0.90586543	1.9569751	0.7287769	1.2810001	-0.2713185	0.19769068	0.3750572	-1.6859782	0.03701943	-0.9630309	0.18478961	0.45361635	-0.022258779
quality factor	-0.7413888	-0.6123301	0.31132182	-0.39216223	-0.7493389	0.4873094	0.7345283	-1.1674838	-1.0359532	0.055657074	1.2334021	0.10546876	0.41353184	1.4739687	-1.2439927	0.062570214	0.49650213	0.0676305	0.21434368	0.95796585	-1.513569	0.25796172	-0.8322804	0.6121182	-0.47707018	0.1550952	1.5375224	-1.0341341	-1.614	1.6471817	0.8245161	0.21364139	1.0740542	0.86320096	-2.2711854	-0.4643261	-0.80106395	1.0054555	0.16290177	-1.9495542	-0.057037212	-0.16670957	1.3779538	-0.15398549	1.2473952	-1.5919952	0.49593306	1.991147	1.2614437	0.5509915
serious issue	-0.055501513	-0.9217569	0.50997436	0.83294445	1.1456717	-1.7676595	-2.0743513	-0.2255963	-1.8987056	0.41293338	1.4015281	-0.8353419	-0.08444562	0.018423298	1.0983396	-0.5946556	-1.6071159	1.270156	0.5810057	-0.02581413	0.22753856	-0.62599564	0.74013364	-0.61897844	0.90823877	-0.8652403	-0.96145034	1.6426569	0.095443904	-0.52762574	0.23681402	-1.3185208	0.422455	-0.47670344	-1.1841403	0.7549172	-1.3101736	-1.1799486	0.024729542	-0.5186048	-0.5627781	1.4829471	-0.050592236	-0.9573686	0.20186172	0.49287295	0.7576807	-1.1537533	0.040897295	-1.5232955
transport	1.5747292	1.3223666	-0.98974127	0.37883982	-0.97815883	0.7426077	0.5566268	-1.6422372	-0.9018711	0.66947496	-0.7588423	0.91781616	-0.6304831	0.231634	-0.33675945	-0.68761176	-0.39590165	0.45676458	-1.3488907	-1.1751552	1.122326	-0.41382805	0.9870004	1.1579862	-0.25914532	-0.083326094	0.23155476	0.028498536	-0.5229104	0.7192495	-0.037745327	1.7813896	0.9542076	0.3929161	-1.2275585	1.6225624	-1.883269	-0.20737554	-0.82367843	-0.30370757	-0.8959869	1.3164762	0.46794006	0.5157195	-1.2183014	-1.0827929	0.17339505	-1.8010296	-1.5344194	1.4886708
fighter	0.87316096	-0.18251559	-2.273168	-0.3762425	-0.10252197	2.062245	0.85477614	0.86457765	-0.21320081	-0.25210303	0.2740582	0.24671306	1.6756275	1.8569788	-0.7837043	1.0443662	-1.5257169	-0.8583665	0.5432777	-0.2812939	0.16627273	0.47730163	-1.436767	0.018729346	1.1672567	-1.1741766	-0.3752563	-0.060187813	-1.4674616	1.2090055	-0.18915454	0.8082461	0.53176504	0.86922646	0.4030263	-2.0279415	2.1218657	0.04069249	-0.6771209	1.8143996	-2.7298596	0.3406447	-2.0640323	0.53209776	-0.6704489	-0.8231209	-0.5999966	0.8657835	-0.047517724	1.398422
parade	-0.39927053	1.5971459	-0.14788467	1.8431461	0.8887072	0.41980997	0.14858718	0.29272944	-0.4347842	-0.63174444	0.39636374	0.6403612	0.05299022	0.5936379	-0.98635817	-1.8964554	-0.7799685	0.72776985	0.07271865	0.53228974	-0.13012303	-1.1608552	0.04250373	1.2511623	-2.1811163	2.0598805	-0.77824086	0.6720981	-0.19158879	1.5468428	0.27948543	-0.26183048	-1.5767254	0.5486553	-2.112789	-0.18971977	0.30851912	0.641078	0.13889006	1.6060425	0.13482422	1.4065452	1.3287607	0.86055773	-0.9747261	1.5239425	0.1496328	0.25978652	-1.0020604	-1.2824802
dish	-0.65241104	-0.44857126	0.022250649	-0.4107533	0.06003073	0.7792478	0.28976816	1.5276465	-0.062708296	0.79166245	-0.11114255	1.4734199	-0.21774578	0.15081973	-0.045831226	-0.6622418	-0.29884785	-0.11679927	-1.9332056	2.1820934	1.037889	0.9222992	0.74651897	-0.17533012	2.4964476	-1.0299581	1.8640846	-0.26719669	0.03367489	1.1571386	0.08293307	2.0329137	1.0790052	2.0190825	0.15106262	-1.2812706	-0.41295055	-1.4147549	-0.48965096	-1.5234803	-0.02850387	0.44768482	0.36521217	-1.1646886	-1.4746095	-0.23669167	0.047051266	0.19931562	-0.6481525	-1.1154627
co morbidity	0.6715923	-2.0788856	0.6396645	0.6106257	-1.003502	1.1790575	-2.1722424	0.2719195	-0.37623453	-0.13759093	-1.4213792	-0.13543794	0.82111466	0.61481255	-0.1386948	-1.417525	-0.95108604	-0.6274291	0.209288	-2.1869366	0.30030102	0.84254193	-1.1278577	-0.037292443	0.5582416	-0.6115686	-0.53838986	-2.0382912	-0.20175163	-0.06661095	-0.7994008	-0.2332488	1.7343972	-0.33871213	1.4461434	0.11350393	-0.018960949	-0.3289173	1.3922731	-0.20409037	0.67433125	-0.42735076	-0.059154466	-0.7723666	1.3762933	-1.8925825	-1.2191932	0.9079695	-0.19475676	-1.3072386
routine maintenance	-0.7764144	0.025563275	0.50378	1.9828625	-0.10571261	-1.1081451	-0.5984722	-0.5278613	0.63954204	-1.5326277	0.11940009	1.1045825	-2.553414	0.2919354	-0.5854954	-0.069861434	0.51255596	-0.4390647	0.26654863	0.32506418	-1.0256271	0.7630015	-0.6860283	-0.7726961	0.123414345	-0.07435853	-0.7776271	-1.5298977	2.2124043	0.11123178	-0.10504901	0.4752713	-0.98627114	-1.1729131	-2.581149	-1.408708	-1.9760654	0.3964546	0.7586528	0.14144474	-0.55656534	-0.09783173	-0.9115888	0.27603713	-1.4237164	2.334636	-0.38647458	-0.19641638	-0.29160368	-0.3976648
operational datum	-1.2476183	-0.47860637	-0.49184975	1.5447768	0.3390338	0.91463655	-0.7599415	1.0757595	-0.016245756	0.19487378	1.3706596	-1.0613216	0.28997043	2.2762818	0.47413442	0.46705303	0.42757148	0.69699126	-0.34231162	0.19815837	0.8892402	-1.313252	-0.062447276	-2.0132713	2.3240676	0.09911206	-1.1870446	-0.063011006	0.14665924	-0.58725345	-0.23332238	0.58915704	2.1779113	0.46888235	1.0946672	-0.7511395	-0.09588592	0.36537766	-0.70593494	2.0109742	1.6647322	0.6921271	2.05412	1.778572	1.2958847	-0.22979827	0.21393247	0.096061185	-0.4167706	-0.17497851
image processing	0.56058747	0.8082023	0.08156297	-0.059002466	-0.7090996	-1.3526374	1.0132897	-0.89792186	-0.32909507	0.75265175	-0.43881336	0.3881236	-1.2065345	-2.7148755	0.79204535	0.5659715	1.0515484	0.65546036	0.26778767	-0.7056508	0.76806337	1.2032603	0.14478415	1.7440447	0.63564634	0.007469315	0.008978488	0.14418505	-0.82962644	-0.6052261	1.7434276	2.0658457	-1.6485112	0.2424844	-0.399699	-1.4460194	0.17786564	-0.4750167	0.45216903	1.3926933	-0.11684265	0.728897	-0.04569474	-0.7652221	-1.1430916	-1.5952542	1.6992176	-2.0656645	-0.50620234	-1.7388648
hardware device	1.0969257	1.7900304	0.027671028	-0.43273276	0.24855521	-1.191382	-0.9015545	0.33735994	-0.42606908	-0.24652572	0.6944619	1.080939	0.21951817	-0.022006413	0.15698798	-1.7496952	-1.9824545	-0.16691923	-0.6103046	-1.2892169	-1.160874	0.32938087	0.3946699	-1.4920781	0.09328131	0.5925184	1.4321514	-0.27827957	-1.3239069	-0.8943328	0.10540725	1.5481548	-0.8421321	-0.729099	0.48531958	-1.3484683	-0.10053589	-0.027203273	0.03586257	-1.359418	-0.62529874	1.60241	-0.7526518	2.479242	-0.62375724	-0.012880584	0.87621224	-1.7025232	-0.31859136	0.80234027
team	-0.9471217	2.0224104	-0.95978624	-1.7321441	0.7709485	0.25914794	-0.7277149	-2.0342033	0.99233186	0.2706587	-0.8373731	-1.035753	1.7220618	-0.31792626	0.27597514	0.077311985	0.5186058	-0.4150236	0.73962176	-2.139347	-1.0197097	0.08006244	0.305382	0.60535055	-0.9647791	-0.27257583	-0.47683105	-0.48552683	-0.75429267	0.61237097	0.44269827	0.3061948	0.21846075	1.1931694	0.1872912	0.08910193	-0.3942371	0.33210394	-1.7201884	0.90042776	1.0850749	1.0412762	-0.71641296	1.7291048	0.5525192	-1.074468	0.026233701	0.47492695	-0.6023647	0.7599598
environmental condition	-0.6514024	0.6090513	-0.3111002	-0.81612927	0.04396099	1.1818213	-0.5451336	0.2550947	0.73986006	0.7767187	-0.6257163	-1.2714515	-0.6749558	-0.5629075	-0.69396245	-0.26012668	-1.4958091	1.0184569	-2.2507677	-1.7466166	0.681826	-1.3838782	0.3283181	2.0862284	0.94222546	0.5313153	-0.89833814	-0.564568	-0.027919322	0.08669219	-1.2019166	-0.09713898	0.80943626	-1.4966269	-0.79916424	-1.1874372	2.19196	-0.42804235	0.70244384	-0.051278144	0.01886284	-0.10685172	0.49573815	-0.38424534	-1.487227	-0.003494341	-1.0195615	-0.7119163	0.13315687	0.5644648
wet area	-0.36694738	-0.1170701	1.016947	0.9182066	0.6699191	-1.2934881	0.26656315	0.05472494	0.7122193	1.4142827	1.1896787	-1.5128312	-0.17207552	1.4202511	1.2304547	0.6167271	0.37691787	1.510656	-1.03164	1.1041325	0.7830801	-0.44299737	-1.567073	-0.8447971	-0.58697873	1.139054	-0.4724712	1.0140767	-0.6361105	1.5192568	-1.0764726	-0.8396898	-1.8830763	-0.99892557	0.7232169	-1.251864	-1.2687805	-0.78225905	-0.1432715	1.4635512	1.1131442	0.45068273	-1.6905944	-0.10359251	-0.77043384	0.89520663	-0.4023898	-0.9965272	0.042786688	-0.41265008
environmental consideration	-0.9262828	-0.12131739	-0.2180524	-0.5018551	-1.2694936	0.8969721	-0.037764274	1.4782766	0.15018773	1.104084	0.9339147	1.7402804	-0.6848657	0.6647636	-1.5553883	-1.2265947	-0.056279805	0.27430576	-0.07082899	0.81886125	-1.0435203	0.029553689	-0.14394926	-3.0300553	0.58484846	-0.2566553	0.3462277	-0.38219368	0.05585813	-1.4569402	-2.574618	0.9700141	1.2069248	1.0273609	-0.16668852	0.7041494	0.25743368	0.1991053	-0.90030587	1.3934377	-0.04719004	-0.45236474	0.15085855	-0.5269518	1.480024	-1.8682215	-0.7800765	0.5136618	-1.5612464	1.2690763
architecture	-0.2480454	0.28196433	0.025543263	-1.0107199	0.19320987	1.5119017	-0.19563016	0.07939635	0.31285608	0.60982114	0.8013468	-0.010768482	-1.5509025	1.3242495	0.6393806	2.482027	1.7939398	2.1789837	0.28457537	-0.40604392	0.45941284	1.051431	-0.79525024	0.55522573	1.1018226	-1.7437893	1.6169739	0.06313978	1.5113777	-0.2820074	-1.3304434	0.49601012	-1.0586482	1.9962173	2.089232	1.6513269	0.44440117	-0.80740446	-0.49431297	0.33721283	1.4655081	-0.49892768	-0.42752174	1.5349603	0.6031587	-1.4476025	-0.021331102	-0.5369134	2.4036067	-0.8772707
news source	-0.1856802	-1.5240319	0.98281884	0.4047646	-0.26208627	-2.0176196	-1.5592241	0.08220726	-1.3948354	1.3136404	-0.8891015	-1.3459972	-0.05829227	0.01613515	-0.5524396	0.45629367	-1.0288785	0.29301718	-1.5493425	0.040205106	-0.25154614	-1.8941962	-1.1636301	-0.70398813	-0.11763518	0.45824832	0.6250279	-0.27389812	-0.0650262	0.08403844	-0.7972398	1.3944131	-0.887396	0.634949	-0.5033885	1.1902871	0.40036336	-0.38009298	-0.33338264	1.6348442	0.26212344	-1.0482486	-0.6998299	0.7683844	-0.8623271	-0.52430356	2.1650476	2.0208824	0.68215764	0.52052474
insurance	-0.19890252	0.6157433	-0.8163527	1.3616889	0.43011594	-1.2363588	1.6058713	1.4303277	1.3721317	-1.2773769	0.5734512	1.1417261	-1.4616905	-1.7046733	0.080474764	0.04060854	0.5319214	-0.008386746	-0.30274028	0.06245203	-1.6656799	1.245602	-0.30951658	-1.656126	-0.38852128	-0.7123467	-0.42214003	0.22614487	-1.1682928	-0.038011912	1.6380371	-0.39098343	-0.4400067	-0.0015843511	-0.13641539	0.18084536	-1.1241716	3.4450212	0.14192308	3.9293408	0.7131745	-0.19926524	-1.1482396	0.8294569	-0.88805556	-1.1216494	-0.35102722	1.2743356	0.601436	-0.03747313
coastal city	0.13936895	-1.0076326	-0.3209317	0.27533963	0.39435694	-0.7106223	0.06469911	-0.3262544	-0.3312367	-1.0017817	-0.7679686	-1.0444013	2.5577083	0.5223518	0.5487364	0.7864188	0.2560749	-0.2169032	-1.482675	-0.119499944	0.24633895	0.6565221	-0.12653631	0.5503686	-0.025092138	-0.5478857	0.48903292	-0.073846705	-0.5905606	1.3662509	-1.9017162	1.2226399	-0.9906637	-1.6996351	-1.3647375	-0.7103765	1.6647177	-0.83401555	0.27440798	1.1700553	1.3986282	-1.0639864	-0.35260242	1.3040148	0.7450631	1.245405	0.57191014	-2.895223	2.7241015	-0.49495226
expense	-0.30918014	1.6078995	0.93372846	-0.48833886	1.3961315	-0.08120073	0.3886773	-0.52295345	2.1314118	1.1460233	0.76502144	0.39503565	0.46992964	0.7383132	-0.6401699	0.98010325	0.6323099	-0.28417078	-1.1480867	-0.7007063	-0.43762437	-0.12866122	1.3590932	0.7152977	-0.88387144	0.01747815	0.8765043	1.422224	0.5328637	1.0767012	-1.283948	1.0905381	-0.015975807	-0.122647434	-0.08708408	0.5291966	0.19967692	0.5044363	-1.0197788	1.0404943	-0.5163164	1.9149469	-0.023983795	0.015634045	-0.356155	0.8999033	-0.559259	0.72838384	0.003698865	0.022709299
genetic factor	-0.5896173	-0.7595626	1.3441353	0.031447142	-0.5440959	1.60771	0.7318574	0.8120726	0.2211277	0.40500903	-0.15530339	-0.1155841	1.072441	0.36877915	0.94949275	-0.33086517	-1.3463852	1.5073881	-0.55072224	0.810176	-0.30863088	0.022303442	0.8490389	-0.3585885	0.32792476	-1.853422	-0.32355043	0.72496325	-2.152593	1.5067028	-0.69229776	-1.29335	1.0092652	0.60002106	-2.3845358	0.94411707	-0.29832545	-1.3719102	1.6223979	-0.5077022	0.5185233	-1.0542563	-0.48296648	0.6369311	-0.32868734	-0.33958545	1.1477075	-1.9184748	-1.5921638	-0.904898
psychological issue	-1.3888971	-0.36371917	0.3816547	-1.0634475	-2.75479	-0.59702533	-1.3305674	-0.45623344	-0.14649728	-0.027310012	-1.3312932	-2.0283966	0.23600157	-0.5136482	-1.4537148	0.52936643	0.64344186	-0.2970529	-0.67630714	0.9612998	1.2844757	1.2813512	1.38023	0.67593306	-0.64372575	-1.7702501	-0.40987322	1.9320459	-0.2875752	1.0028002	-1.2157944	-0.028523056	0.2323751	0.88370734	-0.12331839	1.6457067	-0.9021009	0.4861142	-0.3885322	-0.4513208	1.1369333	0.89373606	-0.02991638	-1.1144971	1.2832015	-2.195421	-0.18700098	0.29657605	-0.09092269	-1.0151832
population group	-0.63369846	1.453089	0.8177321	0.034965254	-0.8381587	-0.54549986	-0.71938056	0.7678061	1.8059497	-1.8330199	0.73995495	-0.18225117	0.97815585	-0.34767547	0.09978815	-0.3479603	-0.4008385	-1.4476237	0.7733489	-0.31903288	-1.2251142	-1.5051109	1.2029899	-0.16114576	1.3082299	-1.274314	1.8232261	0.5612754	-1.7260196	-1.0483173	1.3319155	0.34509727	0.29335025	1.2592447	-0.08858211	1.6775074	-0.53584933	-0.27878076	1.1188719	0.13402545	-0.40768513	-0.7351865	0.29474503	-1.6107014	0.25756893	2.2264404	-0.81117064	0.4020626	-1.2015246	0.22811896
peptides	-0.90928024	-0.45373765	1.6461625	1.6330092	-1.3006068	-0.4872235	0.4041724	0.009738551	-0.49749327	-0.23511985	-1.357894	0.06482121	2.3987398	-0.19352509	-0.24149154	-0.088708706	1.5173354	-0.45319	-0.09330285	-1.4721057	-0.5810024	0.32162458	-2.2648098	0.1294081	1.5303425	0.64887136	-1.1118548	-0.14357746	0.28534168	0.9545515	0.6581371	-0.21398471	0.7868967	-1.699212	-0.23832065	0.74126124	0.4890501	-0.14730145	-1.0579965	0.83218926	0.62382436	-1.3575288	1.0644715	-0.9714594	1.5559483	-0.3225864	0.6620794	1.7975963	1.9068263	-0.23371413
economic instrument	0.70774007	-0.5310658	-1.5496697	2.2478626	0.31257644	-1.7432908	0.4714529	-0.4766295	-1.673347	1.4219733	1.3995574	1.4531217	0.10637911	1.0522841	-2.2286127	-1.1450702	1.8076357	0.008707676	0.007848557	-0.9117231	-0.72429925	0.7119805	0.060632557	-0.63024336	-0.44168964	-0.60410196	0.6986032	-0.7620171	0.6550054	-1.0443423	-0.38540128	0.70222884	-0.43403026	0.5498808	1.8237233	-0.2041095	0.36156362	0.5096953	0.5268416	-2.1491287	0.082777575	-3.199135	-0.7594567	0.01924732	-1.1328346	-1.5498469	-0.98087925	0.9523534	-2.8574917	0.8594342
errand	0.8051897	0.23246971	0.25370547	-0.31536254	0.111774564	-0.74800605	1.1863056	-0.00655129	0.8950535	1.5910907	-1.349658	-0.65164506	-1.177091	0.025906699	-1.426099	0.9717573	0.2021609	0.1278672	1.2397273	-0.637244	-0.16949265	1.9242394	0.88389075	-0.2097952	0.21082604	-2.96275	0.49967274	-0.60792017	-2.1291194	0.42365456	0.10545548	0.23965956	-0.59928685	-0.92785704	-2.51523	-0.48808357	0.45679873	-1.4883254	1.3574145	0.8024931	-1.1444871	-0.78962815	-1.2555183	1.4778115	0.4163448	-1.0106173	-0.2356714	-0.22640558	1.7489702	1.1735699
molecule	-0.29412606	0.014952105	-0.2572249	1.2828565	1.060057	-0.6233577	-0.23235813	-0.7042058	1.1111422	0.20328186	0.3506312	0.6965782	0.060375657	1.3339227	0.56658375	0.6772207	1.1717061	1.0508235	0.79575956	1.1963849	0.30971113	-0.1419065	-0.81600136	-0.029947555	-0.36779743	-0.014158491	-1.3718604	-0.32885766	0.5368095	-1.4056306	-0.20266244	1.5978855	-0.53551453	-0.70953006	-0.8344222	0.44969702	0.14183241	0.26787022	0.3162792	-1.6562268	-0.38779122	-0.47994742	1.1555719	0.6916424	1.870641	0.15315144	1.3176461	-0.7967016	0.20037372	-1.5345426
container	0.098917484	-0.7136816	0.5781039	0.12670869	-1.2856851	0.54551435	-0.55388355	0.82964295	-0.7672853	1.3758967	0.3273845	0.74430114	-0.028364098	1.4510058	-0.8398314	0.11503789	1.4544365	-0.2738912	-0.22681478	0.23193815	-0.11808978	-0.52654874	0.2087064	0.029166088	-1.3206867	0.085070975	0.81878287	1.289951	-1.1959349	-2.0404894	-1.6447705	0.0523621	-0.5628644	-0.451658	1.396481	1.6948088	1.9586526	1.2229921	0.3687947	1.2950588	-0.8119644	1.1848667	-1.2515738	0.45332804	-0.7314205	1.0189553	-2.2614324	-1.4488994	-0.12720253	1.0326624
leaf	-0.46050537	1.3189995	0.13010378	-0.17106746	-0.12171256	-0.9879496	-0.46868616	0.26364064	-0.23183344	1.0796137	-0.45655143	-0.9970435	2.5620303	0.7392086	1.4871804	1.0596995	0.44990394	0.094232604	-0.53443366	1.32369	1.9985306	-0.3808347	-0.74776834	0.0123362485	2.1621585	-1.7766285	-0.1477077	1.507682	0.8885528	0.4299587	0.7983783	-0.3240946	-0.60728896	-1.198434	-0.87481797	-0.015147898	-0.5362426	0.98297143	-1.5007693	0.23965435	-0.6084283	-0.3788234	0.5341856	0.9183391	-0.29951942	-1.5121409	-0.4024636	-0.74441564	-1.6028442	2.2459567
economy	1.1022003	0.78943014	0.9589494	1.3549749	0.8554275	-0.30972007	0.57114106	-0.17428946	2.0424757	-0.56712866	0.42817163	-1.0211118	-0.21836087	-0.8354913	-0.9470428	1.1974916	-0.63761497	0.6505922	1.2723141	-0.8288411	1.0053778	-0.31451696	1.0370039	0.84624195	-0.12391672	-0.5335916	-2.206387	1.9436558	0.6176075	1.4839962	0.4782212	1.0552509	-1.2851648	0.5712975	1.4281596	-0.20048037	1.3305876	0.641099	1.6850857	0.6704285	-0.06495414	0.26443383	1.4370438	0.21475679	0.07852807	-1.3296746	1.1442648	-0.34434152	1.0197127	0.32303318
template	2.1761165	0.2528871	1.0900123	0.23739962	-0.58536893	-0.8576299	-1.2173313	-0.20196152	-0.5620547	0.9530097	-0.08279174	0.7999437	2.0928133	-0.29063946	-0.09142972	-1.0335788	-0.20231402	-0.81601906	0.54231006	-2.2428098	1.5325767	0.05648671	-2.0054224	-1.7442604	0.7043462	0.6507114	1.539311	-1.1625859	-1.0423778	0.8006679	-0.7560242	-0.2222379	-0.6796331	1.6074966	-0.8276263	-0.36472824	0.09444072	-0.12740584	-1.0270098	-0.50334525	-0.028267551	0.47138306	0.4192928	1.4347712	-1.2945589	0.0029945225	-1.0558876	-0.934239	0.2845434	-1.8298738
vine	0.46970454	-0.8519433	0.34102887	0.91290855	1.0657215	0.040141545	0.7041303	0.88092345	0.47154477	-0.02718073	-0.45455572	0.045190044	-0.72342527	-0.90428483	-0.8719166	-1.0380809	-0.44496474	-1.8912541	0.6802178	2.0424905	0.5773429	0.724421	1.2418091	-0.081638165	-0.43803748	-0.53443277	0.013234677	-0.892761	1.8231579	-1.0403246	-0.32161486	-1.5221189	1.7831805	0.73306227	1.4112506	0.19550876	-0.49092817	1.465877	0.83494234	-0.26277322	-0.68538535	0.28473878	-0.8334276	-0.46991038	0.71985006	0.84807456	-0.8176188	-0.63595515	-0.2802018	-1.8312808
morphology	-0.67019635	-0.14710598	0.45030594	-0.16029625	-2.0421488	0.06257713	1.7645754	1.4879166	0.003745107	0.7669531	0.12704009	0.89268136	-2.1164777	-1.7204882	0.3432543	0.83299845	0.43213874	1.0869526	0.93712604	0.6496513	-1.492354	0.9166931	-1.2473352	2.6749299	-0.5369909	0.81699127	-1.2377412	-0.30994502	-0.12980682	0.15967715	0.6159861	-0.0017778575	-0.10786034	0.85358876	-1.002679	-0.11957979	0.12104474	0.67455983	1.8464885	-0.5176277	0.59905	-0.6671671	0.8636917	0.1354083	1.4620166	0.10781361	0.29610977	-1.6308801	-0.03233906	1.0790565
complicating factor	-1.0783706	-0.13207835	-0.1386012	1.0600015	-1.1789634	-0.7084142	-0.07691974	0.70399064	1.3065321	-0.7867118	1.0562806	1.0615433	-0.60213023	-0.019681828	0.53263193	0.97587585	0.6267808	0.095597744	-0.6473372	-0.1581559	0.17449963	0.2397681	0.87008053	0.7112993	0.1992673	-1.2575883	-0.6471792	-0.32111818	-0.19421479	-0.8342029	-1.5210862	-0.63101393	0.7243455	1.0117254	-0.4611617	0.5390352	1.1556828	1.4386394	0.2575104	-1.5324638	-0.32254174	0.8326485	0.3094424	1.3911343	2.35359	1.5997115	-2.145234	-0.459385	0.24694438	0.12498268
odd job	1.1480763	0.056858394	-1.255083	2.5854092	0.64907724	-0.32153198	0.0043029897	0.21618998	0.026511539	-0.27822712	0.560075	-0.18531069	1.2537766	-1.332172	-0.23401625	-0.23732796	1.402301	0.50304043	-0.74589336	-0.7605729	0.31152007	0.7561381	0.30647323	0.9646425	0.8048878	-0.52600914	-0.76662	-0.39702058	0.96427953	-0.5678283	0.16830473	0.44035205	0.3594514	0.64021665	0.9697575	-1.954026	-0.08887033	1.2251977	2.5429866	1.7318242	1.6186677	1.1875174	-1.597732	-0.08912808	0.9823834	-0.6155921	0.79262763	1.9667797	1.180682	-0.69522035
analytic	-1.3355541	0.5649777	-0.21879196	-1.2376158	0.029541647	0.82937783	-1.3659827	-1.4317319	0.3055136	-0.8351063	1.4144442	0.3379663	0.15906696	-0.3524337	-0.87380254	1.2817678	0.73673594	0.51196456	0.2151004	0.95609814	1.2950562	-2.1408923	-1.6715734	1.0632833	0.20174262	-2.2952886	0.47622967	-1.5251973	-0.9011107	0.5494105	-0.08509279	0.91701424	0.78231496	0.20322311	0.39030614	-1.758169	-1.4749608	-0.6337078	0.72053397	0.6929695	0.04713331	1.2303987	-0.7365124	-1.8438859	0.7010967	0.30010578	0.7839493	0.8637466	0.040945455	2.0088704
issue	-0.59848046	0.35049126	0.06829113	-0.82324773	0.4308199	0.43898728	-1.0407813	1.1491464	-0.24080357	0.0002950132	-0.45095703	0.22564927	0.6691624	-0.43887	0.47279885	0.15971094	-0.6204488	0.24848486	-0.0814129	0.82364106	-0.4029101	-0.2028543	-0.6929339	-0.04171125	-0.59429455	1.4663875	-0.99857396	-1.1036532	-0.07136326	-0.85791165	0.69402266	0.10362536	0.29887676	1.4072635	-0.6351815	-0.1621292	0.36649096	-0.5669623	-0.30874544	-0.20669743	-0.18616968	0.5854592	-0.6298078	-0.48083976	-0.14350395	-0.54919773	-0.18895268	-0.9568202	0.14550185	-0.30536416
decoration	2.3442678	-0.7652682	-0.48153988	0.39103353	1.6180587	-0.2909118	0.08944507	0.10931493	-0.96309996	-0.20449986	-0.6901825	0.27055952	-0.064781435	0.08790388	0.39536348	0.6478193	0.7484562	0.84685224	-0.4871774	-0.1755656	-0.6144364	0.82565224	0.16985323	0.18730146	1.4451076	1.5756844	1.0604191	2.8105562	0.703506	-1.1544994	-0.07296064	-0.42979038	0.5922402	1.0960153	1.1053978	-1.4812509	1.335106	-0.72308916	2.2612278	1.8386706	-0.82927966	0.5368832	-1.1544408	-0.75835794	0.005464442	0.25075933	1.6434488	0.27712375	0.7619498	2.4691656
community member	-0.14217958	-1.690323	0.72880113	-0.13670929	2.1671467	-0.7335654	0.97534835	0.15133068	-1.4598774	-0.7876565	-0.20942777	-0.35817122	0.52161247	0.8797916	-2.4717937	-1.6495838	1.2228	-0.6319864	0.34617335	0.55668926	-0.32010108	0.8358002	0.8022009	-0.9438597	0.5012064	0.507466	-1.5022718	1.7284331	-0.47362974	-1.5965028	0.34594366	-0.8453414	0.15869953	-0.08076906	-0.5791532	0.15045765	0.6523695	0.645743	0.27916655	-0.2961165	-0.30778694	1.9241039	1.5872325	-1.3809997	-0.197011	0.70838195	0.5039406	0.84706044	-0.6971185	0.66802573
decision	-1.4410224	0.115798146	0.5884093	-0.77149445	-0.5432151	-0.3858987	0.03235521	-0.13729338	-0.19774307	1.180124	-0.09968012	-0.7561686	1.1272073	-0.46724072	-0.1565259	-0.08360806	0.34846145	-1.8518395	-0.95969117	0.34710547	1.6369491	-0.74997324	-0.8048515	-0.69569266	0.8726647	0.11839568	-0.47016162	-1.2464687	1.5260538	0.13546151	0.08375227	1.2613305	0.18305725	-0.05470813	1.4755533	-0.12244896	-0.55493236	0.9437485	-1.7531943	1.9253931	-0.45087066	4.023224	0.12445166	-0.3330395	-0.4476241	0.35631457	0.2021342	1.0207145	0.98622525	-1.8331237
geometry	1.1231316	0.20331769	1.1755285	-0.48404402	-0.3809194	0.61920077	1.3129936	-0.39729398	-0.29863	-0.5903333	0.11507218	-0.39333025	0.07394656	0.04327534	-1.9638257	0.77149105	-0.45385927	0.4127202	-0.8216532	-1.7242148	0.244729	-1.8578792	-0.119378395	-0.5750328	0.056394823	-1.4229031	-0.12709415	0.5415568	-1.0226665	1.5757103	-0.05502159	0.24823858	1.8291239	1.59458	-0.71584857	0.37197253	-0.035896398	-0.45895877	0.15011512	0.59344333	-1.5669206	-0.9113037	2.518526	-0.53511137	0.15915725	-1.7123425	-0.82685566	-0.93982136	0.3289538	-1.9692571
indicia	1.3237772	0.0014433507	-0.5282898	0.6802404	0.53851587	0.13907152	-0.30715996	-0.7776081	0.17612064	-0.85575247	-1.0146098	-0.06728362	0.44885662	-0.81158894	-0.9620499	0.8478364	-0.7135362	0.22198184	-0.71158314	-1.3594977	1.8860736	-0.50522774	-1.13702	-0.03218861	0.9908508	-0.022385856	0.814004	1.1262763	-1.298168	0.28071898	-1.3958722	-1.7047522	-0.88225454	0.5613974	-0.26865295	-1.2090997	-1.0761515	-0.573902	1.447382	-1.5536468	2.115246	1.0992715	0.7442343	-1.878024	0.5601219	-0.2904577	-1.881444	-0.39341217	-0.38764814	-0.944356
skin problem	-0.96976316	-1.0966944	-0.74268514	-0.0906712	0.9712422	-0.46372294	-1.3455669	0.07438417	-1.3116803	-1.1707098	0.7454051	-1.4726783	0.053206787	-1.6172404	1.1478057	0.25232998	-0.21699497	-0.15559427	1.9765496	0.85946274	-0.6416912	0.78601074	0.90051526	-0.28637922	1.1720643	-0.42861307	-0.24185541	1.0922134	0.28158212	-0.16109376	1.9647083	-0.16669759	-0.19629568	0.8561949	0.25230893	0.8796817	2.932656	0.58084196	0.6358361	-0.28814006	0.063858606	-0.7511043	0.36922616	0.11612045	1.3510679	0.26532453	-2.157788	-0.9295507	0.26231915	1.7970973
screening test	-2.538707	1.1712178	-0.6028909	-1.0003958	-0.78764343	1.0242878	-0.7936288	-1.3657521	0.31751773	-1.4320481	0.11454398	-0.21705565	0.059404932	0.41242176	0.84657747	0.3560078	0.6837589	0.5466816	-0.43660638	-1.5719706	1.5930564	1.5818655	-0.11447085	1.2667955	-1.3634657	-0.29586786	0.75959605	0.8816278	-0.62172276	0.005834773	-0.9311847	-0.22410753	-0.3251646	-1.0070668	0.33720133	0.30129224	0.95928925	0.6373379	1.1715404	0.078411914	-0.9443102	-1.161195	0.35497677	-2.157919	1.1304822	-0.8282129	0.26981208	0.9551719	1.7820494	1.4192022
exogenous variable	-1.4574914	-1.8896416	-0.4662592	0.29965496	-0.8277539	-0.79374737	1.5634964	-2.2793238	0.87526166	0.08901641	0.86289114	-0.7545089	0.46977112	1.8371438	-0.11902585	0.26487002	-0.08065048	1.2675381	-1.6880499	0.013715014	-0.23816293	-0.835096	0.44128692	-0.090649456	-0.22526863	2.0312037	-0.40519014	-0.69320047	0.07954402	-0.2951773	0.8289336	-0.43981746	1.5772663	-0.2684044	-0.40717813	-1.3345919	-1.7386824	0.5486332	0.7044292	-1.2468427	2.1876106	-2.4497766	-1.1258601	-0.6072674	-0.15892619	-1.1789637	-0.27081695	-0.4477526	-0.01625682	0.20647955
lipid	-0.9977341	0.47318545	-0.18942015	0.04837002	-1.1835845	-0.40027165	-3.3277164	-0.075061105	-0.7951228	2.0295854	-0.7833369	0.70874494	1.7435213	-0.11598464	-1.6491442	0.29346976	2.8304157	0.39897075	-0.1397076	1.3408667	0.66242415	0.19751845	-0.9556669	-1.1111729	0.9083068	-0.21776417	0.89481604	-1.5154932	0.65425426	0.09920532	-1.2518674	1.78309	-1.9724464	-0.16569392	0.2235418	-0.27175125	0.37106317	0.29000703	0.39111525	-2.3257003	-0.38523197	0.27707046	-1.4814185	0.5584734	0.9805392	-1.1715478	0.5726643	0.27892122	0.37340602	0.6232408
aspect of life	-0.78079057	1.0414947	3.1466293	-0.32411104	1.2046866	-0.09678024	2.7011719	0.23207702	-0.500575	-0.11023727	1.2573674	-1.4506967	-0.025049431	0.9054711	-1.8953547	-0.2780811	-0.79111457	0.46513525	0.13922872	-1.6931585	-0.06944612	1.5781487	1.5764745	-0.19249079	-1.1321508	-1.049528	0.2592668	0.61873	0.9075454	-1.2251385	0.97607917	-1.2559688	-0.18709107	-0.9431454	0.06652217	-1.3659908	-0.19549169	1.0090237	-0.048155673	-0.89872855	-0.11671011	0.6926836	-0.3520178	0.24247555	-1.3353328	-1.048535	-0.5204743	1.3198714	-0.33951828	0.23771088
guitar	-1.5477988	-0.19898835	0.34873837	0.030125825	0.2854119	-0.7928929	2.1157367	-0.89757794	-0.71370244	-1.0287948	0.24795611	-1.3785414	-0.22391582	-0.41365325	1.023152	1.0073858	1.9329402	0.63085705	-1.1603767	0.38879472	0.61555046	-0.20244627	0.14031115	-0.2818891	0.11885055	1.8527749	-0.14895065	-0.6269266	3.291534	-0.9643589	0.23499463	0.7352662	1.2591995	1.3563079	-1.176134	-0.67296755	-1.5239289	-0.88747	-1.1413897	2.9560907	-1.0175525	1.4118588	0.16470854	0.33928335	-1.3241708	-0.7781235	-0.24984391	-0.7033793	-0.6109248	1.2484205
heat treatment	-1.0549319	-1.3293266	0.014452213	1.1627604	0.356198	1.6148598	0.36369148	-0.27423686	-1.8206999	-0.14007498	-2.5033724	-1.0579774	-1.8894387	-0.3889768	-0.36400992	-0.6343783	-0.016516628	-1.6591423	1.9038327	-0.0065133963	-1.3327338	0.33556682	0.4364384	-1.1462215	-0.081317395	-0.90003777	-0.3071517	-1.718524	-1.8858725	1.022273	-0.69935745	0.15814142	0.028911045	-1.5116518	-0.5266155	-0.83487153	0.17249887	1.1648376	0.03471478	1.2260909	1.2627839	0.26437482	0.79252356	0.9941739	-0.5054644	-1.2515527	-1.4920316	0.018192302	0.7546943	-0.28108904
skin lesion	-1.5348775	-1.0984702	0.7440931	0.24679996	0.4264512	-2.520626	0.7759999	-1.1703577	-0.30460545	-1.397433	0.25824	0.17074405	-0.3916871	-0.19048744	-0.31102407	-1.3720491	-0.09268631	-1.9630789	1.4350419	0.99494106	0.3619715	-0.89147913	-0.94049203	0.06277029	0.32028344	-1.0980388	3.0601153	-1.2278006	-0.9099806	0.7385907	-0.5367966	-0.25339139	0.67533505	0.5203621	0.184525	-0.21538234	-0.32249573	-1.0307187	0.5214442	-2.2609224	1.6320313	-1.0040021	-0.7404276	1.4487176	0.47311863	1.1441766	1.0177593	-1.2595906	-1.2632581	-0.27666837
hazardous chemical	0.54116136	1.0130079	-0.90915066	1.1632346	-0.47694805	0.29443532	-1.9140266	1.1299765	-0.31335893	-0.101880096	-0.36944127	2.579082	-0.04950603	0.2125957	-0.17163807	2.372156	-0.1433791	1.346954	0.22736663	0.168025	0.11597656	0.70912325	-0.7174359	-1.9651196	1.4657853	0.8713974	-0.087805346	0.81869227	-0.7355672	1.6925974	0.15537205	1.281917	0.18714797	1.3470486	-0.6552418	-0.40555823	-0.009734808	0.20439702	-0.02546246	-1.0389681	0.92729974	-0.9317886	-1.408374	-1.8818188	-1.247192	0.12297374	2.7043653	-1.6040651	1.001697	-0.36753082
great brand	0.637386	-0.64230883	-1.613158	0.8334057	-1.7308774	-0.75166994	-0.9933455	-0.8087732	3.0417664	0.7391454	0.2704462	-0.26779005	-0.18994667	0.44564614	0.94056576	1.1739392	0.6994839	0.22992119	1.3990926	-0.32339695	0.8627003	0.40078357	-1.0309731	0.35237354	-0.73657614	1.4793228	-0.3760136	-0.31129375	-1.5575669	-0.52113277	0.3735088	0.9049829	0.32167986	-0.5228685	0.7876944	0.76843244	0.9220324	0.6113581	1.2697774	0.43011582	0.7628808	0.42579135	0.7668494	-0.53955334	0.41742963	1.0327753	0.79400814	-0.98697335	2.061229	1.7694693
critic	-0.92410535	-0.33131558	-0.54732895	-1.0560415	1.5375859	-0.2548516	0.078623384	0.04724948	-0.07118401	-0.99617857	1.8518656	-0.2451428	-2.080047	-3.2170093	0.20233697	0.45854604	-0.68346673	-0.8140855	0.8997013	0.2655194	-0.061922587	-0.40134683	1.2184469	-1.3142161	-0.6656646	-0.012790263	1.245262	-0.24610673	-1.2286128	0.47388458	0.571697	-1.2237306	-0.5645486	0.59663284	1.0335658	-0.8113181	-1.095949	1.069535	1.1668134	0.76549673	-0.47097048	-1.2170538	1.3984947	1.637253	0.2988034	-0.016754325	1.4588445	0.30750674	-0.011835152	-0.043897152
active component	-0.35186496	0.736974	2.0754557	0.72315997	-0.7077693	-0.5223422	-1.7685847	0.780157	-1.0309176	0.381443	-1.7338426	0.5920963	-0.841544	-1.0275215	-0.858648	-0.55990386	0.31366953	0.64300585	0.86372375	1.9373841	0.9602741	0.393942	-1.2414873	0.73463035	0.868496	0.49073437	-0.16304165	0.6357483	1.4724115	0.92639405	-0.12121374	-0.85151577	-0.65144724	-1.9211423	-0.5878957	-0.21708785	0.75084233	-1.1549683	0.72592664	-1.4948047	-1.2225627	-1.241884	-1.1137406	1.2065735	-0.797261	-1.4826896	-1.5958114	-1.8239635	-0.28646746	0.9363038
biomarker	-0.37297615	-0.0765663	-0.8489095	0.06314871	-0.41961065	0.1814881	-0.656237	-0.64526016	1.294638	-0.23520662	-0.7633395	0.8235775	0.10458944	-0.026810093	0.21453698	-0.9857329	0.122956716	-1.2860528	0.12320369	-2.9879487	-0.17030405	-0.83921695	0.5485354	0.31039315	1.0508677	2.0048277	1.4947084	-0.64703923	-0.8705531	0.6949525	-0.8300768	1.1137626	0.073608845	-0.39910728	0.8856596	-1.5246822	0.1473435	0.9533638	-2.1898816	-1.9424567	1.1119136	-0.5942982	1.1751517	-0.36739287	-0.40674806	-1.4545915	-0.5956574	0.36620122	-1.9762251	-0.0747583
conventional technology	-0.7001044	0.20113154	1.1447617	0.14255697	0.4554957	-0.61088943	1.3984259	-0.56626964	1.3978302	-1.1539533	-0.7038489	-0.8780377	-0.5909764	-0.18002106	1.1043173	-1.498044	0.7456797	-0.8063625	0.76725304	0.5733917	0.3110507	-2.8047981	-0.8035799	-0.51841754	-0.70893496	0.9111979	-0.6961857	-1.173167	0.7178992	0.3108387	-1.4887576	0.6308208	-0.5772429	0.92778975	-0.71379024	1.8638436	-0.76383406	1.2210544	0.7971251	-0.72836477	2.160645	-1.0188541	0.36843613	2.3880055	-1.3490452	-1.7982377	1.1963325	-0.0086393	0.95009667	1.845296
personal care item	-0.53754044	-0.71924794	-0.098391406	-0.055296034	-1.3556863	0.22697371	-1.5331619	0.112166956	0.11625292	-0.46916407	0.8882295	0.91517603	1.6460445	-1.2935724	-0.22681342	0.5515492	0.8396437	-0.102053486	0.31828582	-0.7552981	0.85340357	0.29450673	0.0807048	0.24139519	-2.1436338	-1.2070522	0.5525856	0.6002969	-0.8848558	1.014364	0.75441176	1.6170505	-0.7550028	1.1019546	0.82125616	-1.7683921	0.55605274	-0.5384147	0.60261077	1.5483673	-0.7207039	-0.6251044	1.0724682	-1.251448	1.1742396	0.034189828	-1.1848599	-0.39871803	-1.2752444	-2.6395195
library	0.32082653	-0.33259922	1.2687093	2.3047602	-0.47083244	1.9395128	-0.25164077	-0.043707445	-0.27393484	-0.3464869	1.9895465	-3.2031145	0.7327649	1.2248665	-1.961838	-0.31967688	0.55317533	-0.47609392	-0.2645921	-0.31849915	-0.19472729	0.78291243	1.4706571	0.8894356	-1.8068142	0.72797304	1.3506473	-0.23347819	-0.9372286	0.6273386	-0.31737837	0.3409359	-0.23595062	-0.9182198	0.4684265	-0.8936661	-0.9419907	0.22116713	-0.52684	-0.13938075	-0.32528272	-2.0529604	1.1336071	0.18692055	-0.9416539	-0.65023196	-1.231291	2.0535064	-0.12946655	1.9633067
security product	0.79614997	-0.7931269	-1.16793	0.5933945	0.28274673	0.15120806	-0.8169686	0.68964624	-1.6427071	1.7039393	0.10373725	0.013718143	1.8501325	-0.20205383	0.880573	-0.7461431	0.27199626	-0.5364111	-0.70954144	-0.8334801	0.7700718	-0.48469004	-0.95092	-0.79245335	-1.2603265	0.26317635	0.5190696	1.3088994	-0.6421125	0.519123	-0.8359245	-0.6385877	0.14342311	-0.12381644	-2.0106103	2.0293324	1.5627978	2.2255406	-0.3967584	-0.51969963	0.2835304	0.08800132	-1.1783191	0.26628077	-0.49401814	-1.5201716	0.774435	1.0914849	-0.25357085	2.1493456
imaging method	-0.51020575	-0.6610345	0.99272996	0.6476495	0.030708784	0.51563203	0.52221996	0.25728676	0.6742524	-0.08210095	0.41821527	1.1728061	2.1518984	0.9282333	-1.3734643	-1.4541407	1.1529512	0.78530866	1.2292464	-2.3701131	-1.87615	-0.3921402	-0.63059425	-1.783628	0.714591	1.2667491	-1.4183972	-1.3222784	-0.40988198	-1.7563663	-1.3519467	-0.9445122	0.9583783	-0.22526716	0.069744095	0.8571689	-0.5712754	-0.3303687	-0.547157	1.7890975	-0.9081475	0.5064666	-0.38246083	-0.9966166	0.29711825	0.11520418	-1.0710322	-0.8123654	0.06599156	-1.923953
viral vector	0.23226006	0.106181994	-1.2693293	-0.67232543	1.2525499	2.6903696	-0.85421914	0.9219027	0.20950058	0.10536955	-0.535627	3.1057124	0.25313947	0.82554585	0.34886676	-1.0178443	-0.878719	-1.5401701	-1.1884942	0.67144674	0.007017404	0.3012926	-0.25341102	-1.1914605	0.68929046	1.2435223	-0.68334293	1.1303774	-0.75589913	-1.5402839	0.60476863	-0.3474595	0.22841147	-1.245348	1.5461298	0.8205001	-1.3102376	2.7888274	-0.19961584	-0.0831689	-0.32631737	-1.4251754	0.1230248	-0.12639172	0.89872676	1.0696142	-0.4094364	-0.82747334	0.25917596	0.39819083
social science	0.89468694	-1.4328164	-0.45550862	-0.20021258	1.23351	0.096636176	-0.08268208	-0.62098646	1.7088945	0.7666364	0.92638874	0.57704407	-1.1246946	-1.0912863	-0.19029275	-0.10151995	-2.431793	1.2387929	-0.48526454	-0.47939286	0.039384797	-0.4194794	-0.6386317	-0.48237348	-1.2856486	-0.32011768	-0.52827847	0.48104554	-0.505624	-0.3760944	2.0792873	0.4183822	0.54253364	-0.41235027	-1.8846095	0.51722294	0.2242084	1.2347322	-1.0565917	-0.74903333	0.8667241	0.21489264	0.2040078	-0.26433486	-1.1386472	-1.1649463	0.5071284	0.5179652	-1.8153927	-1.6992668
index	0.36348042	-1.2260321	-0.37458584	1.2914608	-1.2129517	0.089163795	-0.361554	2.4108913	0.24585186	1.2032402	1.3136357	0.2040544	-0.35211965	-2.8338535	0.7647489	0.7024292	0.3894486	-0.05157321	-0.38583922	-2.08048	-0.34290415	-0.3407757	-0.5696913	1.4869535	0.2498415	0.782281	-0.6927017	-0.27957663	0.01675194	0.9092351	0.37179482	-1.1549618	-0.025337106	-0.101948164	0.6791228	-0.11761578	-1.486225	0.64598495	2.2767057	0.4402243	-0.16561918	0.602847	0.33312264	-0.105732635	-0.24348377	1.5267737	0.3589263	-0.093579784	0.008394241	-1.7814058
minor item	1.1876913	-0.51814294	0.34042835	-0.74536175	-1.9633846	-1.7212869	0.73494923	-0.7351464	0.13194849	-0.21257	-1.855788	2.5044515	-0.044033363	1.714917	-2.420164	-0.52063644	0.06667089	0.7144534	-0.8337017	-1.743406	-0.60575634	0.6594255	1.1545074	2.9834008	-1.7880108	-1.0814722	0.33917826	-0.026158983	-0.07321667	-0.68585575	0.43243825	0.20211117	0.19504216	0.07442988	-0.56026804	-0.61201525	-1.6625652	0.09613528	0.46567306	0.5048604	-0.076379664	0.42811415	0.5696833	-1.3933426	2.0805588	0.058657974	0.8708595	-0.012230055	8.933991e-05	-1.0507485
joint activity	0.8010514	-0.27592224	0.42869693	0.33105186	0.7720116	-1.0003424	-0.39495128	1.3967681	1.3098238	-0.4053026	-0.8762656	-1.2299083	-1.366858	-1.7342558	-1.995095	-0.67326754	0.6946492	0.3589725	0.09975241	0.69924086	-1.6777363	-0.908755	1.2328162	-0.6757943	0.45793116	-0.0067622475	-1.1976099	0.27729523	-0.10168483	0.58815753	0.6788224	1.2233969	-0.42704332	1.4511265	0.76066273	1.4712204	0.29768986	-0.8516361	0.26136488	0.083069086	-1.1108534	-1.3272792	0.33587235	-1.5347122	-0.58711755	-2.210929	0.5277316	-0.53631043	0.48427764	2.1053133
pie	-1.3025057	-0.31946036	1.7323807	-1.7578545	0.56948787	0.5096633	0.48691332	1.3187704	0.7754745	-0.21703063	-0.9565512	-0.77548534	-2.7510355	0.9960983	0.49088475	2.609996	-1.319438	0.8449736	-0.20758627	0.8321385	-0.42563608	-1.9688191	2.0830095	0.36787876	0.2094929	1.2101333	1.7235296	-0.35094368	0.040598318	0.582789	-0.42020664	-1.002236	-0.29486814	0.9076257	-1.1489488	1.2055697	-0.7736448	-0.40354133	0.26576152	-0.38229537	0.83103096	-0.026859505	-0.106317684	0.70863795	0.06329947	-0.09089443	1.3221829	0.8900503	-0.28222197	1.261062
maintenance activity	-0.7481572	0.67530954	0.5537287	0.17103466	1.5015074	-0.28068998	-0.6400794	-1.6043078	-1.0149165	0.85049784	-0.7157093	0.28696305	0.4430289	-0.68650913	-0.12840098	-1.1684425	0.8701857	-2.6950593	0.94584465	-1.2235054	-1.5298336	-0.4275477	0.737205	0.5895447	1.3727338	0.23310375	-0.7979653	-2.0339093	-0.21535747	0.6100405	1.3282732	-1.2613363	-0.12231421	-0.38831994	-1.336081	-0.044865977	0.012915682	-1.3389673	-0.74461657	0.7766362	-1.4230944	-0.91172874	-0.028532643	-1.3814968	-0.43735912	1.2236352	0.48726377	-1.4714665	1.2595158	-0.37919572
treat	0.24182518	-0.36633483	0.1655553	-0.7413493	0.43047586	-0.026320023	1.008233	-0.44773757	1.174856	0.99876475	-0.9353095	1.8948141	1.4098797	-1.0913873	-1.2406455	-1.1167678	-2.4449575	-1.168841	-0.6179708	-0.27530536	0.81424385	-0.5513741	-0.06773774	-1.2772062	0.44975296	0.40453285	0.54500604	-0.061777897	0.9205063	0.28646275	-0.901158	0.9558578	1.8375013	-0.2818207	2.0471666	0.8483938	0.08257473	-0.61926365	0.79049736	0.1615569	-0.5802996	1.7849988	0.44837776	1.1880015	-0.660628	-0.62131447	2.8198366	-0.55325925	0.68956834	0.7127756
