presentation	-1.0474019	0.98964757	-1.0609047	-0.4973004	1.5617313	-0.1490831	1.1130968	1.1251568	-1.3732466	-0.2993031	0.0833437	1.1671803	1.802828	0.7727202	1.2027866	-1.0296689	-1.3285471	0.260978	1.0408844	1.4579502	-1.223873	-1.262812	-0.18096454	-0.1292419	0.6218122	-0.3648947	1.3485197	-0.036909617	0.42256224	-0.7092344	-0.73445505	-1.1952305	-0.51028967	0.70060045	1.5556209	-1.18055	1.4873556	0.31106964	0.5313268	-0.044989713	-0.26047125	-0.7246299	0.02702996	0.31009337	0.85015875	0.81421345	-0.13903731	-0.15177834	-0.080433406	-0.71167487
diameter	-0.7504302	0.9504549	0.75560474	1.8619657	0.49806795	-0.2601196	1.4838314	-0.09763869	-0.09349013	0.13743754	0.35328418	0.8768317	-1.1547285	-0.042403005	-0.89579535	-0.6244679	-1.0859883	0.8309667	0.3089596	-0.44616175	-1.8123106	-0.79585	0.14824168	-0.24252225	1.4091433	-0.94688404	1.6179448	0.54530126	-1.0761192	-0.60848254	-0.6192966	0.37048042	0.2965107	-0.26334846	-0.03382218	-0.37261873	0.836028	0.13950928	0.64202714	0.8127505	-2.331927	0.7235151	-1.5622925	-1.1699421	-1.5007915	-0.8345148	-1.8187964	1.3201869	0.63102305	-1.6753777
berkeley	0.6605496	2.9763513	0.44755945	-0.20361151	-0.36102274	0.17030095	-0.71818566	1.1765429	-0.6958744	2.1536052	-1.6239939	1.3286449	-0.77810365	-2.0078335	-0.68645287	1.6611655	-1.7960956	0.7784034	-0.11233547	-0.054361798	0.70528334	1.7722129	0.9215975	-1.514295	-0.0680364	1.2486098	-0.45526445	0.9416653	-0.1336167	-0.3149666	-0.7884624	-1.1254569	0.9163294	-1.5996672	-1.1033205	1.0181941	-0.6558632	-0.5745696	1.8163158	0.95664454	0.10955777	0.42547432	1.4952435	-1.3350176	0.95367295	-0.3590411	-0.64350796	-0.3749815	0.462833	-1.7806578
broth	-0.8837199	1.2390581	0.16672362	-0.91274434	1.2861365	1.1938996	0.52036023	-0.41323593	-1.038717	1.5212628	-0.7517167	-0.42202994	0.64362067	-0.6571686	0.41306493	-0.6723584	-0.41204572	0.5724959	1.3630627	0.06099488	-0.45233884	-0.16305725	-0.710103	0.21352564	0.20841287	0.39846125	-1.4462723	1.317189	-1.171574	-1.8754601	1.200621	1.178854	-0.014432559	-1.3529165	0.8626124	-0.5714073	-0.66424733	0.33887932	0.39842427	-0.76400447	0.017121647	0.6998627	0.8710403	-1.1418257	-2.0798886	0.975745	0.48124894	-1.6525774	2.0012243	-0.98638207
mussel	0.10922769	0.21894108	-1.1803368	-0.82104886	-1.5589033	1.3639832	-0.28297466	-0.4219251	0.73062766	0.6589764	0.41776943	-0.4328955	0.39208806	-0.5458049	-1.116501	-1.2593658	1.59913	-1.5902687	-1.2658712	1.1852903	0.5183685	-0.99189365	1.0157169	0.23117548	0.42007667	-0.30147472	-1.0742943	-1.7892767	-1.4010532	0.01847344	1.9291605	-0.6412348	1.199616	-0.80521435	0.056458257	0.54936373	0.9317228	0.3713181	1.1547413	0.36433753	-0.5578425	0.0010890383	-0.9612031	-1.7500483	-1.2204949	-1.2079062	-0.2348389	1.724673	-0.34267452	-0.6493811
healthy	-1.5786082	1.1716701	0.14047825	0.29917252	1.0377498	0.7383533	-0.82090205	-0.23108198	0.2152593	-0.4718726	-1.0519402	-0.4402799	0.5830978	-0.012553666	-0.8423446	-0.10784576	0.7621128	-0.28919283	-0.2276769	1.1219151	-0.63683355	0.1371378	0.35286614	-0.008441117	-1.3488495	-0.29949975	0.7696218	-0.46924284	0.6327478	1.9439634	-0.75219035	-0.44662678	-1.5860122	1.6643786	-0.060843542	-0.27717876	2.21727	-0.5362469	-0.735753	1.4499338	-1.0816662	-0.4212848	-1.4664515	0.8138525	3.1060946	-1.0637219	-0.8760581	-0.28411993	0.7387835	0.034592763
nightclub	-0.30939546	-0.67414844	-0.7183418	-2.707412	-0.3817503	0.16317844	0.47651124	0.7450517	-0.942195	0.91255516	-0.3435259	1.6200453	-1.3953817	0.8004412	-1.0595149	0.3491913	-0.024358768	-0.34993383	2.16854	-1.1254467	-0.17066705	1.8976676	0.3205458	1.2507007	0.25736815	-0.42750093	0.14685012	-0.6090253	1.1449566	-0.36548027	1.3848203	-1.1353028	0.5739597	0.98130023	0.7988353	-0.7063798	-0.982532	-1.4056523	0.08153712	-0.41869596	-0.3896156	1.2674882	0.23720163	0.24398662	0.14788796	-0.8317591	0.9829751	0.8289854	1.4152629	1.0910292
information	-0.9873915	-0.9380189	-0.7809896	-0.31585637	0.48706502	0.8476993	-0.5873233	0.71388596	1.3370345	0.4372183	1.9945745	-0.5836983	0.14947933	-1.0329416	0.7143254	-1.7085742	-0.28181848	2.4267247	0.3562217	0.033809833	-0.2640693	-0.1935242	-1.6030803	-0.37780935	-1.2467822	-1.2150055	-1.0665616	0.06275328	0.004350666	1.193805	-2.2049625	0.15631025	-0.224288	0.8635153	-0.16210559	-1.2141657	-1.3345286	-1.0981656	-0.2849223	-1.074439	0.028401515	-0.0051882733	1.0719953	0.5544142	0.30329826	-1.3069854	1.4673206	-1.5132116	0.26119137	-0.8741915
reminder	3.440039	0.44235632	-0.18635109	0.07427372	0.11198118	-0.3037627	-0.87841564	-1.4108679	-0.8333278	-1.2838882	-1.1023582	0.654509	-0.3606826	0.4324446	1.4236346	0.23560953	-1.316285	1.7238523	-1.2490779	0.78145427	-0.27842775	1.5183302	-1.8829771	-0.71602136	0.19691885	0.6974569	0.07036752	-0.70332986	1.0722657	2.4898477	1.0807178	0.090565175	0.16278198	-1.172407	0.07763862	0.4068075	0.58668566	0.7106322	0.50663334	1.0360237	-0.9792385	-1.342317	0.07346552	-0.66605484	0.07686261	0.600232	0.5935196	-0.31217232	0.31056204	1.1254991
broom	1.4364495	-0.6581616	0.79691255	-0.6153216	-0.49146935	-2.0490396	-0.2899333	-0.9532703	0.15833007	0.79064727	1.6255589	-0.122131445	-0.696565	-0.43819115	1.0865127	0.85377073	-0.31941178	-0.008880753	-0.029930903	0.5269664	-0.90709853	-1.3860933	-0.20765306	0.46954256	-0.11503882	1.7477334	0.3466094	0.7654289	-2.3759973	0.6294466	0.20714836	0.022660678	0.52447706	1.0431445	0.73018545	0.010113008	0.5462165	-0.6422155	0.7644655	0.5466218	0.22200367	0.35889888	0.45666027	-1.5287181	1.4907855	-2.5187182	-0.6613207	0.95973456	1.1371466	-2.1116865
lcd	1.0330068	-1.3055024	-0.42913228	-1.9988277	-1.3132552	-1.5440279	-0.11318003	0.57754254	-1.1924144	0.24927276	-0.20725581	1.0100049	-0.089242995	3.0556245	0.030920278	1.0474223	-0.06336444	-0.05510727	-1.0721983	1.3261651	-1.4840608	1.289406	-0.19319062	0.089405775	0.56762797	1.3100586	-0.42612457	-1.7901214	-1.6611279	-0.16261342	0.15013221	1.0495336	0.79136354	1.5578686	-0.42525947	-1.0587182	1.5231582	-1.3493761	0.6796586	-0.56118613	-2.2948654	-0.39714098	-1.1036165	1.3966289	0.0785809	0.8296609	0.6132969	-0.23366067	0.1391924	-0.9067949
terminology	0.48022872	-0.50115496	1.949338	2.162256	2.1855073	-0.14854708	-2.9392998	-0.2784779	-0.96990687	1.2544037	-0.82370776	-0.13335997	-0.27693176	-0.045016497	-0.063528754	-1.5934088	-0.9359986	0.17898226	1.1221169	1.0032343	0.4025548	-0.060372956	0.54708064	-1.6474543	0.6577427	-0.011920154	-0.33499312	-0.34299046	0.73620313	-1.0743645	0.32962745	-0.9932564	1.419352	0.35269505	-0.07588847	1.8349946	2.0226855	-1.9583106	0.6810851	0.58900076	-0.5728725	0.5665017	-0.6547574	0.6094005	-0.44751	0.023075977	0.29951555	-0.05947324	-0.87510395	-0.36170828
repossession	0.5767244	1.989322	-0.3220893	-0.034896977	-0.047878727	-1.4263415	-0.062486067	-1.1101209	0.81427205	0.76574266	-0.33400506	-1.0644721	0.24976458	2.3604856	-0.7474967	1.2732996	-0.041639335	1.0017782	1.3328991	-0.4405872	-0.37618265	-1.4340398	0.0899926	-0.6601575	0.47022814	-1.63105	1.0324733	-1.4438552	-0.22933312	0.4917897	-0.5040722	-2.7368112	-1.9736631	-1.2008965	-0.78024155	-0.32225242	-0.44432113	0.4116626	-0.61969054	0.5724003	-0.5849304	-0.9544934	-0.95071745	0.09423546	-0.8441986	0.122902535	-0.5613321	-1.7749118	-0.38018966	1.2394714
altitude	1.069525	-0.057797704	-0.03845141	1.8648493	0.69986635	0.12157898	0.32702962	0.41907993	1.3769964	-0.109649494	-1.5693575	-0.41861346	0.781553	-1.8038961	-0.97588676	-0.73283035	1.0802149	-1.8458443	1.4447857	-0.2852725	1.022776	0.105329365	-1.8156713	-0.066951185	-1.0681231	0.5735414	-0.23988795	1.3718305	0.50225514	-1.8557904	0.8639633	-0.8285051	0.189775	-0.63987035	0.21854818	-0.37406924	0.028863031	1.1104101	1.5870433	-0.24208026	-0.51252085	0.05541781	-0.20383945	0.19571477	-0.31313273	0.7729643	-0.29841185	2.873978	-0.5296053	-3.0782394
solar power	-1.2387348	0.79430634	0.5343827	0.6312305	-0.0667321	1.5437816	0.017671393	0.2119937	0.93381315	-0.045877397	-0.38853234	1.4635663	-0.9915017	-0.6667439	2.4533691	-2.4241357	0.23704636	-0.66350853	0.57582706	0.15556881	1.4697477	-0.89493716	-0.89620614	-1.340281	-0.3988134	0.04105451	0.10241181	-0.020845091	0.8708477	-0.71065253	0.74060243	-1.2609608	0.37340862	-0.24100742	-1.7956206	-0.2944686	0.20424226	-0.48196146	-0.014732217	-0.4561934	-0.5223341	1.4992555	-0.81048024	-0.89172745	-0.33044595	-0.26508465	-2.3503337	-0.10426069	-1.6818142	0.7418169
mcafee	-0.13111264	0.14711535	1.9711844	-1.0991771	-1.0391029	-0.109193414	0.9042748	-0.5205543	-1.193166	-0.27264288	-0.0648548	1.0481002	0.95608765	1.3770103	0.9234595	0.55663925	-1.8232068	1.5536159	-0.45333982	0.34424457	-1.3083557	-0.2151778	0.20526126	0.33662412	-1.7804489	-1.6230248	-0.1803962	2.3091216	-1.4164718	0.30917978	-2.4637759	-1.003988	-1.3707374	0.030121041	0.71340024	0.842567	0.8647612	0.7868175	-0.01770758	-0.77747184	-0.4054894	1.1635997	0.031005438	0.25864896	0.4963536	1.8505749	-2.269182	-0.06115247	-1.2335821	0.81304926
copd	-0.4158294	0.34237126	0.4351995	-0.37969258	-2.389405	1.2418439	-0.43504876	-1.5514925	0.4950737	3.7162867	0.03803683	0.61357737	0.5094989	0.30111092	-2.120561	-0.38569954	0.64959514	-0.4716903	0.8140067	-0.002353914	-0.9332059	-0.9288032	1.2292328	-0.4041162	-0.6136113	0.14914747	-0.26351306	0.3997112	0.4865959	-0.5832573	-0.33835799	1.6551294	-1.2194163	0.08837175	-2.0544508	1.0788714	-0.21808207	-0.5129729	-0.32565522	-1.586133	-0.6187216	1.1325259	-1.7710497	0.91618884	-0.7055032	0.9920635	0.5820907	1.0767463	1.0689856	0.8024262
website	0.3256287	-1.4572586	-0.39741093	-0.02168026	-0.62554836	0.087693825	1.0382216	0.4661303	0.32945433	2.2702787	-2.320952	1.6077427	-0.3602097	0.5255885	-1.5657756	1.0836285	-1.2853479	1.7230773	1.4935044	-1.563977	0.010631548	-0.0099935755	-0.15730153	0.61451757	-0.40533736	-0.37921357	-1.3949387	-0.57571757	1.1352012	-2.0243156	-0.6481348	0.032147847	0.34223565	-0.033623375	0.23682213	0.5726024	-0.6091752	1.1129289	0.40981996	-0.6571495	1.0298067	-1.290334	-0.34772083	0.193785	0.013588112	-0.10732761	0.9630252	-0.47993845	0.62404686	1.2147535
timeout	-0.77203685	0.109122634	0.7294868	0.76265764	-0.3808493	-0.025697967	1.6034923	1.0306906	0.8727979	0.12018694	0.09408173	-0.4034687	-1.0888711	-0.08693582	-0.8376233	2.4686658	-0.7138907	-0.51966554	-0.36065045	1.2300377	-1.4953331	0.69736654	1.9361554	0.5639337	-0.10833822	-1.4700935	-1.6792107	0.2346235	1.1558962	-1.7072	-0.77476597	0.65071994	0.5566073	0.76457536	0.99882597	-1.2905703	0.50499773	-2.13054	0.6643456	-1.1801227	-1.86623	-0.5493513	0.8369444	1.0616667	0.27791107	-1.3731737	0.9106932	0.41452685	-2.5602357	-0.65142626
psychosis	-1.7096696	-1.1065608	-0.12804107	-1.2418221	-0.46672148	-1.5118316	-0.111642264	-0.6268484	0.27855635	0.86395174	0.00804477	-0.49626902	0.888705	-1.2846376	0.79990983	-1.2476401	0.1402721	-1.5957137	-0.18525943	-0.24030294	0.55507624	0.4912848	-1.2897209	-0.030483304	-0.55069673	-0.8426396	0.5021873	-1.7809677	2.7738476	0.757583	-0.35660937	0.5889333	-0.53788096	1.6434768	0.04794476	-1.6643327	-1.8186681	-0.24021433	0.3153465	-0.871855	0.45171356	0.49625796	-0.6863707	1.989624	-0.5480998	0.78577334	-0.7862882	0.34694356	0.44120505	1.1465126
hp	-0.14946514	-1.335879	-0.42083845	-2.2125807	-0.21666323	0.64878255	0.06596068	-1.4424479	1.644369	0.31635737	-0.41582915	1.5090554	-0.11402283	-0.30778262	0.50004256	-0.51574963	-0.22431834	0.82029027	-1.2850078	-0.26295716	-0.6637308	-0.12631296	0.020854032	2.168999	1.7306166	-0.7672976	1.8009276	0.13973592	-0.033270903	1.1781294	-0.47451073	0.8254457	-0.9335646	1.668246	0.99205863	0.97744673	0.05724255	0.1687342	0.15543711	0.67733824	-1.2425373	-2.249663	-1.657944	-0.5690699	-0.7100614	1.877059	0.677614	-0.38376233	-0.9111977	-1.0046482
public transportation	-0.120314084	-0.78051454	1.6677613	1.9234067	0.28245828	0.17183875	-0.3437114	1.1098306	-0.3640025	0.8746691	1.5812758	1.2652159	-0.70436454	-0.3769144	1.7044175	-1.6864867	-0.4714763	-0.31697208	-0.15637507	0.16778344	0.61100113	1.1480534	0.40320536	-0.7536135	0.40073887	0.6386887	0.9604137	0.34560052	-0.025700452	0.07851919	0.42565376	-0.18827079	0.1554834	-0.485917	0.69200826	-1.1201664	-0.73923016	1.2340535	-1.8537574	-0.19007808	0.14215498	-0.396971	0.5250389	-1.5053356	-0.7223714	-0.9636184	1.6640393	-2.1010578	-0.6593552	-0.24914567
adverse weather condition	0.14980234	0.7300897	-1.9274044	-1.3725525	0.06800126	0.3939236	1.2015514	-0.027461082	1.5301616	1.1674416	-1.3373446	-0.8249245	1.2033199	0.5669406	0.57835424	1.223251	-1.5273092	-0.6298344	2.1861749	-1.0926732	-0.17959237	-0.078613736	0.53471875	-0.733494	1.3216887	-0.8978354	-0.45559353	-1.2410282	0.79111534	0.01284403	0.18071932	1.3474718	0.28479394	0.12077651	-0.24502341	-0.79780513	-0.75168175	-2.0668623	-0.8225407	0.24567388	0.6453021	0.11679789	0.115406044	1.1249092	-0.75749964	0.57063395	1.9509231	1.1622365	2.312501	0.41840416
intersection	-2.071633	-0.34288096	0.12054949	0.37890175	-0.18050474	-0.0705406	-2.414161	-1.350697	0.20253871	0.25757223	-0.76876605	-0.641676	-0.39439765	1.7082283	1.4526513	0.6539432	0.12578656	-0.112327434	1.010855	-0.053569026	-0.6735501	1.1486481	-0.8573467	-0.53233457	2.0820785	1.1566554	0.57856303	-0.32264608	-0.024881091	-0.661581	0.9449893	0.29708207	0.69235826	1.9501615	0.38804457	-0.7658098	-0.5023252	0.7143739	0.40742284	1.8185632	0.2224546	0.108883806	0.82440937	-0.96823025	-0.24901326	0.029304562	-0.42065465	1.4422312	0.35851684	-2.3974314
imagery	0.48860234	-0.3670186	1.7014239	0.25771448	-1.1470462	-1.8592843	-0.15677072	-0.2009873	-1.1485634	0.45143944	0.86385643	-0.3666252	-1.8394858	0.15417641	0.26930937	-0.051821567	-0.37169474	-1.4226327	0.8617258	-1.3136024	0.4773023	-1.3608385	0.5606381	0.24802665	-1.3618875	-0.612058	-0.74485946	0.5053008	0.060805038	-0.67578614	1.2584138	-0.81590134	-0.24132238	-0.16280371	-1.6740999	0.19256152	1.0374838	1.6325219	-1.2250894	-0.29120764	0.38618064	-1.4348335	-0.11558927	1.1636667	-0.8011739	1.0587232	-0.22200587	-0.72862446	-1.5174242	-1.7249285
honey	-0.0013289172	1.4555447	-0.034980603	-0.4834859	-1.2751213	0.24835993	1.3266056	-1.9559805	-1.3915229	1.0542221	0.2556309	0.310028	-0.34828237	1.6403562	-0.09670689	-0.5921199	0.09980055	0.162544	-0.053990513	0.037831917	0.5732394	1.171866	0.13500403	-0.45563376	0.6632652	1.7372457	-1.278673	0.64469165	0.045772582	-0.044066638	0.305184	-0.75086784	-1.6936228	1.3378211	0.015348198	0.9814999	-1.5071375	0.7864793	1.1813855	0.11877411	-0.304262	-0.23910323	-1.81893	0.25388944	0.6660673	-1.4348575	0.59176713	-0.12690437	2.250971	-0.9417587
calendar	1.954032	-0.72128487	0.7506738	0.10855347	1.2850081	0.90140307	-0.09943908	1.3372221	2.097319	-0.2689896	0.22617325	0.27440777	0.22378823	0.21086705	-0.34068868	-1.996397	-0.18138725	-0.07023689	0.17988208	0.35686693	-0.91173595	-3.2426665	0.56450236	-0.115706526	-0.2290078	-0.6708597	-0.20611034	2.126081	0.29804322	0.25171208	-0.22650862	2.1136847	0.59009403	-2.6013334	-0.18515737	0.18837664	1.3257324	-0.63082916	-0.3528799	-0.45052943	-1.1733383	1.2984111	0.62588507	-0.9211752	1.1894492	-2.1387818	-1.0605011	-0.7953375	0.22533068	0.6477999
ubs	-0.7137423	-0.31653327	1.044475	0.30124968	-0.90780383	-1.8362585	0.06413305	0.8198996	0.43505478	0.3029641	-1.7333881	0.4034118	0.6926134	0.08317654	-0.5180819	3.241508	0.6026398	0.30252212	-2.4403968	-0.87831914	0.059281237	1.27957	-0.84277207	0.61934674	-0.42729208	-0.46743533	0.62719476	0.55045044	-1.2216609	-1.2949343	-0.14493202	0.8493549	-0.27277654	0.5199177	0.24436156	0.2368613	-0.7107674	2.0575318	1.0760214	0.88518834	0.28376123	-0.34077704	0.81017405	-1.1254914	0.70607007	-0.50765604	0.5190249	-0.63452816	-0.16141373	-0.9596596
file name	1.1772059	0.2658029	-1.9633813	-1.4994296	0.6436605	0.6103443	-1.1517565	-0.27468228	-0.35352406	1.6234926	-0.57434773	-0.885451	-1.3314714	-1.7124997	-0.6093552	0.01272078	0.099205784	-0.7007671	-0.6252727	1.1940539	0.22114621	1.3208284	0.23331198	0.22095276	0.36214313	0.9456396	-0.54712015	-0.22152218	0.40157926	0.5704378	-0.47648388	0.5298594	-2.0338154	-1.1904494	1.7478505	0.07372292	-0.96033394	-1.3916898	0.6249867	0.7630754	0.76839215	-1.844623	-2.1136596	-1.5060626	-0.09075438	-0.5200559	-0.19867557	-1.2676901	-0.15229708	2.007884
irritation	-2.1972873	-0.31009686	0.21828154	-0.06287932	1.1561762	-0.9512777	-1.0394498	-0.80852526	-0.6675378	-1.1963497	0.17558506	1.0714887	-1.5117178	0.38300362	-0.38637516	-0.044740386	1.6195539	0.040253833	0.21123628	-0.26670495	-0.08769846	-0.8026686	-1.4055426	1.2893615	-0.5767666	-0.05777762	-2.3153286	-0.22682804	0.1862393	0.7659181	-0.047838755	-0.14683293	-1.0833808	-0.8836891	0.07710572	-0.8333574	0.06280473	0.1007936	-0.3388737	0.485037	0.7021619	0.081050165	1.3437028	-0.98099864	-1.0231934	1.5643616	-0.630931	1.8356999	-0.3169309	0.015022071
peanut	0.1501951	-0.23325954	-0.4965973	-1.3164943	-0.644829	-1.1750512	-0.599915	1.7472681	-1.3444405	-0.26274073	-0.7440562	-0.27867067	-0.121547654	0.0910538	1.3330203	-1.5287349	0.05232306	-1.1927298	-0.6637489	0.70751375	0.1384969	0.22834182	-1.0419681	-0.72081137	-0.42089698	-0.16201748	-0.38558465	-0.51729053	0.16442752	1.1311302	0.21976826	2.045402	-0.8526601	-1.6427712	-1.7254654	-1.7155514	1.6485374	0.010347756	-0.24241671	0.80108154	-0.7842306	-0.8143621	-1.0522767	0.37038672	-1.1487873	-0.22493616	0.45728153	-1.6364071	-1.0972773	-1.1245195
job satisfaction	0.3537102	1.3041579	0.041678928	1.6847557	-0.19307274	-0.51569116	0.108200565	0.9561212	0.22039333	1.2076254	-0.8674884	0.40537235	0.1045402	-1.4509337	0.7054934	1.0458988	0.3288143	0.0030113552	-1.3084186	0.32578668	-0.56708175	-0.7788629	-0.82936394	0.6818478	-0.65623075	0.13668445	-1.6825359	2.2645166	-0.83305615	-0.77759033	0.05414331	-0.68403554	0.00494159	1.27489	2.0723827	-0.66850245	0.8794583	-0.30860594	0.88337624	0.03534227	0.16225015	0.16070114	-0.7039089	-0.3444108	-1.1208292	-0.1997081	-0.13048513	-2.4167655	1.4657596	-0.57013786
sound effect	1.0332488	0.3035911	-0.9046774	0.9598103	-0.6580036	-0.7972772	-0.14163603	2.2008665	0.5193374	-1.1228616	-0.34641778	0.95384896	0.046278328	1.577065	-1.1983117	-0.2965993	-0.3856106	0.62423664	-2.0471935	0.9334023	-1.9767232	-0.5945461	1.7079546	1.1268039	-2.0591056	2.5863485	1.8649937	-0.7061966	1.1796409	0.8734419	0.28466636	-0.6726076	1.5417593	-0.13511196	-0.61930555	0.8190078	1.1643717	-0.68536806	-0.14209117	0.13260934	0.4921191	-0.56953603	0.3848166	1.1089296	-1.6675235	1.6615793	0.80484504	0.0054978877	0.6805728	1.0129925
insect	-0.1266026	1.1639158	-0.78190833	-0.4686577	0.37042165	-0.5797138	0.76121587	-1.3018223	-0.19333063	-0.38499838	0.15514155	0.9708403	1.0610647	-0.19758542	0.81646645	-0.0143512525	-1.1835766	0.019153696	-0.4144849	0.14270346	0.856654	-0.91235596	0.36862087	-2.0820403	0.40666854	0.81700593	-0.67573345	-0.7153744	1.2981836	-0.6067719	-0.5913632	0.05064173	-1.0399257	-1.0809723	1.6313442	1.6855804	-1.6764536	1.7156987	0.48630396	-0.5090726	0.15911959	-0.7762316	0.92583925	0.82270217	0.50984305	0.3841553	-0.8490811	-1.5880202	-0.01867735	-0.24203274
anniversary	-0.375703	1.1728835	-0.042123683	0.14158995	-0.20286547	-1.0335991	-0.44213998	-0.72188026	-1.6122396	0.7602845	0.3096538	1.4292508	-0.23904188	0.99701214	-1.0667862	1.0536735	0.0904368	1.1457696	-0.28800395	0.9971987	1.3561339	-2.4705665	-0.15840928	-0.003967913	-0.77236676	-0.19935721	-1.6299362	1.9369433	0.70215243	0.2624047	0.7408317	0.57478285	0.4391277	-0.15419456	1.7716869	1.2592001	-0.3614224	-1.1727155	0.22269712	1.4643357	1.0858727	-0.738066	-1.443671	-0.1685798	-1.337401	-0.02009138	0.4259358	0.57856435	0.10952357	0.66074
utility bill	-1.0126979	1.0656238	-1.7983353	0.3569887	-0.24536824	0.433803	2.4587252	-0.4881521	0.09889706	1.6322969	0.0739573	-1.1771362	-0.3813847	-1.5707107	1.437624	-1.4914726	-2.174325	1.1220475	-0.25667408	-0.85484415	0.5380027	-1.021131	-1.0629307	0.08539858	-0.45379832	1.2833897	0.54748946	-1.7757869	-0.18978378	-0.15069035	-1.5515773	0.27068123	2.765636	-1.0518792	0.5323805	-0.5262456	-0.42961544	-0.6782056	0.9321764	1.2248474	-1.720843	0.54911387	-0.20313475	-0.20440215	-0.20267147	-0.14673458	0.6551259	0.4899182	-0.16294998	-0.33204904
razor	-1.4095722	0.06478315	0.12319585	0.4917472	0.76879424	-0.18701467	0.9327882	-1.7463937	0.42874318	0.6171158	0.071171574	1.148139	-0.6420762	-0.776236	2.0838664	0.75566185	0.30207604	-0.67929846	-1.2225937	0.17766216	0.9122323	0.9681653	0.09289464	0.9352802	-0.71867675	0.39306983	-0.40705705	0.71362984	-2.0836506	-0.48619607	-1.9498881	0.37970245	1.2209848	2.013958	0.1992918	0.9289835	0.6223454	-0.826878	-0.031729996	0.70308673	0.10085381	-1.8357607	1.6602149	0.9303644	0.41320607	-1.2215773	-0.61056924	0.46059114	-0.8526394	-0.5091191
heading	2.3239222	-0.6863283	0.9821007	-1.469588	0.39523068	0.07093794	1.1331174	-1.9705802	-1.1816144	-0.17965572	-0.7739997	1.145846	1.7246635	0.046373367	-1.2589107	-1.8423103	-0.7939174	-0.6007806	-0.16032189	-0.6562779	-0.3450363	-0.09192401	-1.0322547	-0.82657313	-0.72978365	-0.84423804	-0.8282389	-2.0193663	-0.8817655	-1.5491072	-0.1553965	-1.1473727	-1.1081827	-0.25628304	0.14989704	0.9107947	-0.7896892	-0.7273257	-0.29003227	-1.1721559	0.14539826	-0.5418505	0.47853592	1.9208195	0.45092478	0.9128532	-0.1579802	0.38955927	-1.6422942	0.47262105
san francisco	-3.0504484	-0.42643616	-0.0010196343	-0.1505014	0.306036	1.1759851	0.30046466	-2.4621577	0.7065985	-0.8932701	-0.6548374	0.05137529	0.12388746	-1.1251045	0.16768855	1.6345439	-0.38103405	-0.93606913	-0.6542729	0.8608515	-0.24388032	1.5395404	0.67883503	-0.600571	0.7504878	-1.0222013	-1.0528615	-0.5523758	0.58646774	-0.80780655	0.56884176	-0.8100062	0.6929643	2.1580932	-1.0993555	0.6878202	1.0169185	-0.81361175	-0.92015946	-0.17784089	-1.0381792	-0.83681333	-1.0604829	0.038126156	-1.1289383	1.2259592	1.6013565	0.58340675	-0.22241405	-1.318109
wealth	-0.078678414	-0.90299606	0.21328633	0.23437464	0.72833514	2.010381	-1.1985048	-0.6290548	-0.060649276	0.088200375	-1.624144	-0.7225019	0.25524747	0.41871908	-0.5823096	-0.58850026	0.7220106	-2.0840507	2.265884	-0.056466803	1.1497669	2.7317853	-1.3396775	1.4001193	-0.96013165	1.1793818	0.05110006	-0.1607476	-1.0837173	-0.43739328	-1.1184658	1.0325148	0.09284951	0.39956608	-0.63604784	-0.3179602	1.1370716	-1.0864365	-0.74340785	1.1312107	0.60876936	0.72299194	-0.9535278	1.7727346	-0.3768659	1.6419351	0.8211993	0.2708107	-0.27935296	0.6319574
hypermarket	-0.79643375	-0.2101578	-0.58028895	0.33603844	-0.5993468	-0.06703794	-0.5923135	1.3227397	-1.4585886	-0.61434555	-0.52855974	-0.7274357	1.0567198	-2.326985	0.32095858	0.08452247	0.18798865	0.8276824	-0.32359254	-1.0851283	-0.2491176	-0.6962581	0.5024258	-0.56801957	-0.2712931	0.060157835	-0.06837913	-1.4827787	-0.23640585	-2.2104275	2.3379586	-0.26796445	-1.7044024	-2.7961378	1.7331107	-0.6921053	-1.0145452	0.91796654	-0.11109549	1.0322119	0.33130497	-1.668651	-1.1532832	0.4463287	-1.3997428	-1.2848101	1.1835687	-0.23248573	-0.7636838	-1.0087762
critical thinking	1.5871685	1.3306814	0.3267328	-0.15801044	-0.069985524	0.47412384	0.9020142	-0.14252642	0.23044416	-0.5718684	0.17460702	-0.06660943	-0.7373169	-0.28664264	-0.19203988	-0.3211116	0.01461369	1.0243549	-1.150521	0.24333096	0.8767086	0.5917527	-0.7320711	-0.59155345	-0.99931526	-1.6257453	-0.2784372	1.552113	-0.9919597	1.2645828	-2.592485	-0.33561254	-1.2678189	0.16157211	-0.33759633	-0.19760168	1.9013382	-0.33574656	0.24062829	1.0312909	-1.7918496	-0.32535043	-1.203159	-0.43950054	0.9319904	0.87913823	0.6157097	0.10150035	-2.0159025	-0.3534466
topic	-0.41885155	1.1207857	-0.6258175	-0.019129235	0.5370325	-0.59635437	0.011155741	1.2817371	0.5460836	-0.5954627	-1.6991065	-1.1148782	-0.41899157	0.9421541	-1.2092099	-0.05140182	0.13312118	0.2316993	0.7910789	0.12246911	-0.33985966	-0.6134532	0.34918332	0.57757705	-0.1297222	0.46022916	0.07476252	-0.5334523	-1.2918862	-1.9452207	-2.2402263	-0.39213675	0.7664211	-0.6290549	-1.2183496	0.13842417	2.3938181	0.6558249	0.9972954	-0.9880848	0.3211308	-0.45037156	-1.8923335	1.4092845	1.9751146	-0.170806	0.45963848	1.534876	0.026426587	-0.034544587
emergency service	-0.4123638	-0.75697094	0.6321559	0.37241146	1.95623	-0.1383326	0.62544596	-0.9969781	-0.36385497	1.7768439	-0.16611165	0.21913686	-0.29593542	0.12696669	-1.2949922	-1.4692739	0.8758284	-0.9101565	-1.2673965	-0.08268113	0.92007965	2.137119	-0.12161939	-0.07356727	1.8670632	0.46276164	-0.937726	-3.3443215	0.324618	2.0230515	1.1192405	0.6552713	-0.006463226	1.4791465	-0.6995766	-1.0484872	1.0065813	-1.0242716	-0.045056544	-1.3784478	0.43836728	-1.0513792	-0.94604874	-0.8542363	0.46988276	-0.037249066	-0.8330573	1.6150246	0.80178183	0.26869527
spice	0.8774863	0.8382384	0.12636787	0.49084842	-1.1795995	-0.9551368	-0.12338775	-1.4793807	-0.20424415	0.48672485	-0.5895475	-0.9852947	-0.6171724	0.0042137746	0.09271083	-0.18835644	-0.36551908	0.38679677	-0.5239339	1.3007348	-0.59742177	0.755899	0.19524562	0.18719915	0.038338937	1.1737639	-0.42070246	-1.5072668	-2.4704454	-1.3180791	2.0337884	-1.7619504	1.9778721	-0.31312194	1.7333539	0.48945644	0.39260566	0.3303267	1.1443036	-1.4759945	0.604915	-0.15727645	0.6333673	-1.6686449	1.161507	-0.7079066	0.22411631	1.3740523	-0.071062714	1.0791223
malignancy	0.4635017	-1.5444385	0.48265842	0.18884291	0.45974305	-2.1360767	-0.123263456	0.5310032	-0.23127912	-0.24959165	0.9346864	-1.961921	-1.4413753	-0.70590943	0.27265444	1.3405411	-0.6769912	-0.17671283	0.041712396	2.3670013	0.37254867	1.0159761	1.0036259	-0.29919705	-1.065464	-0.63351846	0.9653389	1.5691624	1.5414286	-0.045472115	-0.36313403	1.7311195	-0.78710896	0.2919119	0.07839217	0.6133035	-0.8278007	-1.288465	1.2805108	0.826838	1.4222301	-1.8110387	0.018927429	-0.3583851	-1.0049219	1.6028976	-0.6916479	0.3540499	0.60407597	0.09178961
sky	-0.8636997	-1.0712006	0.39569724	0.15177743	-0.71060085	-1.4959579	1.0321043	-1.4205639	0.45165846	0.72282505	-1.9260579	1.4014258	-1.1150113	-0.7057337	-1.3861784	0.7754912	0.512502	-0.07279547	0.21885937	1.6660253	-0.15875445	-1.2200433	1.8287134	0.6795914	-0.78027505	-0.59862924	-2.021467	-0.022837812	-0.31767958	-1.3424318	-0.56465	0.9718734	-0.0084339585	-0.30796114	-0.8880559	-1.0024077	-1.1362817	0.91597384	-0.73817825	-0.1638803	-0.21303356	-2.0524049	-1.511325	-0.053242348	0.20491335	0.16013683	-0.7588775	0.41416457	-0.13930352	0.86725426
peroxide	0.5791057	-0.63446057	-0.9303689	-0.3373771	1.4528604	0.19310991	0.31148297	0.30482548	-1.1218314	-0.9017041	0.045891926	-0.96229255	1.1734691	0.6005005	0.12460255	-2.8756359	0.0069707762	1.9641107	-0.26840338	0.36589554	-0.19669388	-0.57671696	0.22691575	0.32692626	0.79126436	0.3259072	0.057055987	-0.0044275615	1.6156638	1.3182492	0.1862217	-0.47689	1.8351343	2.3529644	-0.22850426	-0.5654939	0.3793935	0.47457328	-0.3998977	1.3885448	-1.103118	0.27516228	1.2816648	-0.0954898	-1.36396	-0.3566417	-0.25906226	-2.1489089	0.05367253	-0.72069067
bamboo	0.98923826	1.5393876	1.5621599	-0.8930496	0.031884626	-0.9881562	0.76240706	1.7037055	0.033602394	0.19726072	1.0713742	0.37424675	-0.12633309	2.2192223	-1.5666456	-1.1750361	-0.07685561	1.3074439	0.06349279	0.22099675	-1.0278972	1.0197898	0.4922453	-0.16416407	-0.7734701	0.50150394	-1.3946928	0.26793906	0.8427856	1.5674891	0.58844686	1.2425904	0.43417352	-0.104342535	0.6198996	-0.6239379	1.381929	-0.4067585	1.2030908	0.4465827	-0.3477341	-1.0013853	-0.24349828	-0.9447462	0.4609485	0.82179046	0.36398333	-1.1426877	1.6085454	0.5299165
appeal	0.679692	2.842861	-0.4630885	-0.5416899	-0.84148705	-0.79146045	2.2001626	1.025653	-0.5274742	0.20587766	-0.1790342	-1.3385677	-0.10051146	0.39531904	1.0004097	-1.019591	1.3819667	1.3803405	-0.15604468	-0.5446626	0.20060606	-0.6426485	1.2619464	-2.166244	0.75819874	-0.24691246	0.095821425	-0.6232081	-0.84526163	-0.19585125	-0.58413446	2.1328542	0.2858592	0.6882983	-0.045886308	0.28035027	-0.9209527	0.61702293	-2.490864	0.49991265	-0.30204353	-0.44513136	-0.55962557	-2.467456	-0.49148858	-1.0071774	-0.61601526	0.307924	-1.2323885	-0.46433595
graduation	0.74288225	1.253668	-0.07365297	0.10210288	0.6109219	-1.337933	-0.6526065	1.3899087	-0.074122444	-0.44804007	-0.05407499	-1.4893082	1.9443274	0.42896253	0.9174088	-0.17732935	-0.07453982	0.39232528	-0.3918219	0.2912645	-0.55907506	1.3716928	0.9890683	0.54887754	0.7319552	-0.45903748	0.39661896	-0.77593464	1.4241378	1.5208038	-0.7605628	-0.760904	0.6668936	-0.020895714	-1.2325181	-0.8596335	0.10600051	0.7850062	-1.2362361	-0.7578406	-0.57782656	-1.9057658	1.2645389	-2.0651019	-0.7513019	1.3030404	1.8713527	0.28014833	0.54157054	-0.55213016
pillow	-1.503976	-1.1140169	-1.8798702	0.5346559	0.22869986	1.4554362	0.3206482	0.36393654	0.3320623	-0.8814068	-1.1280185	-0.81638783	0.88768584	-0.36209476	-1.3216944	1.1511447	-0.13108765	0.14279574	0.109989375	1.2089639	0.021024954	-0.40866637	-1.2923921	-0.87630063	0.3549684	-0.16187328	-0.9801971	0.5160422	-0.013721775	-0.45842537	-0.8259814	0.72151756	0.19583601	0.63351184	-1.3267525	1.1328351	-0.39557305	-1.6111076	1.78939	-0.938587	0.25470164	0.5503636	1.0672195	-0.4518275	-1.3436899	-0.08619461	1.788113	0.21264695	-0.06345732	2.2233655
file transfer	0.9760449	0.51822937	2.2615874	1.6473428	1.4790437	-0.8623424	2.4568207	0.8806091	0.55527836	0.88551575	-0.2681582	0.29057717	0.40541884	0.5408246	1.027394	-0.41601834	0.11571417	-0.52332324	-1.1633447	-0.045347758	1.863634	0.6838772	0.6204737	-0.24546988	-0.69601434	2.0821288	-0.14531033	1.3112949	0.17196497	-0.47891226	-2.7861059	0.5308686	-0.2807488	-2.5793314	-0.5607337	1.2480048	0.06279529	0.16703518	0.91411144	-0.938541	0.9697111	-0.25014699	0.31235325	-0.24444906	0.9778036	-0.65524733	-1.2335624	-0.84718096	1.0001518	-0.9758597
salon	-0.91051143	-1.3647801	0.7396821	-0.6460741	-0.66144705	-0.17567502	-0.50973326	-0.41563118	1.8085532	0.46961722	-0.111630514	0.5996557	1.5608424	0.13554193	-2.0080633	-0.3497071	1.645427	-0.09465645	-1.982509	1.5993695	1.9182204	1.2443665	1.5192007	-2.4049141	-1.652407	-0.45586348	0.1403629	-0.5575196	0.9181999	-0.6388486	1.5505717	0.46707988	-0.67302746	-0.4907411	-0.64552575	1.4146557	-0.60458183	-0.4645672	-1.6650286	0.88974357	0.018165004	1.3956828	-1.2083935	0.24964117	0.867189	1.0985686	-0.30464628	-0.061230443	0.7884545	0.30877617
acetaminophen	-0.82563275	0.05831608	-2.421748	-1.5845476	0.2733282	0.3275087	0.7200975	0.90797335	2.0646482	-0.1690853	-0.12444622	0.10984195	0.5044466	0.7128527	0.19671811	1.1981008	-0.016677009	0.07864632	1.4584924	0.25494617	-0.04922694	0.013502415	2.170597	-0.6293731	1.2920151	1.137849	-0.06852931	0.048093766	-1.0332222	-0.8685372	1.0156113	0.0480809	1.3658503	1.1945419	-1.8723156	-1.3499489	-0.4984035	0.40205306	1.6091948	1.7538136	0.20724358	-0.4431326	0.90597767	0.22529069	-0.07676399	-0.51568365	0.14641832	-1.8371942	0.66193974	1.0020696
team	0.38584462	-0.40383866	-1.161332	-0.14636156	-0.3899528	0.011577556	1.0735848	2.0396032	-1.2343371	1.288644	-1.9056367	2.4099667	-0.20913431	-1.3194116	-0.7425526	-0.0023496188	-0.94639677	-0.9561316	-0.014306629	0.48661005	-0.39696905	-0.801779	-0.4998176	1.0094669	-0.78765666	0.86867464	-0.22820008	0.34773633	1.4158217	-1.3788217	-1.1748632	1.2935995	1.1989496	-1.0281785	-0.34381387	-1.9374846	0.38584748	1.147323	1.5780073	1.226462	1.1954969	-0.867473	0.6840893	0.32963368	-1.1075358	0.90879023	-0.107783124	-0.46699777	-0.027092626	0.104728125
environmental condition	-0.3796716	1.5162011	1.0290469	1.4371873	0.4992251	0.55267245	1.3259448	-1.7828543	0.31626448	1.5682447	-0.9492304	-1.7179148	0.81059396	0.7047085	-1.2687051	0.02279417	0.46521804	-1.0505564	1.7757652	-0.91464823	-0.4061117	0.5013166	-0.6046552	0.8644648	-0.355496	-0.118664704	-0.4006115	-0.7503961	0.43549994	0.5601255	-1.4025321	-1.9092946	1.2001407	0.8044526	-0.73835856	-0.503345	2.194809	1.6186947	-0.5151229	0.2857475	0.339406	0.1291055	-0.48785755	1.0457201	-1.7967565	0.34710857	-0.5296441	0.10273909	-1.3712317	-0.9059753
principal	0.79804486	-1.1608508	0.27637243	-0.9036033	-2.0292585	-0.7927692	-0.24042453	-0.36608443	-0.16278969	-2.3087933	-1.3340907	1.2906101	-0.27539998	1.316107	-0.6571687	-0.6045608	-1.0554163	0.63885653	-1.1491885	1.9394639	0.19045399	-1.6329836	-0.64290345	1.2452184	-0.08054773	0.20732252	0.47597536	1.3874224	0.21677412	-0.13329099	0.43100455	0.27098763	1.8510073	-0.30513942	-1.2626745	-0.16755065	-1.00937	-0.1354619	-0.112293415	-1.0640696	0.1965112	-0.5179173	-1.1570387	0.8316123	0.6588256	0.45795125	1.33783	-0.27685994	-0.8318474	0.06883585
architecture	1.3235285	0.7488382	-0.05090583	0.34273285	-0.2869838	-1.5624988	-1.2067505	1.0691468	-0.12067791	1.3859283	0.48097494	-0.5774046	-0.87836987	-0.3670334	-0.98370254	1.3637255	-1.1590235	0.6503669	0.51993394	1.3148136	0.20218249	1.1968362	-0.71772474	-1.377381	-0.57621235	-0.77576065	-2.1347477	-0.9343896	-1.1770455	-0.839136	-0.212875	0.72485656	2.562622	-0.18396997	0.38401377	0.22065957	0.8043787	-1.5941302	0.3159966	0.24823503	0.5944164	0.9228803	-1.5487993	-2.17559	-0.6548542	0.03307411	0.8126532	-0.1859301	-0.30016893	0.068766855
bottle	1.2173868	-0.76206267	0.6143205	0.43922392	-1.0818831	-1.0646223	0.36848873	-0.50533396	-1.6598028	1.3129848	1.8672636	0.18371949	-0.16680293	1.658753	-0.11250419	-1.0367466	-0.101078905	-0.55824524	0.23829773	-0.37255096	-0.5792048	-0.81996876	-1.2798839	-1.9560579	0.7540208	0.7251427	1.294635	-1.6642883	0.56723744	-0.5433104	-0.4987951	1.5057423	-0.08052892	-1.6704724	-1.4180423	0.14270888	-0.3297031	1.7100892	0.5667534	-0.5209055	0.072725564	-0.75554746	-0.6166461	-0.973217	-0.8480107	0.0669247	1.4861565	-1.0822797	-1.1396701	1.1878197
drill	0.44369698	-0.49267775	-1.7076747	0.16737026	-0.6708393	-0.6434497	0.017596297	0.3802911	0.29881683	0.13985743	0.60379153	0.020751731	-1.7646482	0.18842922	-0.5537747	1.2607422	-0.6885128	-0.0065956116	-0.20653693	-0.3269874	-0.6040008	0.015953608	0.77294517	-1.0507442	0.20084913	1.2942865	-2.2665482	-0.2004321	-0.73206115	-0.37207013	0.3208664	-0.8440721	-0.0013316274	0.02475331	-1.0381207	-1.2671213	-0.6213894	-0.3941487	0.64357233	0.12349853	-0.22691919	1.1917998	-0.47236603	-1.4726077	0.09316361	-0.720908	-1.9484514	-1.5510561	0.09867871	-0.56518674
ipod	-0.97959167	0.9617534	0.25128958	-0.85773957	0.51149637	-0.04924576	-0.33114493	1.8246427	0.21117565	0.26583102	0.59442645	0.31810233	0.54635215	0.121211715	-0.17619267	0.16181777	-0.5554714	0.20467901	-1.790808	1.3837391	-0.6931762	-1.9494742	0.5656163	-1.4313343	-1.0634639	0.16376194	1.5611783	-2.4468718	-0.39224544	1.1098433	0.1357221	0.2937907	1.3364108	1.1554133	1.9465139	1.4054542	0.2990465	-0.61829644	0.75459635	-0.5832884	-0.6691456	0.56965065	1.1994277	-0.6730703	-0.01572168	1.1362175	0.7916941	0.5721328	0.437274	-0.011918912
errand	0.63982654	-0.9179079	-0.6197121	-0.00707745	1.0844358	0.8353166	-1.4412367	-0.77976245	0.032515466	-1.3916999	0.53902733	-0.13268192	-1.0314171	1.3230021	0.36274108	-0.38914755	0.2877003	1.1574667	0.43300286	0.65066767	-0.68261063	2.5119038	1.1132201	-1.5441784	-1.1735604	-0.23885383	-0.19655557	0.3291463	0.8533144	0.24377896	-2.0764945	-0.39194277	-1.1124616	-0.62615293	0.47622338	0.46853557	-0.3647625	-1.0989147	-0.39729872	-1.3707544	-0.30247766	0.077265754	1.4107755	0.5234947	0.29006192	-0.2579513	-0.5833966	0.4148496	-0.32942566	-1.1839491
doctor	0.6402353	-0.4587619	-0.3172892	-0.4917087	0.54256517	0.031425454	-0.0071655884	0.61359906	0.5008343	-0.05887969	-0.635075	0.3019763	-0.6034256	1.763931	1.6761055	0.22334844	0.104594305	1.0209993	0.15374196	-0.082834214	0.31294852	-1.2225876	1.4703659	-0.20673299	2.0638301	2.0852487	0.36912546	-0.3518594	0.33306196	-0.37751025	-0.8921727	-0.8400999	2.1826525	-0.83183557	-1.0550449	2.002839	-1.3502711	0.029051738	-1.1076424	0.06968362	-1.5136037	1.2098987	-0.08536147	1.2625604	-1.1079279	-1.0679748	-0.39637387	0.8847909	0.08131346	-0.02479908
tattoo	0.097830996	2.4518564	0.85885984	0.4530706	0.8544805	0.5286173	0.55954635	0.19754072	1.6638211	0.0479066	-0.027161926	0.55380934	0.50540715	1.4937311	0.54035527	-0.016562806	-0.7345278	-0.67188346	0.6130947	0.7319639	-1.5503029	1.3282954	-1.8413944	2.3054495	0.71369594	2.130033	0.8642646	-0.13524514	-0.12763533	1.0365964	-0.19456497	-1.2856306	-0.21472283	0.09090737	0.09368681	-1.526277	-0.5685076	-0.6987919	-0.11279477	-1.6764807	0.99357283	-0.25463545	1.1078334	-0.19436231	1.8665061	-1.2907053	-1.2599957	-1.0133916	-0.06914314	-0.7494739
economy	0.42784196	-2.122016	1.1105728	-0.3792282	0.22388065	-0.8588141	-0.14372616	0.3125772	-1.0380747	0.67201746	-0.57576746	-0.45814845	0.6044187	-0.6841976	0.143005	0.9569954	0.43633938	-0.027419427	0.91434216	0.951291	-1.0385178	1.0487729	-0.2505883	0.60632306	-1.5896016	-1.1462986	0.5060213	-0.7945883	0.2420837	0.8949642	1.2187399	1.6512467	-0.78169554	-1.6335799	-0.9912058	0.57080716	0.34926254	-0.18780611	0.1340752	1.5453085	-0.03764364	-0.6971215	-0.5732465	-0.13855545	-1.3958181	0.5580718	1.4073076	-0.20888044	-0.5477794	1.0983589
mentoring	-0.29746684	-0.55752593	-0.7167992	-0.48749802	0.16615783	0.64011014	-0.065802015	0.7466543	-1.5164679	0.137987	-0.24753043	0.24227133	-0.18481906	-0.26339847	-2.10572	1.3215818	-0.3221589	-0.6133028	0.57531095	-1.234655	1.244046	1.3571423	-2.0465252	-1.7740513	-0.3804521	-1.4445236	-1.0327804	-0.86127186	-0.5736888	-0.7999417	0.3709089	0.37555572	0.92465097	1.5842658	0.28548574	0.03052974	0.31945023	-0.60684216	0.729441	0.99765	-0.95474505	-0.63682413	-0.72944266	-0.6194983	-0.13655192	0.30327848	0.21740846	0.35265267	-0.89035666	1.1006454
morphology	-1.0709012	0.7432003	-1.0479107	0.872443	-0.6986728	-1.0176265	0.51960343	-1.1869154	-0.985425	1.3128656	-0.30144644	-0.21971421	-1.3354894	0.53663224	-2.271638	0.51938784	-1.4240911	0.09908225	-1.1688607	0.22387569	0.5075187	-0.70421773	-1.1616341	0.13146007	-0.5076145	1.3973181	-0.63124174	-0.17104119	0.6635518	2.1611543	-0.0911372	-0.8663216	0.8194914	-0.72261536	0.6201713	-1.7032899	-1.5731624	-0.45867917	1.5038122	-1.7511499	2.497888	0.39823267	1.1480825	0.44419754	0.7694033	-1.115507	-0.5054975	-0.60269505	1.0630562	0.9756441
meningitis	1.4830852	1.3329451	-0.22085081	0.010567281	0.4908737	-1.4040345	-0.8142548	0.45375156	-0.39569786	0.9874759	0.8975158	-0.1793169	0.6912357	-1.0529032	-1.2721119	-0.848838	0.36674392	-0.9727989	0.31169155	0.2621135	0.7059807	-0.42832628	-1.6678085	-1.3158064	1.236822	1.3156762	0.21307509	-0.18098573	0.92186004	0.58025503	1.3402696	0.8671009	-0.7372901	0.11192548	-1.0981289	-1.3142657	1.4274154	-0.23890351	0.17731254	-0.1599915	2.2672434	0.42446882	0.04032742	1.164522	1.669704	2.7559104	-0.13897613	-1.3238176	1.0429991	-0.82615846
bike	0.6175959	0.60293704	1.1533978	0.7074414	-0.84014183	-0.7261036	1.673983	1.4661051	0.73884976	0.09201036	2.036571	-1.2132232	1.1067016	-0.13614388	1.3432661	0.9093564	0.71596926	1.2932473	-0.81855416	-1.0880308	1.0629427	-0.19348422	-2.615795	0.78661335	-0.18232496	0.30823636	0.46833846	-0.31372067	-1.2273664	1.1624964	1.8296938	1.7149037	0.60608476	-1.2502371	1.617188	-2.7300293	1.7078154	-1.144116	-0.17762527	1.095943	-1.265591	0.35880005	0.51387894	-0.9980187	-0.39733583	-1.3486532	-0.36124992	0.6712839	0.7111014	0.92
debit card	-1.2586213	-1.1268435	1.7034935	0.39354563	-1.1276025	-0.14941666	-0.7602832	1.3111074	-0.10425793	0.97518593	-0.15532574	-0.16139504	-0.77472013	0.46923786	-0.52339697	2.1646008	-1.9938331	0.369127	-0.12826127	-0.8067718	2.5292656	0.08008168	-0.17950471	-0.56073886	-0.04770871	-1.3146658	-0.22332576	0.16553482	-0.83963114	0.48558185	1.4303192	-0.362904	1.8497149	1.5577064	1.0836353	-0.30901772	0.08738074	-1.3161771	1.6807884	-0.74431354	0.20127282	-0.8220842	0.9926478	1.4916443	0.20930119	1.8550549	0.028692115	-0.9491376	0.9095304	0.28352574
domain name	-0.8596514	1.1982677	1.6858685	-1.0457091	-0.02150814	0.9200684	0.17710021	0.50201297	-0.52489996	0.36262578	0.048398264	1.0005578	-0.22770058	0.7726209	0.64252436	0.0075006355	-1.2624333	0.6350814	-0.43552077	-0.96326035	0.7072706	0.60581386	-2.1220968	0.6891406	-0.4191335	-0.5494623	-0.011291208	0.5049669	-1.4283962	-2.489408	1.5345206	0.5738367	1.4229628	1.5104195	-0.3994994	0.9439613	0.42993307	-0.41875556	1.1457645	-0.49756324	-0.49652052	0.81356084	-0.70174295	0.7084495	0.02580685	-0.7852678	1.4629891	0.18659933	0.94906926	0.36058483
madonna	-1.1949804	-0.52951914	-1.935149	-1.4723533	1.4563565	-0.15988721	-1.3731726	-1.2301248	0.048063815	1.7667513	-0.07213898	0.34831297	-0.39862275	1.5687088	0.3908844	-0.3859782	0.9598949	-0.46341676	0.028996153	-0.65520835	1.1054705	0.9825925	1.5500871	-0.30991596	1.219995	-1.8502223	0.32799238	0.04230868	0.45285472	0.20912735	0.9192384	-0.8226513	0.96883714	-2.1440675	-0.523485	-0.92757297	0.99800295	-1.0359149	-0.4023323	0.19243574	0.14162695	-0.69236326	-0.63521963	-0.4748814	1.9603447	0.5979681	-1.3920244	0.13574882	-0.8795425	0.96251863
quiz	0.64556044	-0.2632661	0.23994094	1.7424105	-0.511165	0.84934604	-0.22154628	0.23628786	1.1103024	-0.91957337	2.3407927	-0.19924438	-0.93471295	-0.31184083	0.46691543	-0.5750453	0.7867479	2.1795743	-0.76485413	1.7270596	0.26522714	0.64802605	-0.17960507	0.59656554	1.3636774	1.8263001	-0.3354632	-0.63984376	-0.41006416	-1.8021401	-1.4997993	0.101554245	-0.75160307	-0.50000846	1.7931176	-1.0392234	-1.1658033	1.2269089	0.061967902	-0.7674716	0.36842087	-1.5139061	0.08582081	0.037240595	0.82960206	-0.26782492	-0.9091075	-0.24888086	-1.4580728	-1.989521
motorola	-0.6622861	1.2537037	0.3761122	1.1449996	-0.8141472	-0.5112913	-0.16752312	1.211119	-1.3576955	-0.07923983	-0.53674644	0.028652778	0.49279347	-0.62541884	-1.8233788	1.1375158	0.62379134	0.23220138	0.80818474	-0.44571745	0.16451254	0.7143022	0.7499984	1.7538007	-0.0118022505	0.28013575	1.3402128	2.6844466	-1.9282101	1.0438993	0.95857173	0.41855666	-0.7432649	-0.8230479	-0.9350431	0.5496819	-0.74665296	0.8663375	0.592703	1.776219	-0.3294236	-2.0283692	-0.17657499	0.12170471	0.95258284	0.45720446	-1.5032833	-0.04592091	-0.6797856	-0.5481369
cambodia	-0.22890456	-0.8833223	0.044130385	-0.7642378	-0.70744145	1.077064	1.6778667	1.044014	-0.6429579	1.0208949	0.16560867	-0.33929217	0.8203094	-1.9837565	1.1871326	-1.1658627	-1.6344583	1.7868134	0.72712517	0.19062416	2.0772953	0.8444443	0.61632276	-1.7273269	0.88662547	-0.5013655	1.4650574	-0.3078204	0.7393137	-0.46616828	-1.5026237	1.4229156	-0.6052274	0.86027795	0.20978567	-0.24778374	0.33570695	-0.6450413	0.08492298	5.1684678e-05	-0.3140373	2.2554111	0.79295385	0.5596458	0.08137159	0.5564489	0.42713603	-2.2490554	-0.9666696	0.7977409
lipid	-0.35797235	1.2500442	-0.02936553	1.8211037	0.0682098	0.5521362	-1.7692168	0.37833616	-0.8148228	-0.31317168	0.9777387	-0.9723534	-1.8389648	-0.8263891	-0.14522405	-0.07882281	-0.7742384	0.5875017	0.038719743	0.65062356	0.52781814	-0.9116362	0.026416872	-1.1748528	-0.78769845	-1.1133494	-0.55896586	1.7847018	-0.09839517	-0.85301906	0.688285	-1.649032	1.3575655	-1.3277589	-0.71903396	-0.18026753	-0.90805614	-1.9752748	0.96219856	0.9928429	-1.4234812	-0.42376432	0.48243606	-0.53447706	-0.6310738	-1.0891211	-1.7855548	0.9913775	-0.59281373	-0.7435626
primer	0.67266303	-0.005476745	0.3746426	1.9522965	0.8833967	0.74621177	-0.9746033	-1.0188458	-1.6777315	0.5315852	0.163576	3.1358607	-0.14544646	-0.47996774	0.23860215	1.5257573	1.0900303	1.1836329	0.27753723	0.049038522	-1.3191243	-0.6491829	-0.01246172	-1.1910454	0.47085378	-0.55420107	-1.435585	1.9328806	-0.50628585	-0.47787806	-0.7308019	-1.0960453	-0.49461228	1.1656702	-0.2329336	-1.5915848	-0.9224765	0.5538552	0.6238257	1.3343551	-0.4033773	0.88619477	1.6150864	1.5850075	-1.1394073	0.30556637	-0.39908415	1.8108693	-0.8819685	1.3992926
fast food	-0.13819231	1.1447761	0.50473905	-0.211752	1.2042272	-1.113368	0.04717055	-0.18760999	-1.9897932	0.0101109985	1.2710042	-0.47175843	-0.25357944	2.0401607	0.67761225	0.18490553	-2.248058	1.1125078	-1.5046638	-0.7743802	-0.89445513	-1.3197011	-0.7301385	1.8992789	-1.1941407	-1.6398008	0.24129961	0.6712268	1.066737	0.48393446	0.8170883	-1.6826906	0.15031219	0.056480013	0.386389	-0.79827654	-0.3605277	-0.29242808	-1.2653998	-0.074573435	1.5738182	1.5056782	-1.6828643	-1.0626081	0.38828567	-0.8494895	-0.6027035	-0.30898306	0.30150902	-1.3706089
gift shop	-0.28585422	-0.8454493	-1.10695	1.0668025	1.7211108	-0.30698186	0.023960846	-0.893312	0.19442762	-0.17100893	1.2822127	-1.269692	-0.36367917	0.95656973	1.3925937	-0.52407885	0.7005461	-0.41417977	0.85970753	-1.0913441	-1.4927385	0.2964076	-0.4830999	-1.5251644	0.26926717	-1.0126692	0.26018134	1.6755158	-0.10194007	0.17744303	2.978963	1.4705971	0.95388895	-0.27723667	-1.2807459	0.09008182	0.26784903	0.5655252	-1.0251782	1.1777122	0.7946382	-0.8120541	-0.26340017	-0.859164	1.4918988	2.8801007	1.5693727	0.75226086	-0.41752863	0.9724306
youth	-0.89645284	1.2549677	0.8403277	0.28886655	0.8924646	-0.47727078	0.47165123	0.39182654	0.029433068	-1.0576944	-0.20365311	1.5096474	-1.6650825	0.54189855	0.12390063	0.30464423	-1.0468613	-1.105159	1.1642847	-1.3762797	-1.0180882	0.65433806	-0.18083933	-0.3714586	-1.0523546	0.17343354	-1.7503798	0.86449283	0.035062764	-1.0487654	2.2332997	0.2687304	-0.78294986	-0.08191982	1.035711	-0.4445531	-1.1892645	1.0896987	-0.17586981	-0.48432434	-0.7001716	-1.2915857	-0.8229075	0.18878414	0.444016	-0.018174663	-0.32349175	-0.58245075	-1.3598132	1.3732818
library	0.5989351	-0.9942974	0.031875923	0.61446667	0.6838112	0.99395216	-0.8654062	-0.5486362	-1.4781703	0.06579247	-0.2924196	0.72224015	-1.9679217	1.4884801	1.3300005	1.9758744	-0.8161382	-0.16919813	0.8979258	-1.417567	-1.2244289	0.5722362	0.4544526	1.4384587	0.8058884	-0.68209434	-0.7875457	0.090111524	0.66140294	-0.26550364	-0.6218708	0.10521791	-1.6425683	0.13131157	-1.7474619	0.23829171	1.6282115	1.2547851	0.8954859	0.22981296	-0.9953824	-0.4869748	-0.62060946	0.3896974	0.80091316	-0.50165236	-0.28115237	0.78460085	0.46482643	0.84759957
tender	-2.5119534	-0.3846112	1.4718304	-1.4472611	-1.4640875	0.3447711	-0.62809247	-1.284684	-0.19068803	-1.53498	0.1822089	0.40317765	-0.96677625	0.7165033	0.17973359	-0.07554482	0.50925916	1.4229338	0.51599145	-1.3919269	0.08441436	-0.34809932	-2.2168202	-1.0261216	1.2197737	0.18064463	-1.9500163	-0.5284824	0.025979934	0.6365107	0.7238679	-2.3677664	-0.47399607	-0.12002687	1.8317777	-0.4778273	0.58654463	0.043602295	-1.1374195	-1.0079201	1.4676658	-0.40393582	-0.05945782	-1.5355809	0.33141196	-0.3974815	-1.1655109	-0.680055	-0.22677535	0.23049359
social science	0.5476533	-1.5653604	2.1113439	-0.58128244	-1.2352498	1.2897975	0.5521512	0.6553756	1.6000757	0.33907786	1.1282003	-0.5731097	0.44372833	0.287328	0.048512787	0.38277122	1.107601	-0.15328914	1.115797	0.61934924	-1.2795544	1.4443064	0.9442272	0.8514672	-1.2192774	-0.76439464	-2.3664138	1.7799172	-0.063369706	-0.39155814	-0.23273872	-0.24850555	2.6954572	-0.7744422	0.9158179	1.659408	-1.9464238	-1.7318016	-0.3908175	-1.0974913	-2.0350785	0.47107866	0.46750337	0.008490885	-0.014658203	0.062186465	1.2589186	-1.9830558	-2.2249095	2.9597573
tray	-0.24320592	0.98572284	0.8144316	0.6931562	0.20634481	1.7062125	0.17650475	0.88305813	-0.26544058	0.17505051	0.107677735	-1.01585	0.21480589	-1.8727225	-2.2992246	0.07835327	0.63366324	-1.0806446	-1.2851678	0.24220727	-0.47596505	0.5467755	-1.8443396	-0.94991153	0.5413318	-0.9125167	1.0909882	2.7311687	0.6337181	-0.26036835	0.48606086	0.23879617	-0.16009024	1.1047689	-1.1383821	-0.11767054	2.2931778	-1.2533897	0.04956848	0.22029245	0.45902017	-0.2171495	-0.24849598	3.0781543	-1.4278034	-0.22758177	-0.976764	0.7199029	-0.05726342	-0.7076635
screen printing	0.63769823	0.6422811	1.6729825	-1.5448637	2.3394902	0.9541042	-0.27736667	-0.91398036	-2.032963	-0.3913692	0.27781525	1.1868126	-1.0054493	0.60946053	-0.6500275	-0.22411928	0.8734417	-0.8148986	1.9465845	0.7277351	-2.4751947	0.39411262	-0.023383055	-0.55398995	2.7623358	-0.080004655	1.2981119	0.050741717	-0.8761594	-0.25969017	-0.6181487	1.1153343	-1.2953074	1.3877724	0.9694182	-1.4911557	0.7758554	-1.2171366	0.15680544	-0.15705545	0.83077013	-1.4734621	0.5498041	-0.05516506	-0.32690135	0.34258243	0.384365	0.048229992	-0.7987345	-0.9922056
india	1.6622462	0.07584024	0.34176674	-0.22403052	-1.6633648	-0.24970526	-0.14512083	-0.9505587	0.43525767	-0.6637845	-2.114187	0.49621135	0.04712256	0.14409123	0.74719316	-0.4656087	0.075852826	-1.0106866	-2.0682833	2.3496108	1.1228156	0.17458951	0.08126937	-0.24126972	0.15130632	-0.83825994	-0.4805749	-0.9436745	-0.8504706	-0.13616191	-1.5933444	-0.78818434	1.1167115	0.9158892	0.95918685	-0.115809135	1.0107135	0.34785113	0.5928733	-0.65809935	-0.6465718	0.94061583	-2.0625968	0.099173754	0.80999553	-1.1911352	0.48605868	-0.88944125	-0.9212028	1.5889521
external hard drive	1.3381113	1.4488783	-1.0522995	2.318172	0.1936534	0.684068	-0.17987776	0.55989194	0.47653744	0.5352837	-0.62817156	0.57344747	1.1495285	1.1023127	1.481273	-0.18257418	0.7397566	-1.0765344	-0.8673512	-0.9640881	0.3668006	0.09607591	-0.7469724	-0.7699992	-1.5526361	0.5694405	0.24742499	1.9678719	-1.2750483	-0.7372324	-0.56833535	-0.60383224	0.29560173	0.5868513	0.12019743	-0.29076916	0.9413949	-1.5505898	-3.4424722	0.042851508	0.95569146	-0.42706385	-0.352018	-0.3666779	1.4414755	2.058208	-0.9637932	-1.3807095	0.629108	-2.1012027
alignment	-0.2295472	0.34766617	0.703834	1.0880266	1.0386518	-0.8200907	0.76524556	0.46622688	0.31819648	-1.1135539	0.33274892	0.28964436	-0.21946064	1.4463471	0.44475898	0.30448395	-0.46572378	-0.61963326	0.9823786	1.1041977	-1.291002	0.82765687	0.39305437	-0.46113238	-0.44703096	-0.2942236	1.1335149	1.6732994	-0.65368664	0.76186454	-0.44847324	0.2612869	1.6125071	-0.81802475	0.32004756	2.5789943	-0.93185323	-0.16664155	-0.69815964	1.3504689	-0.7744166	-1.4780109	0.6052822	-0.6243388	-1.1045665	1.011748	-0.36071622	0.6175673	-0.47803378	0.34936854
internship	-1.2128859	-0.08794326	-2.8249977	-0.25137535	0.63612646	-0.11456532	-1.5022837	-0.41687715	0.36705753	1.2557029	1.6036531	0.4437154	1.0699389	0.08730178	-2.5073707	0.4286319	-0.7674217	-1.0774071	-0.25908518	0.0115730185	0.483395	-1.5981294	-0.29295444	0.899583	-0.5455791	1.167443	0.12355273	0.011856355	0.58888745	1.0368576	1.672763	-1.7830993	2.2125132	0.086514674	0.98853433	2.1437368	-0.68702954	-0.49378145	0.95554435	0.5640204	-0.5136819	-0.08454404	1.6624734	-0.59272933	2.5116189	0.13921532	1.4762567	-2.2226887	0.72986937	0.34875175
cargill	-1.5253861	0.70578414	0.64762014	0.960673	-0.2318723	-1.5624413	-0.5850136	0.27509907	-0.47350222	0.35188413	-2.1156063	0.15487552	-0.53325135	-0.7529708	1.4506657	-0.7016957	0.103713736	0.3878617	-0.036507215	-0.7450064	0.26652548	0.41304466	-1.6730394	0.8087915	0.28791842	-0.06194132	0.21564592	0.13023636	-0.34988233	-0.103238165	1.0147707	0.6306255	-0.7778466	1.743772	1.3163099	-0.0013541523	0.81053203	0.58100635	0.4146171	-0.5533391	1.7626948	0.59487885	0.29140708	-0.03836693	0.44518694	1.1077939	0.99346447	-1.5055257	1.3561288	0.7372351
cologne	-0.2069599	-0.45450377	1.4264282	0.24443316	-0.28512692	1.1183237	-0.36695525	0.72045565	1.012758	0.78026265	-0.14774126	-0.7406874	-1.1968858	0.2138356	-1.038367	-1.9788218	-1.3035799	1.1548721	-0.12826103	2.0729322	1.7513205	-0.20552874	1.9120386	0.7569889	0.9214534	0.62729913	0.07337615	0.11301478	-0.2120659	-0.53836435	-0.6627971	0.98991007	2.2774765	-0.39349413	1.0854543	1.8449551	-1.7953863	0.48073384	-0.50000715	0.28405747	0.9736051	0.7866127	-0.28737888	-0.06607437	0.65406406	-1.5598768	0.71293324	-0.096199095	-1.4683217	0.4052996
collection	-0.47716	-0.22383396	-0.698654	0.62393373	1.0690289	-0.8458521	-1.0845096	-0.29178578	1.9364303	-0.771129	-0.99868727	-0.12502977	0.20210573	-0.7707483	-0.5874592	1.5248475	0.86848885	-0.19721532	0.5054987	1.5550017	0.6670432	0.85545784	0.7236138	0.6927291	-0.70844895	0.5686097	0.51058125	0.79091907	1.1087081	-1.5056404	-2.0347676	0.61311305	-0.4873152	1.8820918	-1.3356942	0.700234	0.93956757	-0.28987974	1.0611044	-1.8437175	1.1179533	1.1706606	-0.44370493	-1.6052291	-0.34244576	0.32365796	0.34907869	-0.5704301	0.67714524	-0.25148004
cellular	-0.35848382	0.47616705	0.8188289	-1.9473491	-0.7142298	0.09022942	-1.6580032	-0.23144044	-0.67826444	0.71909577	-0.010347465	-0.15970257	1.3709459	0.42979768	0.9217382	-0.4269627	1.585277	2.0405722	0.051468015	-0.12069193	-0.8378798	0.7341666	-0.055537798	-0.2647263	-1.0072476	0.07163419	-0.37394264	-0.9608456	0.0661117	-0.023302143	0.2746096	-0.7366333	-0.8257728	-0.96479416	-0.07108016	1.2450242	-1.85545	0.8540099	1.9117396	2.6762116	-2.0386658	0.592492	0.34352273	-0.35383365	-0.79366547	-1.1083285	0.52567565	-0.9873433	-2.998279	-0.2702181
electrocardiogram	-1.5299946	-0.13815343	-0.14299038	-1.666315	0.15897721	0.82342905	1.0338557	0.113726154	1.124804	0.38193527	0.37478015	-0.5283498	-1.4549236	-0.52460986	-1.5785885	-0.9756354	-1.0255268	-0.43541387	1.0794635	0.66142166	1.2689283	0.20469296	-0.112845324	-0.89643884	0.052308172	1.1665658	-1.8751086	0.14683916	2.4087648	0.096650906	-0.05775591	-0.09374936	-0.566393	-0.7256438	1.2707093	-0.1105435	-0.8715927	-0.2338975	1.8469272	1.9419298	-2.0037074	-2.0532413	0.74596655	1.4806002	-0.27386123	-0.7297327	-0.71659	-0.36403054	-0.42471474	-0.27116787
contractor	-0.032212786	-1.3480344	1.3717153	0.58593833	-0.246371	0.14250967	1.8972257	1.8556637	0.49979585	0.07812998	0.23010717	-0.6174766	-0.13584837	-0.21391952	-0.22467664	-0.8625409	1.1800932	-0.48381513	0.7680065	-0.031571668	-1.0900791	-1.0294971	-1.3665588	0.49621916	-0.18055151	-0.033308066	-1.1264136	-1.3624122	1.9659998	-0.21296743	-1.1458149	0.09683871	0.09236069	-1.3505965	1.4920812	1.2216529	-0.26374263	-0.18717834	-1.441232	1.2568555	-0.6430959	-0.592269	0.28378475	-1.2530833	1.0893879	1.9225715	0.6096755	-0.3758406	-0.30118337	-0.6218358
forecasting	-1.6745297	0.96276575	-0.07285013	-0.20525068	-0.14682162	-1.7415512	-0.46354997	-1.1748046	1.0644861	0.26085693	0.49534136	-0.36536634	-0.8387176	0.35970077	2.259987	-0.09941309	-0.47355607	-1.3732084	-1.5613842	0.3585206	-1.0216379	0.70067424	-0.3263757	-0.023632271	1.2454171	0.7611131	-0.5681512	-0.5648945	0.7898951	-0.42074454	1.949589	0.33135697	-0.1577425	1.0964816	-0.9615482	-1.0860542	-0.49311498	0.39218125	-0.37784407	-1.1432307	-0.86730736	0.19921483	-0.6457579	-0.001023883	-1.4428672	1.0504947	-0.69940186	-0.28453943	0.29770997	-2.73437
light color	1.1634061	-0.9689891	0.5630084	-1.3216506	0.11824128	-0.6828457	0.6411018	0.6432202	-0.39981598	0.4260812	0.23403376	1.0313118	-0.8759146	1.5459669	0.1787509	0.8889831	2.7211828	-0.06550406	0.29356036	0.11096501	0.6871892	0.17145035	1.6407193	-0.46028206	-0.36843982	-0.64142835	-1.5952134	-0.318509	0.21057549	-1.7315183	-1.2780784	2.0360014	1.1395139	-1.0020523	-0.7081542	0.5686711	-0.21645677	-1.9300292	-0.38335434	0.7097511	0.971421	1.6152984	0.053583466	0.369678	-0.21968034	-2.1777291	0.7352735	-1.6967038	-0.21882299	-0.11676711
limitation	-1.6372756	-0.24685366	0.33559656	0.48725906	0.27907357	1.3353139	0.92215294	-0.60455626	0.4707364	-0.6640128	-0.19982435	0.42943165	1.2244793	-0.64717	1.3898884	-0.45382166	-0.7609457	0.6578815	1.730118	-0.76416403	0.019562643	0.5011535	0.28062654	-0.1424677	0.42861247	1.2554966	-1.9084643	-0.40693054	-2.4727383	-0.7110201	0.24856772	-0.2817282	0.81647325	0.89443547	2.3533893	-2.1284325	0.6330324	0.43008348	0.10326025	0.38126943	1.1463124	-1.0369176	0.14458743	-0.32854143	0.7356877	-0.4837512	-0.51082164	-1.0138515	-0.03306087	-0.12093205
learning	0.022952307	-0.032273583	-1.3448812	-0.63017946	-0.87871164	-1.2292502	-1.1116996	0.0965715	-0.06239403	1.0895452	-0.81453365	0.07832419	1.206828	-0.29334393	0.9029168	0.654876	-0.65670687	-0.13465722	0.7657635	0.18105815	-0.48713657	-0.83081913	0.08420807	0.28020632	-0.080761395	-2.2196085	0.8708615	0.6664862	0.12697332	-1.544749	-0.8942365	1.5816029	1.1807168	-0.79918766	-0.541036	-0.80518633	0.8813227	1.2534575	0.116042025	0.9486914	0.18569985	-1.9295713	-0.7896705	1.4505056	-1.3262107	-0.17742921	-0.6808526	1.2376924	-1.2654428	1.2964777
capacity building	2.2417665	1.6316772	2.0900617	0.41121083	-1.7639034	-1.0216185	-1.12029	0.21344794	0.676409	-0.06604851	0.51365507	-0.09618377	0.36345643	0.1366741	1.2359116	1.5651524	0.029059071	0.87494916	1.0652401	-1.1877394	0.27246153	-0.5650776	-1.9047807	0.47066686	0.30037934	0.52490145	0.030005759	-0.005326057	-1.7398403	-0.899842	1.1451306	0.35678816	-0.7904598	0.011593077	-0.30435503	1.3813221	-0.47018024	-0.13649392	0.57997787	0.54900616	0.81732863	-1.3068719	0.38021356	0.28459913	-0.085408606	0.46266896	0.1316741	-1.3034549	0.7861444	-0.49054697
charter	-1.2225481	1.1128432	0.18685	-0.08396748	0.58324903	-0.5471286	-1.4156668	2.020041	0.7589455	-2.2554185	0.26667273	-1.9078308	-2.8034317	-1.3372756	0.1937646	-0.97066313	0.4117117	-0.0049914196	0.5284127	1.2254251	-0.7012228	-1.0496935	0.58991665	0.6117199	-1.5838172	-0.08304724	-0.7534616	-0.85135067	0.34597537	0.9407046	0.35075805	0.9013629	-0.5913603	-1.4514953	-1.0810428	-0.85719514	-0.55438733	1.1483116	0.4773469	0.08596134	-0.6884307	1.545393	0.4366557	0.70880926	0.1388371	0.11715671	-0.48752788	-0.25150967	1.0528318	2.4974167
processing technique	0.6797716	-0.7975534	0.4463882	-0.36199793	-1.6464868	-1.4726374	-0.13198268	0.9024747	0.6953405	-0.2044318	-1.2122722	-0.4387277	-0.3148428	-0.15436764	-0.6636803	1.992363	-1.041239	1.4784955	0.5203924	0.036796212	0.08449103	-1.4237405	0.9734915	-0.66218686	-1.395992	-0.49982965	-1.1175507	0.7921404	-0.12737918	-2.0401511	-0.4877821	0.2177949	-1.6336261	-0.02737869	-0.59818715	-0.40268335	-0.9201512	-0.6840038	-0.55763966	0.8671246	0.039260536	-0.040253095	0.85687995	0.23347428	-1.2095075	1.0377556	0.9496071	-1.353963	0.9766045	0.36930463
suspension	-1.0155846	-1.2865771	-2.3893027	-0.67928493	0.21286254	-0.22681837	-0.7745897	0.31957334	0.69128704	-1.329535	0.63132834	0.47111422	0.42048284	-1.001206	2.3433228	-0.6777901	-0.7046851	-0.4984951	-0.80571383	0.08729473	0.24787955	2.5635002	1.2226137	-1.0119944	-0.55811536	-0.3549438	-0.5457596	-0.33570287	-1.5158832	-2.1651866	0.7126024	-0.4903315	-0.30004224	1.465329	-0.42379084	-0.41433805	-1.4430954	0.4268858	1.8745828	0.13627331	-0.3662769	-1.0280192	1.0898827	-1.8116153	-0.13955043	0.0014125481	-0.0808051	0.3255949	-0.100667916	1.3176585
penguin	-0.38844666	-0.6323435	0.7006001	-0.81621116	0.5225129	0.7715024	-0.22186238	-0.88862574	1.6910857	-0.5557142	-0.27205592	0.8803074	-3.3227782	-0.7904105	1.2695556	-1.8423485	1.2775034	0.64199185	0.52363026	0.74249953	0.32873315	0.18713413	1.1937596	0.29897475	-0.9538166	0.17234686	-0.40880615	-1.1649196	-0.6062597	-0.09539341	-0.74395066	-0.96451217	-0.44910473	1.290668	2.2457917	0.39208123	-0.65326524	0.06386168	1.8344889	0.7540469	-1.8321029	-1.1384393	-0.27522555	-0.42733288	1.4270147	-1.4964294	-0.6598131	0.29088813	1.2003098	0.2947675
cash flow	-1.1132265	0.4330712	-0.90206534	0.5747669	-0.34716013	-0.93603927	0.6675396	-0.61778903	0.20565882	1.0777091	0.006598795	0.45957056	-0.6319472	0.6448462	-0.97404397	2.2476947	-0.94810843	-1.2637321	1.7962554	0.28032702	-2.0205262	0.7841066	-0.71171176	-0.48399755	-1.3953304	-0.59585875	-0.703446	1.154936	0.2536676	0.1745071	0.031247707	-1.2845011	-0.612776	0.88389885	0.42078257	1.285027	0.8680412	-1.1470194	-1.2478387	0.824458	0.7131417	0.29519013	-3.510217	1.1745627	0.7941116	-2.312574	0.62583286	0.40590537	0.9762393	-2.8054883
ikea	-0.88389444	-1.5390646	1.1716957	0.5176475	0.813926	0.73221564	-0.49590057	1.1497985	1.890386	0.78525645	-0.48793668	-0.44128728	0.21448234	-1.0656455	-1.5507004	-0.5034683	0.32762906	-0.18649408	-0.109389305	1.41639	2.675188	0.06310341	-0.1418672	-0.9817209	-0.0037793908	0.15468803	0.28808293	0.05472754	0.14442511	0.09754786	-0.1298423	2.0327613	0.9387115	0.6369563	0.22070672	0.36885846	1.0689274	-0.4639401	1.1894494	-0.5584228	0.8807862	-1.2533588	0.2223278	0.35000855	0.6249562	-1.5667007	-0.60626096	0.012980249	0.04963982	1.2393094
driver s license	0.38985926	-0.41676313	-0.8913633	1.1073842	0.3044097	1.3655112	0.7186089	0.94666666	-0.42968023	-0.8486508	0.24960715	-1.1268622	0.3811938	0.39926764	-1.9338483	1.1031529	0.15147306	0.8992712	1.2257354	-1.9172721	0.862871	1.359858	-2.4375014	-0.4504934	1.1377906	0.8644277	0.96751255	-0.28618082	2.6614156	0.32393163	0.70175815	1.4469215	0.14607978	1.4787906	0.16617738	0.12564757	-0.32326365	-0.5228059	0.17123213	0.81679237	-0.9625965	0.5294251	1.3455049	0.7450958	0.19906631	-0.3852902	0.6175227	-0.9118775	-0.6031207	0.53703004
circulation	0.11026709	1.0296271	-1.4909148	-0.349294	-1.8814389	1.4931532	-0.59343505	-2.1252332	-0.7099147	-0.9555994	-0.7233492	0.2041252	-0.43766305	-0.81694824	0.4318589	-0.9177247	0.8039606	-0.6630434	1.7471892	-0.2905753	1.6253251	-1.0449044	0.09700928	1.2372001	0.12640116	-1.9498813	1.6277022	-1.9912271	-0.3380311	0.061057754	-0.92017806	-0.3551095	-0.7776544	-0.9077549	-0.034101166	-1.3095826	-0.4478812	-0.13309458	1.6272421	-1.0789268	-0.41538894	-0.53009444	0.5658526	1.0772729	1.5749238	-0.6934314	-0.3587723	-1.3606954	-0.36345592	-0.61473346
juniper	-1.1530002	0.6485072	1.3974572	-0.41454202	-1.8224205	-1.2474599	-0.11405816	0.14283042	-2.4586234	0.98334026	-1.0312135	-0.719222	-0.14486866	0.32133618	0.21808435	-1.1761796	0.28960493	-0.9912249	-0.24588288	-1.1726799	-0.3081302	-1.6105607	0.10424065	0.18001753	-1.0745429	-0.97710925	-0.9964999	1.6199111	-0.38483438	2.0353913	0.1584878	-0.15556674	0.44952643	-1.6658156	0.59428006	0.6328302	0.6745232	0.0026342813	-0.47782215	1.6572043	-0.5317352	1.1916717	-1.218392	0.6407831	1.0797006	-1.6179184	0.30475774	1.8398355	0.9458204	-1.6211143
geranium	-0.62250495	0.5499501	1.9609481	-0.4320287	0.2665048	0.24517529	0.6106619	-1.0672812	-0.98015237	-1.4080034	-1.7658443	-2.3616724	1.6450049	1.5677947	-0.96660995	0.46474135	-0.9975697	-0.45715055	-0.6256402	-0.95821303	-0.8494931	-0.25757557	0.7372967	0.72535664	-0.8123044	-0.22200897	0.10653459	-0.7796618	0.69630283	0.6091455	-0.385401	-1.3389618	-1.1446601	-0.48336005	0.037898958	0.08185875	-0.33958122	-0.45697147	0.21108267	0.1864615	-1.2472844	0.064322926	-0.56221986	-2.5012004	-0.9120266	-0.88442665	-1.1580281	1.0869977	1.8555709	0.4702005
plumbing	-0.6573795	-0.52777106	0.7221814	-0.18606046	-0.2447804	-0.9119941	-0.50085485	1.3514185	1.0151262	0.90557134	-0.6102481	-0.66759306	-0.75043213	-2.562612	1.1531887	0.89825857	-0.5165557	0.6976201	-0.83295095	-0.3419528	-0.5406977	0.76557744	-0.7190929	1.3829478	2.030909	1.0792589	-0.39176053	-1.0283746	-0.22267815	-1.047658	-1.0682662	0.29716203	0.9819172	-0.11723272	1.8676124	0.54160416	0.4017103	-0.30784887	-0.14014141	0.7727893	0.7603132	0.36003268	-0.761067	1.9139459	0.2639643	0.14483346	0.99481267	-0.41549167	0.095638186	-0.6734509
social worker	0.4461402	-0.7456305	1.1165731	1.0543189	-0.7087405	-1.45174	1.3089226	0.16615741	0.88988006	0.7702422	0.9930608	-0.6842821	0.9495281	-0.9551786	-2.3613584	0.9854083	-1.0732727	-0.50209296	-1.0835994	-0.6868126	-0.55505705	-0.34218758	-0.6009631	0.4581559	1.0968032	0.25172535	1.4294503	-1.1982408	-0.7978231	-1.3783996	-0.41234076	-0.71971893	-0.8297201	1.144656	-0.54906976	1.644559	-0.859331	-0.37474483	0.44066328	-0.96590245	0.32824934	-1.0563992	1.8156029	-0.45081878	-0.3747079	1.5689611	-1.2956247	-1.0588181	1.9770315	-0.92245036
user group	0.4472821	-0.9132649	0.9273613	-1.488142	-0.90117276	-1.3438823	-1.6380789	0.82951236	-0.20904224	0.15686323	0.63942003	-0.8535358	-0.9604827	-0.3877792	1.7028041	0.91432303	0.2870598	-0.34540647	-0.2155088	-0.66937137	0.42693704	-0.3764895	-0.084599935	0.40719563	0.16069718	-1.7391644	0.22724487	-0.534397	0.7826129	-1.3591169	0.83873725	0.41596898	-1.7124009	0.832646	0.23080009	1.1872414	0.5213486	1.8601692	0.29235858	0.031438574	0.93628603	1.7200966	-1.716269	0.9338717	0.5665108	0.3339049	1.0685325	0.026126659	1.3036588	1.1550274
chipboard	0.18825676	-0.31805944	-0.30192176	-0.321529	-2.2994413	1.1285408	0.46774384	-0.14605528	0.7252475	0.60690427	-0.22277085	1.1717134	0.36127177	0.4976019	-0.65816814	-0.86512405	0.3572829	0.30195287	1.1171483	-1.237077	-0.9473505	-0.046533093	1.5257962	-0.38900176	1.8876084	1.5927423	-0.091605835	0.051073357	-0.76785046	-1.2093296	0.2721673	0.15705742	-0.258059	0.30061984	0.26835135	-0.7680413	0.9354605	-1.3487961	0.6742001	-0.97221416	-0.27730897	1.7085586	1.705047	0.5393937	0.61634046	0.29062662	0.8842136	-0.81612295	-0.08172698	-0.11889159
detergent	1.4811519	0.92552716	0.25082597	1.194587	-0.70965564	-1.5909933	-0.41804224	-0.97209316	-1.2888412	-0.9765933	0.56768703	-1.9129412	-1.1461104	-1.8753613	-1.6251549	-1.2336667	-1.6734343	-0.62348527	0.08586827	1.1100352	-1.7420049	-1.062099	0.358291	-0.9120061	0.6650289	-0.88836163	-0.5172526	1.1019152	-0.16232091	0.17687342	-0.3030733	1.0299671	-0.33229452	-0.5833336	-0.98417985	-0.1106634	1.1610425	1.5341705	-0.117480025	-0.6335798	-0.2532339	0.85542315	-0.27146026	-1.005293	-0.71046036	1.0131962	-0.0897204	1.7098588	-0.087728545	-1.3188424
creative	0.32452103	2.3856137	-1.5172306	0.68669796	0.35803998	-0.03147489	0.14919086	0.91035163	0.6165861	-0.012708541	1.0132685	-1.147698	0.52901304	0.13919216	-2.7487009	0.1262961	0.69563824	-0.54726034	0.25421512	1.7364715	1.2943422	-2.1711707	-0.16811739	0.24137901	0.5233439	-0.6924087	0.3802752	-0.106766425	-1.1466998	1.9789284	1.2899654	-0.45957994	-1.7874358	0.61780053	-0.65840924	0.67818385	-0.48335063	2.6347606	-1.4358865	-1.5951098	1.1368339	-0.29528362	1.0503736	-0.1226621	-0.6124141	1.998255	0.34507912	-1.361246	1.0101976	-0.20201345
mineral	0.2668535	-1.9460953	-0.6025107	-0.22951001	0.8489183	-0.7338671	0.123667136	0.6765739	0.72655004	-0.48536316	0.45561796	0.6104284	-0.02541527	-1.1398273	0.3500529	-0.73558515	0.50863594	-0.01098373	-0.87788266	-0.58558553	-0.0010636449	-1.0906601	0.28315604	-2.8596046	-0.78255653	0.33521327	-0.92614746	-0.5136852	-1.4088281	1.3468252	0.1995681	-1.449252	-2.3733723	-0.086859554	-1.424634	-1.3611042	0.92903066	0.32538304	-1.989137	-0.9981473	0.6559545	-1.7523026	-0.98389864	-0.8112893	-0.66035795	-0.5416997	-0.35613373	0.2502421	1.4598801	0.5782617
epilepsy	0.56366867	-1.7908823	-1.0617703	2.0638175	-1.4569671	0.44916865	-0.32941148	0.14716883	0.56972754	0.017634641	1.0052118	0.12224649	-1.1841918	1.0377442	0.48604402	-0.89105713	-0.49042904	-0.68562216	0.31838125	0.25114176	0.50334716	1.6034768	-0.49337667	1.0387367	0.53405845	-0.8058233	1.0991193	1.8431193	0.20245716	1.9476528	0.4312264	-1.0810695	-0.3885038	0.64236915	-0.5765796	0.6263164	0.43625277	0.88408595	1.5954022	1.1130539	0.62915295	-0.5405372	-0.7345804	-0.7599404	-0.46282148	0.2329326	0.0979239	0.17554574	1.2399036	0.51084286
school building	-0.5252384	-1.3725132	0.12394728	0.58900946	-1.2974116	0.48127297	0.69804275	-1.6662639	-2.2303538	0.43998715	-0.82162887	1.3252989	-1.7943864	0.3013515	0.33479083	0.5617929	-0.6025523	0.88174534	-0.53496283	-0.057892717	-1.1185118	0.3908243	0.47020698	1.0299685	-1.2118181	0.5006646	0.8429968	-0.91950697	-0.19116005	-0.52317137	-0.03403318	0.09949088	0.050801203	-0.09810571	0.6864076	-1.6603838	1.5756211	0.33359113	0.8192291	0.7026555	-0.57610697	-0.459572	-0.5257663	0.91691494	1.8015858	1.0062097	-1.4055253	-1.9175252	0.11005752	0.9234064
personal datum	0.109693944	0.7745176	0.5559796	-0.29743636	0.2819743	-1.6632818	-0.031582963	-0.037548613	1.3989986	-0.21335518	-0.3278047	0.36247557	-1.0909199	0.45217723	0.2915501	0.6722619	0.033556785	2.2252326	1.0617845	-0.17713717	-0.52318436	1.7150004	-0.9179513	-3.0719228	-0.15445068	1.2183994	0.32434967	0.2843491	-0.6168857	1.0733742	-0.32031402	0.24837637	-0.1519793	1.21921	0.45827788	-0.07889748	-0.21126068	1.5550679	0.39888793	0.70498925	-1.5079838	0.33112955	0.77035815	-0.78918713	-0.19750595	0.54112893	-2.0342321	-1.7050735	0.090546	-0.12190357
sum	0.45036542	-1.229659	0.7877304	-1.49844	-0.024450501	-0.8879373	0.5142435	-0.2752199	-0.28789344	1.1922222	-0.63168406	-0.35957873	-0.43211824	0.7229454	2.9500742	0.37330163	1.1278813	-0.5291453	0.36152142	0.10285338	0.5469802	-0.3653745	-1.4934014	0.030612389	-0.0061076675	-0.1456644	2.264386	-0.58045805	-0.8066824	2.2637787	0.46927115	-1.0148582	0.42744735	-1.7798344	-0.22345284	-1.5908167	-0.46977833	0.14081748	-0.073205955	0.8977653	0.7178527	-0.62251544	2.178799	-0.6818329	-0.76956695	1.3326726	-1.494307	0.29695672	1.396209	1.4442484
alkyl group	0.4066325	0.5405897	-1.2983862	-0.46445486	-0.07598858	1.3704448	1.1483686	-0.4602689	0.525721	1.673698	-2.559662	-0.21882187	1.736911	0.17325953	-1.346496	-2.0764923	-2.381955	-0.4001416	-0.60969186	-1.7832572	-0.7024576	0.48014584	-0.40335438	-0.42989466	-0.6631283	-1.3327621	-0.9830064	-0.08828002	0.8623369	0.18565042	1.2311231	-0.6159045	0.4216901	-0.2964618	0.2954152	-0.4006807	0.5673122	0.98876715	-0.50434846	-0.30685416	1.2970788	0.083462454	1.7748685	-0.6569745	1.5975142	-0.75070083	-0.23861003	0.033420518	0.1897409	0.058207855
interview	-0.14863552	1.5639713	1.9915185	0.9700199	1.806849	0.052106284	-2.0440402	0.034685902	-0.38243112	-1.2860332	0.19224037	1.3253452	-0.76161623	1.0446349	0.42402726	-0.5195767	0.20960017	0.5274318	0.7776196	-1.2842149	-0.32209647	0.5640851	-0.320646	0.6069747	-0.5238988	-0.7492014	0.10972672	0.28242925	-0.9179395	0.53717095	-0.56988	-1.0991498	0.77715504	-0.1112754	-0.46106073	-1.3938313	-0.78119665	-1.1528481	0.17058755	1.3771678	0.95220566	0.88715833	1.3192168	0.8856728	0.46666557	2.7087226	-0.3628201	-0.3984262	-2.9260006	0.27819082
debt	1.3411378	0.80839723	1.0673077	-0.6624767	0.6694138	0.20958097	0.80300903	0.51228267	1.9971366	0.043031685	0.5657419	0.53593576	0.3432026	-1.1159502	0.12625284	1.4614464	1.6825254	1.6842635	-0.45140684	-0.799011	0.8048612	1.0879853	0.41931707	-1.3633316	0.49725142	-0.37650284	-0.945948	-0.6264008	0.3797439	0.2869265	-0.38113385	-1.0877326	0.64846104	-0.5892317	-1.0147506	-1.7136517	-0.34179667	-1.1668582	1.4597265	-1.1258402	0.0019445028	0.26105705	0.13925053	-0.47365442	-0.607497	1.9911387	0.4237709	-0.3260504	0.2251128	1.8657888
mtv	0.48094746	0.6092417	2.696599	1.6411248	-1.0499713	-0.42969456	0.5490155	-0.70312077	2.6967158	1.8038896	0.16921502	0.86052483	1.2627317	0.5933295	1.9643633	1.780406	-0.67913175	-0.7465144	-0.2456089	0.14215204	-1.3827652	1.2715923	-0.5748688	0.19829442	-0.24063687	0.9420153	-1.496276	0.008171445	-0.04222101	0.8111468	-0.31246236	-0.45797184	0.016184509	-1.2963846	0.20702213	0.3263796	1.0428104	0.91296464	0.9263197	0.9071504	-0.849225	2.1065447	-0.7292606	1.0664158	2.0334089	0.72940016	1.5689161	0.16084468	-0.18558909	0.15301773
code	-0.95497525	-0.6798821	0.6628226	-0.7464359	1.0102996	0.45593283	-0.5339193	-0.41921678	-0.902349	1.1403675	1.2332785	-0.4536067	-0.18242224	0.0272108	-0.55686665	-0.019238267	0.9176072	-1.0304186	0.42664024	-1.2862097	-0.19218732	-1.0039519	0.4658881	0.60838646	0.2585753	-0.7910323	-0.5215896	-1.1526201	0.6417823	2.139581	-0.7293671	0.673159	1.0615153	0.6430393	-0.2041784	0.5815858	0.5010513	-0.09804293	0.42756495	2.1008317	-0.17610131	0.07184782	0.48921004	-0.7024253	0.6844381	1.0741166	-1.9644372	1.325655	-0.09781205	-0.89238083
week	-0.5947405	0.80736077	-0.9360246	-1.1649054	1.9004413	0.049458116	-0.5576289	1.3217369	1.6378757	-0.9751734	-1.3940536	-0.019926952	0.14678113	-0.9059773	1.2330514	0.7360138	-0.0250139	-0.5965703	1.4785194	0.6242301	0.80577916	0.1963011	2.3370388	-0.30519587	0.26329607	-0.42804915	-0.21458332	-2.0725043	0.6412642	-1.8263807	0.40646207	-0.62600464	0.48591667	0.5608103	-0.78662187	-1.194731	-0.3400995	-0.29219198	0.536018	-0.033246756	0.74144745	0.33971947	-1.7102504	-1.0493904	0.93059105	1.2340726	0.8994277	-0.7684463	0.26573437	1.2022718
norton	-1.1023898	-1.1297421	-0.5368711	-1.7689185	0.30961865	-0.64976233	-1.0442865	0.67138094	-0.15478492	0.3055986	2.8721762	-0.9982127	0.27043626	0.2089961	1.3567152	0.3303297	-1.1321386	1.6772206	-0.031378496	-1.4811276	-0.196369	-0.61653507	-2.5089512	-0.10082943	0.043627262	0.3602681	0.15023139	1.3297802	-0.0704764	1.200666	1.0543973	0.89746386	0.7813548	1.0488852	-1.2105881	-0.85490614	0.38781023	0.4652866	-1.2139071	1.3226019	-1.0550172	-1.4670317	0.6590301	0.24782689	-0.58793896	0.11414367	-0.03004848	-0.39155132	-1.1339607	-2.3284876
social movement	1.1446995	-1.982203	-0.33147183	0.3297798	0.21296912	-1.3289711	0.67779726	-0.2881491	1.9723916	-1.638389	-1.2210411	-0.025175115	1.8442116	0.6654593	-0.76889884	-0.9223268	-0.922885	0.70169663	1.0290761	0.1540789	-0.046459116	-0.49479097	0.6528564	-0.45702544	0.69882905	-0.918474	-0.40694988	-2.1604493	-0.8504233	0.13573231	-0.057903834	0.89592016	0.1122197	0.98514634	0.58580554	-0.63006735	0.45569775	1.5228403	0.27800378	-1.7365037	1.5297573	-0.20990568	0.6062806	1.4704803	-0.7664649	0.29682258	0.2937349	1.3625591	-0.5125826	2.0585413
google docs	-0.37963828	0.20529336	-0.65021414	-1.3239616	-0.7527112	-1.5281549	0.5788351	-0.0352182	0.46848738	0.75098646	-0.32492763	0.014069598	0.83991396	1.2499607	-0.44053566	-0.80106604	0.25385466	-0.48481163	0.25862622	0.25464693	-0.84113365	0.6131384	0.06638261	1.6015027	-0.482948	-2.4565425	-2.0131388	0.23149556	-0.5034234	0.12617208	-1.0076661	-0.91902643	0.57157886	-1.0099493	-0.6836437	-1.1163282	0.055582903	-0.47171026	-0.8804669	0.22568314	0.023292994	1.6647128	1.9613554	1.3926089	-0.25340983	0.2891786	-1.4180281	0.49436185	-0.8259212	-1.0655664
domestic	1.1199486	0.61882365	-0.2911089	-0.443364	0.47490337	-0.41617087	0.057095937	-2.8178844	1.0674316	-0.3097734	-0.27608123	-0.16188718	-1.1214458	0.71311855	0.47446886	-0.24009244	2.5856147	0.9262622	-1.4584248	0.80010164	1.8069979	0.1863592	0.8396443	0.21747218	-0.21413441	-0.92128867	-0.48903185	1.249588	-2.3042047	1.5782236	-1.2751739	-0.5102306	-1.8916193	0.10871844	1.5023657	0.022310277	-0.75195956	-0.4586846	0.7571592	0.53660023	-0.03909914	0.32764697	0.75003284	0.19475198	-0.006500749	1.1378134	-0.8115331	0.6104927	2.1492074	0.13639206
tenure	-1.1236058	0.40520993	0.059965707	0.05219452	-0.07051953	0.18068434	-0.35915768	0.33964083	1.1329155	0.893962	-0.6421866	0.18422614	1.8239957	-0.70073175	-0.27438504	-1.1875036	-0.027635945	-1.4550229	-0.63001513	-0.20060463	0.38461986	1.1945823	-0.5313758	-0.3913751	1.618299	-0.02258625	-1.7661724	0.34488365	1.4470278	0.038090706	-0.9762709	1.4634445	-1.5510734	0.8016858	1.4402585	0.54003805	-1.3628653	-2.125387	1.111069	0.19851188	-1.0626059	-1.6684607	0.2868221	-0.8900505	-0.6449334	0.13866	0.38622865	0.05194007	-0.109077774	-1.2287195
stick	-0.3506004	-0.57659227	-1.5355802	1.57009	-0.50903195	-0.19475369	-0.055753604	-0.23553076	-0.4114264	0.7031183	1.1146533	0.99282944	-1.1943349	1.4105868	1.4205561	0.29973063	-1.0293508	0.5657411	-0.25698987	-0.7497992	0.08898643	-0.8877262	-1.6584611	0.6251101	0.86827415	0.7217252	-1.7857397	-1.0741329	-1.8852819	-0.35715172	1.2647393	-1.1781825	0.1157864	1.256085	0.47580323	0.01621032	0.24120766	0.09473408	0.7854879	-0.3462229	-0.2707047	-1.8665403	-0.6433434	-1.4953752	0.20027153	-1.7106003	1.0502899	0.6361513	0.41251287	-0.17874561
child abuse	0.033752203	-2.0102453	-0.5301712	1.6236058	2.0765822	-0.8020343	-0.9344842	-0.10743824	1.0360007	1.5256305	-0.15699503	-0.9408654	0.6138781	0.7692386	-0.04517199	-1.242501	-1.4351553	-0.31819656	-0.6281104	-0.413457	-0.49489698	0.4102077	-1.6165127	0.53979343	-1.4894329	-0.4359874	0.48580447	-2.1082256	1.0364661	0.12763944	0.23408246	-0.039955862	-1.7358918	-0.9970548	-1.313304	0.07121869	-0.8438489	-0.08350115	-0.756401	-1.1371506	0.019962538	-0.030680565	-1.0295813	-0.08868872	-1.4338778	1.404915	-0.32692653	0.52690804	0.4194988	0.2667904
flexibility	-0.5580478	-0.3643198	-0.07513881	0.7445325	-0.75097346	-0.3692744	1.0670085	-0.07710745	0.8458983	0.1530928	-0.89777035	0.85252607	-1.8173273	-0.37470612	-1.3987396	0.6366131	-0.17195691	0.7887472	0.6249091	-0.15101649	-0.17641464	1.3899248	-0.28497782	-1.5805392	0.62571627	-0.67763233	-1.0104344	-0.32009965	-0.046535015	0.5810253	-0.04607393	0.1230787	-0.30790263	1.7591152	0.053523563	1.5217484	-1.2544057	-0.49867997	0.14415137	-0.6627503	-1.8848977	-0.21327503	1.2193316	-0.5817597	1.8037546	-1.5735526	1.4199861	-0.38324144	-0.5314819	-1.6040764
bicycling	1.9144641	-0.047415763	-0.10151322	0.22130889	1.42176	-0.50957745	-1.114146	0.0128312055	0.69659543	-0.63071537	-1.4803902	-0.80534106	-1.4507054	2.3640256	-0.6365636	0.8788948	1.042449	0.80517054	1.2579278	2.411733	-0.8399665	0.10805715	0.22300476	1.0388249	0.52495784	0.40480375	0.7999417	-1.8306068	0.74477404	-0.9969213	-0.6516071	-0.064981446	-1.075024	0.7629088	0.85963464	-0.9629141	1.2927203	0.52770656	1.3428416	-0.5173876	-0.23072198	0.108926296	-1.1014571	-1.7147	0.15294866	0.012428325	0.13553019	-1.933039	-0.33546808	-1.7105975
display	-0.073157676	-1.3829665	0.20552702	-0.96079355	1.6518146	-0.95504856	-0.54795665	0.92885536	-0.8294999	-0.10285439	0.4131117	0.8245827	0.7072369	-0.51726496	0.6691836	-0.21915713	-0.14088036	0.77576905	0.11959478	-0.21761231	0.2843573	0.45776334	0.013797317	-0.3251896	0.32212108	-0.6500464	-0.5514752	0.4706769	0.36790752	-0.23127888	-2.017693	1.4258747	0.33443913	-0.41184857	-0.5154367	2.0721118	1.8725063	-0.76174515	1.4027109	0.54432154	-1.9011284	-1.2030395	-1.4557899	0.16114312	0.16430685	-0.5743037	-0.06099274	0.04000491	-1.2586722	0.9190391
copepod	0.87075895	-0.21981382	0.0075397734	0.61154026	0.885315	0.424003	-0.8314166	-0.89974576	-0.29188368	-1.8093145	-0.2551272	-0.7103344	-1.4371899	0.3373943	0.8379344	-0.057875507	-0.41455773	-1.459115	1.3381642	1.4015703	0.57793	-0.42397222	0.49298894	1.5620316	-2.288696	-0.2554281	-0.13712204	-1.824392	-0.8651114	0.19250098	-1.0605925	2.9911058	-0.17067385	0.62557846	0.44820958	1.2557689	-1.0144686	1.9792434	2.361971	1.0417548	-2.338548	-0.0177085	0.14921127	1.2042716	-0.5791125	-1.0359671	0.042670302	0.3127289	-0.41253087	-0.110316426
lagoon	1.1090734	-0.29625303	2.2341774	1.7662625	-1.0497044	-0.22855563	-0.68952036	2.23016	0.50193405	0.13958344	-2.5169966	1.1005669	-0.2811339	0.29208186	0.8045771	1.4511685	-0.030388875	1.7655652	0.4048544	0.84444374	1.3421692	0.39674163	0.05192247	0.48499724	-0.010850178	-1.0243349	1.0884053	-0.74582595	-0.70785487	-1.4966365	0.8898678	-0.3321108	-1.2154943	0.7576448	0.70117813	-1.5289942	-0.3983424	-0.8706211	-1.0956956	1.3266037	-1.4137545	1.036519	1.0301358	0.9085762	-0.37207374	-0.12669156	0.034999177	-0.8657806	0.087486215	-0.57888716
prescription	0.19129884	-0.5050174	-1.4946892	2.0814667	-0.9335849	2.5208106	0.51523566	0.81169546	0.4904541	0.44462624	-0.4446169	-0.730121	1.5188706	0.040094286	1.2909889	-0.6499001	1.1056045	-0.8242556	0.10357514	-0.42915267	-0.2516324	0.17745784	-0.55274254	0.6134503	-1.6693616	-0.7602638	-0.11707277	-0.56346095	-1.3316894	-0.026267638	2.3397167	1.700595	0.7031222	0.29994997	-0.5245217	-0.34388715	-0.2242469	-0.69309515	1.6334094	-0.061827473	1.7809833	-0.084733784	1.7338555	-1.7091496	0.6348051	0.49309355	-0.05794712	0.9305821	-0.39671096	-2.1721182
charge	0.0037591662	0.41028622	0.9985652	-1.360299	0.20040551	-1.5746496	0.33451757	0.8843367	-1.628334	-0.72111154	0.19016224	1.9492216	-0.6019212	0.20062363	1.6330658	2.0399232	1.0091356	-0.6841398	-0.6753252	0.06986526	1.5069677	0.2193618	0.47536364	0.2857277	-0.0691725	-1.331441	-0.2270375	0.25741428	-0.05788333	-0.48358127	-0.36234477	-2.221539	-0.19057299	0.14362642	-2.2201293	0.1465199	-0.29152906	-0.64868265	-0.49568352	-0.972363	-0.14898032	-1.2563227	1.0341414	-0.5943691	1.4680623	-0.69742197	-1.4740366	0.66575795	-1.7317549	-2.0454326
questionnaire	0.18237479	-0.23062067	-1.6805437	0.781408	-0.36452338	-0.07837252	-0.7664503	0.2994535	1.6670489	0.04064036	-0.4579372	2.0281475	0.58682156	-1.1421959	0.19955015	-1.067137	-0.3941211	2.076301	-0.52343863	1.7869725	1.4284474	-1.548655	-0.7100936	0.5692506	-1.0369118	1.0654051	-0.05267831	-1.2901201	0.4954653	-0.8226394	-0.015953753	-0.7792957	-0.044546947	-0.8912126	0.7154012	0.7094252	-1.9863276	-1.3479309	0.032450393	0.088840395	-0.34571522	-0.5596395	0.31912193	-0.7407326	0.8049028	-0.950313	-2.117372	-0.07726367	0.2966759	0.13443424
traditional dance	0.14797215	0.046280008	-0.42343462	0.06289154	0.014271516	-0.41957915	-1.6160359	-0.5321667	-0.31015927	1.8033075	0.61138815	0.09093456	-1.3008512	1.0203521	-0.95279855	0.7170892	1.0352914	-0.4858123	1.3418701	-0.16085537	0.38048872	0.28720602	0.18755579	0.115375236	0.44988614	-0.25824952	0.0035064071	-2.2426736	-1.2253693	-1.9701631	0.92615956	-1.1818331	-1.6118335	-0.68829596	-0.41144636	0.54446924	-0.98373705	-0.30741334	-0.2936242	-0.7514151	-0.12513445	0.4440927	-1.6910287	-0.6965901	1.3373001	2.4533477	-1.6200138	1.6584805	0.6179607	-0.22412035
parent	1.792089	1.4879923	-1.5901304	1.2231873	1.8271145	0.22351153	-0.84761226	-0.003931798	1.4913763	0.070341535	-0.5408233	-0.27545744	1.814404	1.2809386	0.8725479	0.91182745	-1.1203599	0.34233516	-0.49580705	-1.3390774	0.31168583	1.1753991	-0.7568365	0.25780788	0.21430263	-0.69555193	0.7688996	-1.0160716	0.92427456	-1.4373326	1.3843082	-0.556688	-0.6196826	-0.63566726	0.8491296	-0.1368354	-0.40546164	-0.124949165	0.8778434	0.5391439	0.043292165	-1.7093368	0.22137798	-0.487697	-0.8453737	-1.601567	-0.989015	-0.47285697	1.8198566	-1.1589742
phosphorous	0.3484427	0.6001305	0.9869001	0.10796824	1.1703905	0.82642114	-1.1970536	-0.26564878	0.49054986	-0.15056224	1.7072586	2.3623135	-0.23672646	0.917529	-0.16890992	-0.7619813	0.9396752	-0.16556348	0.015237909	-0.47771797	0.39773145	-0.9321671	0.3204201	-1.7564576	-0.13650821	2.2779188	-1.052969	-0.13221087	-2.0988712	-0.14292906	0.79119325	0.5858472	0.75698215	-1.2730216	-0.008479657	1.090656	-0.2387463	-0.066730075	-0.13493894	0.68744004	0.9056249	1.0254586	0.080170035	0.8162474	-0.1210522	1.5112383	1.2255967	0.07151667	-2.417475	-0.5785115
cupboard	0.66333824	-0.95061386	-0.49500543	0.9249649	-0.7573595	0.10336592	0.23175628	-0.16875848	-1.120205	-0.64068365	-1.3219954	-0.580282	0.48197293	0.5700365	1.817351	-0.35380617	-0.5488866	0.3569737	0.55990285	0.27709886	0.71414036	0.6315469	1.0568846	0.14797524	-1.2179044	1.5894043	0.031633697	-0.27310234	1.0834223	0.86571723	1.7243662	-0.88856834	0.37023246	-0.8271496	-0.22661723	-0.93457204	1.289104	0.60689616	-2.5423214	0.027685015	-1.6720856	0.23949312	0.8182616	0.99710745	-0.72481304	-0.37051898	0.4044674	-1.7820129	0.14943431	0.29770696
ethnic group	-0.39535558	-1.1103677	-0.88295764	-0.5735593	1.3158969	-0.7067844	-1.9806242	1.1430795	-0.55962574	1.8152347	1.2651922	-0.6201662	1.8887266	-1.3079557	-0.7334676	1.2064284	0.26701295	1.448867	-0.2575728	0.9287294	0.056350134	-0.356641	0.32254207	0.15781234	-2.245305	0.48787978	0.039166905	1.4170938	0.29652664	0.31372765	-0.33853197	-2.0192618	-0.63815844	0.0063968822	-1.1959339	-0.1458797	-0.92597914	-1.1743304	0.21510886	-0.925416	0.81708527	0.93227065	0.8085281	-0.4112232	-0.67689544	0.70009613	0.07370136	-0.9029271	-1.3382527	-0.18901546
constraint	0.3981931	1.3345281	-0.5164067	-0.26362163	2.1872141	1.571354	0.088984914	1.2743484	-1.0802675	1.6227689	-0.4514564	2.0504546	0.82250106	0.5186845	-0.46042478	-0.6050476	0.15541346	2.0937784	-1.1257459	-0.17332946	-1.5101603	-1.1313466	0.58804	0.22340225	-0.25083542	0.48341593	1.4800389	-0.026214091	0.8494024	-0.1278255	0.4198018	-1.2335961	0.68031555	-1.2669901	-0.34953377	0.2702172	-1.7358048	-0.10940607	1.071176	0.10720679	-0.5674014	-0.80283165	0.23247755	0.4908939	-0.95196044	-0.31120616	-0.13106759	-0.6762432	-1.9463977	-0.08668293
cosmetic	0.9087392	-0.19018269	0.6846221	2.1020172	1.2661026	0.50631034	0.3265193	0.053044904	-0.77488023	-1.1082331	0.88915336	0.34662637	0.22956313	-0.36304492	0.5975485	1.7063105	-0.0044496767	0.71664035	-0.12494232	0.031080853	-0.0026552677	0.25214896	-0.7834904	-1.0616611	1.0499876	0.709851	0.019848932	0.48955634	0.65342426	0.72417873	1.1559842	-2.0195923	-1.4530611	0.16589886	-0.8067832	0.50443804	1.6549315	-0.76036304	0.0591818	0.88347137	0.3783528	0.43794608	0.9382838	-0.56854814	0.62751085	-0.38500664	0.45824635	-0.25863546	-0.5596176	1.421794
table	1.008897	1.373947	-0.07840775	0.9277488	-0.24445975	0.941982	-1.6241621	0.5076256	0.8992087	0.15799493	0.18188304	1.5688839	-1.0785862	1.3122135	0.46605423	1.2388339	-1.5275797	0.9624342	0.10414587	-0.4491528	-0.07702278	-0.8561624	-0.8338463	-1.7325671	-0.18502566	-0.39243457	1.1386943	-0.040427584	0.53519094	-0.79537475	-0.11880075	-0.43815428	-0.08384277	0.31406325	1.4110199	0.7795169	1.9804955	-0.15373342	1.3312782	0.0012117773	0.43063197	0.007047789	1.4781702	-1.0918118	-0.5037311	-0.04191544	-1.4437628	-1.3678517	-0.57145506	0.28487158
gem	-0.084699504	0.99768114	-0.5855708	1.6243656	0.72352064	-0.10489459	0.015724221	-0.36011648	1.834131	-0.28509188	-0.47782695	0.52814174	0.81692386	-0.11756397	2.232644	0.2051079	-0.9094068	-0.32268277	0.9699158	0.6643669	-1.1994818	-1.9052628	-1.2921896	-0.053305425	-0.19118449	0.9289638	-1.2608362	-0.26044595	-1.7068369	-2.0691283	-0.34268814	-0.66097933	0.17485681	0.086154886	1.0601094	-0.5455558	-0.41607913	-1.2647194	-0.96901417	0.016701588	-0.2519048	-0.66778666	1.1564311	1.1036611	0.080485314	-1.2907435	0.3423842	-0.86337936	0.12615901	-0.4318494
tempo	0.7361959	0.82054174	-0.45824444	0.01861699	-1.4876603	0.684603	-0.25062418	-0.25998148	-0.97388923	0.1084982	0.30722052	-0.23745424	-0.64294994	0.28627706	-2.4697962	-0.6279174	-1.6436864	0.96227664	-0.14088322	0.9382935	0.43435913	-1.1822959	-0.22004537	0.67578876	-0.8292994	-1.1632539	0.8945913	0.14918974	-0.7865166	1.4879857	0.757325	-3.034168	-0.0430464	-1.5777667	-0.59321374	-0.6186846	-1.4708941	-2.1921709	1.2650025	0.299542	-1.2471476	0.4016235	1.2936562	-0.19550805	1.4979233	-0.43755677	-1.1568197	-0.71207863	0.69215745	-1.3052771
natural feature	1.6163605	0.21093637	0.8423863	0.6572117	0.53744215	-0.15545031	-0.14829302	-0.05681674	0.1942772	-1.0450999	0.2506037	0.71284676	1.8008404	0.30191147	0.70969987	-0.35884243	0.9659631	-1.2565546	-1.1782757	-1.2406996	-0.092457294	-0.047727272	2.4712958	-0.720527	0.1395562	-1.2582443	-0.59655315	-1.5110174	-0.02438338	0.9922427	-2.0747595	0.7258052	-0.7625708	-0.9629725	1.5889591	0.8344317	-0.5420318	-0.031631164	0.34172302	0.14889349	-0.12112625	-0.13064496	-0.040726997	1.6586812	-0.53316647	-0.90551305	0.22187135	-0.15772802	1.0780613	-1.5158713
mayo clinic	-1.4399691	-0.69911665	1.2679825	1.7574914	-0.7085848	-0.08375994	-1.5636741	-0.10482129	0.6874931	0.7110695	-0.73204964	0.36658642	0.04658252	-0.8485747	-2.1626568	-0.8053357	-2.042301	0.26366657	-0.10394243	1.2856063	-0.23660226	-0.3762388	0.5033907	0.9829271	-1.1352631	-0.1574128	-0.87511754	-0.43996128	1.6061071	0.02180986	0.8380045	-1.0968456	-1.3190472	-0.7633156	-0.61435026	1.1951954	0.08224318	0.72677493	0.4229072	0.76988745	0.29243055	2.087542	0.99860716	-1.2550433	0.25289124	0.2436451	0.62144953	1.0691727	-2.0803394	0.03966009
fbi	-1.4594628	0.17728993	-0.6925526	0.66709465	-0.864743	-0.6995338	1.6911516	-0.44023985	-0.4041912	-1.3232113	-0.21911821	-0.086593464	0.056253582	0.1708831	1.1609682	-1.3664498	0.9234515	-0.29785514	-1.0960767	-1.181623	0.9879075	-0.58978385	2.7567449	0.73553354	0.35583103	-0.11491054	1.0428288	-0.5804703	0.97561884	-1.3153508	0.30038008	-0.90101945	-1.5743251	0.6164085	0.32944813	-0.9347552	0.7661031	0.62915987	-1.0517983	-0.4925651	0.7528765	-0.08012812	-0.27196655	0.5777221	-1.338407	-1.4440544	-0.59275013	-1.622942	1.9511727	-0.4832402
leakage	1.594333	-0.47592843	1.66619	0.6884282	-0.2184023	0.8587946	0.6791424	-0.06381869	0.8076817	1.7217337	0.14689924	-1.1339908	-0.3212452	-0.64956564	0.35923395	-0.8233849	-0.32368532	1.946221	-0.23409401	-0.40757996	-0.76746184	2.0001593	-0.16722706	0.42893454	0.81997114	1.1689066	2.474252	-0.35114726	-0.6429362	-0.5882067	-0.31479788	2.6958945	-0.5915738	-0.23161265	1.7767241	-0.38567817	0.6525814	-1.6389096	0.09985718	-0.9272788	-0.14745854	1.3725604	-0.132088	-1.2767161	-0.28765693	0.20941645	-1.4328351	-0.060486194	-0.07640035	0.514336
health care	0.41037142	0.7373309	0.10150382	-1.054838	0.46705937	0.33973086	1.1918719	-0.30562586	-1.31937	-0.6449853	0.52529323	-1.8674834	-0.4029137	0.9363237	0.4568148	1.2213604	0.9594764	0.9654213	1.0736003	0.73027736	0.20308311	0.37145236	0.66532385	1.5521579	-0.21179615	-0.27198088	-0.22205807	-0.85103405	0.13853504	0.51858747	-0.42340946	1.3374681	-0.25687873	0.26625377	0.39293242	0.43670285	0.1335811	-1.5309231	-1.6076752	0.66201454	0.08573169	0.7477371	2.0331085	-0.8824922	-0.44394356	-0.33447763	0.25379068	0.04444056	0.8910221	-0.7994777
retrovirus	1.7703861	0.08936767	-1.2468219	-0.67950207	-0.8879355	0.9418671	-1.2984002	-2.1347523	-0.6869279	0.051427737	0.10047755	-0.037064616	2.0610468	0.7995938	-0.82784283	-0.9206808	-1.0897442	-1.5510257	-1.47327	0.69359416	0.009989986	0.3146466	-1.8001149	-1.1104938	0.07598145	-0.12910852	-0.72955155	-0.049595382	-0.7714053	-1.356034	0.5974438	-1.5483056	1.916321	-1.2570692	1.5797219	0.54283136	0.023124656	-1.3130347	-0.39286947	-0.6256081	1.3694323	-0.9097023	0.13241827	-0.09799686	0.7964279	1.0756745	-0.4738133	-0.83243614	-1.160944	0.38948402
water	1.5646695	-0.26212707	-0.2645274	-0.16389534	-0.9779417	0.50447017	-0.7665234	-0.552955	-0.015668955	0.041625805	-1.8690068	0.8981478	-0.7172518	0.37053034	0.85036606	0.05699265	0.22293106	-0.2982683	0.373613	0.14449424	1.5595193	-0.3794555	1.0482397	-0.19586198	-1.4888	0.9565641	-0.3188642	0.86488205	1.0430317	0.92241377	-1.026109	-0.44916472	-0.36777344	-0.9038082	-0.10525354	0.85187477	-0.13566037	0.44553325	-0.6863995	-0.2588776	-0.053681843	-0.30323142	0.15411645	1.470851	-1.0830088	-0.0656095	-0.9414888	0.24779962	0.66182834	0.11807539
better business bureau	0.14558072	0.7513739	-1.194436	1.1726396	-1.3260622	0.52804273	0.97949946	-0.21497832	0.2320526	1.96896	-0.42981264	-0.8654119	-0.16291486	0.6725292	1.200942	-2.123342	-0.69716847	0.5389717	0.38001147	-1.7290576	0.8211502	-1.0753962	-0.74718994	-2.2103734	-0.40606937	0.8513355	-1.4126462	-0.4610481	0.939803	0.37982982	-0.4525903	-0.9083336	0.6514485	-0.5852626	-0.22668266	-0.5498191	-1.0157856	0.93434507	1.2732761	0.82817715	0.30191886	2.0917344	0.5184068	-0.87709343	0.4003816	-0.81319714	-0.25774848	-0.70270056	-2.2105575	0.48435885
social institution	0.6483724	0.552753	-0.73745155	-0.42135724	1.1791301	-0.70949805	1.174195	0.0033086035	0.8979071	0.90478677	-1.1620786	-0.017473446	-0.32933503	0.033410467	0.7572082	-0.87716407	-2.5424166	-0.06246476	0.30343527	0.68814576	-0.86250234	-0.6741165	-2.1854894	-0.29160744	-1.0082496	-1.8238577	0.6308167	-1.1586127	0.86107546	1.9722307	-0.47749153	-0.28353217	0.18344678	1.7277784	-2.0101712	0.81322294	-0.3089488	0.9080029	1.2923119	-0.5874807	-0.10036297	-0.39959604	0.13866498	1.8890568	-0.56352043	-1.0764483	-1.1982796	0.15950267	-0.32354736	-0.04414434
glucose	1.2404624	1.4874506	0.48575327	1.7774663	0.42822942	0.8823798	-0.8281694	0.20874941	1.2263064	-1.6201596	-0.5028322	1.5699476	0.78221995	-0.43734124	-0.21020378	-0.22017412	-0.79325306	-0.40178216	0.43302843	0.09726781	0.5336754	0.23633319	-0.07080461	-1.070163	-0.12127635	1.4036839	-0.19410288	0.4144822	1.179468	1.5134939	-0.05440513	-0.96359354	0.9470288	-0.7305669	-1.2400966	0.67870927	1.7171046	-0.759204	0.07924627	-0.8733406	-0.60958284	0.22909504	-0.29350153	0.9377191	-1.2187376	0.18138313	0.33310658	-0.23828855	-2.3914413	-0.42811203
meteorology	1.1963763	-0.3887882	0.99255323	-0.2213084	-1.1101524	-0.34169507	-0.89485055	1.0694115	-1.0107914	0.16957662	-0.02856627	-0.90126073	-1.4968203	-1.7285864	1.0848334	0.76782393	0.78949475	-0.36465305	-0.06983783	-0.19943456	0.20175228	-0.6357738	0.7401706	0.50408196	1.1518728	-0.8429668	-0.35152292	-0.21897107	-3.0075498	-0.16344811	0.6871952	0.43416163	0.4942008	-0.8302387	0.67997205	-1.0983877	1.1414231	-0.47067177	-2.4047256	-0.40374655	-1.4656689	-0.7142515	0.989138	0.34662932	1.8676174	1.0137016	1.7132416	1.5661944	-0.65542644	-1.1508087
peace	-0.17899242	-0.52614546	0.009792481	-0.19165985	1.342944	-0.33412957	0.106884114	0.9198322	-1.461244	-0.2732706	1.1442659	-1.3407166	-0.060947627	-0.9921049	-0.39732623	0.716098	1.2696178	1.0234056	-0.83921784	-1.3574334	-0.9114697	-2.2870069	-0.21618722	1.0761598	0.050069317	0.25570697	0.80993503	1.3130676	0.39476562	1.862938	0.6391749	-0.5043321	0.88325137	-0.73032016	-0.35527217	0.15251613	1.0517439	-0.37247714	1.0427066	2.475745	-0.26660436	0.93649775	1.3017708	2.999633	-0.12834918	-0.36329955	-0.19655919	-0.69484043	1.165084	1.3097324
pond	-0.28430757	-0.7103245	0.49790007	-0.40052658	0.19575351	1.3870145	0.44334707	0.61422426	0.21526241	0.90922683	1.2182112	-0.15785302	-0.89234334	1.3775309	2.2638757	-0.008483909	0.23261757	1.1682585	0.5159327	-0.73651344	-1.2937995	-0.04443024	0.4912149	-0.28360328	-0.62071985	0.02379663	-0.7295575	0.8943803	-1.2717423	0.6381459	0.5668171	-0.22465569	-0.8058609	1.0503485	-1.5405561	0.54963773	2.2027209	0.31669095	0.44762126	0.013824336	-0.14457262	-0.29096162	-1.6173126	-0.3386618	0.54527694	1.6830066	1.1676471	0.341645	0.30298966	0.5761773
ds	1.6011186	0.80747086	0.5845545	1.6006507	-1.3671132	-1.8851198	-1.4613129	-1.1807457	-0.04007999	0.4576337	1.1076505	1.4400381	-0.10840509	-0.75787705	0.23778217	1.1143802	-1.6982101	0.610339	-0.108849704	-0.22268012	0.5398401	1.7753496	-0.29202917	0.9958246	2.010653	-0.018045794	1.2741565	0.09420725	0.970549	-2.0051858	1.7185558	-1.0203754	1.2676251	0.9254789	-0.3376387	-0.78620076	-0.6684561	1.2773378	-0.40570256	0.55642265	0.6632285	0.15299402	0.87181926	-0.7114628	-0.81340283	0.45850593	0.49366397	0.9363803	0.74337095	-0.9292163
adultery	-0.8011501	0.39909673	-1.5807579	1.4644785	-0.00091079436	0.7273165	-0.07207126	-0.5952314	0.63901407	1.3460546	1.6296135	-0.5657995	-0.34758383	0.31046212	-0.24588312	-0.55029285	0.5343155	0.5143699	-1.0617702	0.62570226	-0.5411297	0.945036	1.1129686	0.10343121	-0.31748664	0.9240621	-1.704463	-0.0013929885	-2.072705	-0.5946386	0.33282828	-0.1957618	1.0677226	0.52912444	-0.42805767	1.4276663	-0.6410434	0.7255383	-0.24755034	1.085613	-0.35198337	-0.29837763	-2.1405632	1.0261259	-0.5510464	-0.21629432	-1.1042368	0.3979429	1.7758464	-0.9130881
bin	0.7813739	1.3892825	-2.272685	-1.5541147	0.3388283	1.1400101	0.6059377	-1.8392179	0.1918255	0.5169716	0.14434625	-0.017928898	1.1012273	1.2913971	0.8722829	-1.342905	0.933359	0.2545792	0.70640504	1.1243963	-1.2868134	-0.3925488	0.64337873	-0.10687889	0.009161852	-0.2781509	-0.79210895	0.20322703	1.0966241	0.2242024	1.2192237	-0.6781165	-0.03195893	-0.6854194	1.1680418	0.79184544	1.1096114	-0.09743355	0.30625945	-0.086128116	-0.27547133	1.3216628	1.2237396	-1.3506255	-0.9698934	0.8021333	0.15251838	-0.4379204	0.31840384	-0.36460605
astigmatism	-1.1986053	-0.05694884	-0.81870174	1.3155859	-0.016369652	0.38719475	1.2776493	1.3273447	-0.27675182	-1.537963	2.231541	1.4518118	-0.9005135	-0.107062444	-0.45837593	0.30617362	-0.09497985	0.38797426	-0.09222826	-0.10370132	-0.039009053	-0.44205368	0.10996732	-0.52391803	-0.22590081	0.050775073	0.57309103	-0.2694264	1.4386255	0.13149133	-0.4042284	1.9297174	-0.57943547	-0.6702013	1.377626	1.2939159	-0.21936353	1.3035309	-2.9912412	1.6379753	-1.1293188	-0.34202468	0.77370423	-0.008445006	-0.032253735	0.044212542	0.59964794	-0.82079345	0.68653697	0.080999106
sport	1.1096622	0.7556524	1.2466916	0.32798597	0.15774958	1.3267534	0.64705247	0.23032673	0.13159536	-1.0702853	-1.3457495	0.25169075	2.130102	0.4436272	-0.06974769	-0.33031994	0.39706162	-0.3373123	-0.55062085	-0.7163785	0.07318894	0.23140745	-1.5852364	-1.0385087	-0.80294466	-1.0202936	1.2393316	-0.32990256	-0.8170021	-0.007800378	0.56003773	0.46781734	2.0198507	-0.6394065	-0.9092701	-0.8870912	-1.1131939	0.51489097	1.3234076	0.56736445	-0.4992633	-1.6099768	0.23120627	0.53754616	-0.5340387	-0.36468977	0.3762598	-1.1165421	-0.7367013	-0.32720342
accenture	0.28678665	-0.29847628	-0.5240088	0.3560009	1.4884149	0.054910235	1.1473145	-0.33027855	2.0239937	-0.7940147	-0.95508933	-0.4069536	0.16085154	-1.4534247	-0.15962988	-0.10703198	0.95754415	-0.4395044	0.11738675	0.5241477	-2.615429	1.0530517	1.5045661	-1.1050686	0.39373517	0.15478334	-0.54157734	0.35180047	1.4786788	1.3338844	-0.5156106	1.0369384	-1.3278688	-3.3712633	1.2109879	0.688186	-1.5062793	-0.16630457	-1.4669952	0.5496566	0.29152098	-0.4330268	1.3246671	-1.0812231	-1.232734	-0.16044383	1.2013732	1.7281498	-0.0521817	-0.8497183
triangle	-0.8957064	0.36546126	1.2264313	-3.6057487	-0.35612413	-0.33215776	-1.6013732	0.21889654	0.3214282	-1.5035744	0.8964872	-1.3701067	-1.6823912	0.39284864	-0.5626883	0.28282917	1.0127295	-0.6424843	1.1499431	0.21961334	0.779123	-1.07038	-0.85188514	-0.51850396	0.014699537	1.2511578	-0.62907726	-1.6260878	-1.0016456	1.9260311	0.9463605	0.55114955	0.67156416	1.4457648	0.33193257	0.94033647	0.5841029	-0.2597855	0.017560827	1.3934736	-2.0212996	0.220542	-1.8252707	1.3774667	0.16098677	-1.2208812	0.5119651	-1.3170878	-0.83143115	0.84875864
organic acid	2.5213294	-0.787502	0.33485547	-1.3713788	-0.08584385	-0.23473215	-1.7388048	0.6175835	1.0579598	0.5351897	-0.7124216	0.0025080387	-0.34054142	0.5696788	0.9303658	0.4257715	1.2226517	-0.8161406	0.4191467	-1.3307295	0.2874592	-0.54950666	-1.3259292	0.02761471	0.47859958	0.47730735	-0.4543801	0.98829615	0.48713136	-0.26097944	-1.6084663	-0.81961685	1.1527556	0.7369535	-0.13712236	-1.7917106	-0.6389549	0.70994306	-2.2876766	0.59733176	0.05067791	-0.988557	-0.3918897	0.70301414	-0.05590538	0.8462772	-0.4903279	1.0076443	0.5606609	-1.929096
inflammatory bowel disease	-0.837678	-0.667408	1.3950696	0.510728	1.4966711	-1.0581986	-1.1040884	0.15532526	1.4843822	0.8778948	1.553426	1.5103282	-0.052361965	0.58243066	-0.60230744	-1.3431104	-0.103538774	0.9702691	-0.639478	0.0022573676	0.36449978	0.097407795	-0.20538074	-1.3710585	-1.2195472	0.7859485	-0.64842504	-1.1806128	-0.6455648	0.71186495	0.10227073	0.9797905	-0.8783357	0.4879002	-1.3504174	-0.6033098	-0.7672963	-0.4589644	-1.9082241	0.321096	-0.20567966	2.7335348	-1.5026865	0.88714135	0.6708395	-0.9443039	-0.69461197	-1.4842687	-0.073265664	-1.4413096
fedex	0.15079655	1.3389102	1.1290363	-0.19747563	0.029464273	0.6633547	0.41378152	0.08503178	-0.27923048	1.8825399	-1.328058	0.59057134	-1.5477885	0.5101703	0.37273377	-0.3295197	-0.8395117	0.2954169	1.6131445	1.7947615	-1.7432538	0.4362	0.41656145	-0.55258745	-0.4049428	0.50369644	0.039083153	0.3043031	-1.4026618	0.9360581	0.23532201	1.2212728	0.6300689	0.7125988	-1.844647	0.6368434	-1.0985687	-0.7325203	0.51045614	-1.3619752	-0.514634	2.0405643	0.46849898	1.0064417	0.29241034	1.9342203	-0.2641584	-0.78372484	-0.21129857	1.8873037
record label	0.07317568	-0.08721234	-1.0952001	-2.124855	0.9774926	1.3694648	0.23773849	-1.8135928	-1.1438807	-1.0280032	-1.2492613	1.9569602	1.1900423	0.28429207	1.250841	2.2359643	-1.6926038	1.072078	-0.52794915	0.024473319	1.2990307	-0.5651592	0.6478923	0.5698412	0.16787739	-1.5484486	1.389604	1.1866627	0.23304895	1.053572	0.98849726	-1.3898581	-0.30482736	-1.7351459	1.621639	-0.5296718	-0.57345295	-1.770092	0.90702033	-1.2879301	-0.08677438	0.39163998	0.02353279	0.6138151	-1.9439893	-0.025345502	1.3310939	0.56879455	-0.32430047	-0.8356578
ethnicity	-0.7958556	-1.3169591	0.68554604	-0.14649062	1.253813	0.21788162	0.03717584	0.10638537	-0.1996646	-0.8684785	-2.2017362	-1.7125508	0.986151	0.2536924	1.9704279	0.5445129	-0.36259195	-0.500843	-0.39530954	-0.9146432	-0.24779032	-1.2624447	0.5336371	1.0589497	0.72343624	0.2239474	-0.6487899	0.8069686	1.3887738	0.47343442	0.51035106	0.13044702	1.0682628	-0.8152663	0.3636829	-0.4786387	0.83256984	0.13816775	1.7461588	-0.4732119	0.27881628	1.2902403	0.17507611	-1.0581161	1.0704567	0.23191787	-0.26255432	0.80982095	0.27949443	0.78941596
canal	0.23701712	0.23593336	-0.019040043	-0.7785611	-1.1771076	0.0124563575	-1.35714	-1.8678207	0.30030116	1.8445936	1.2549052	-0.044618763	-0.88517356	0.024836337	0.50598955	-1.1734518	-1.8744391	-0.07828296	0.5280032	0.7314731	0.9123916	-0.13891274	1.215717	-1.2337066	-0.92822474	-1.5868475	0.54832107	0.3914468	1.5308306	-0.8815272	-2.6928263	-1.1047223	1.6835086	0.3248584	-0.6539974	-0.16842063	0.033719167	0.4170642	-0.12572359	-1.27237	-0.023020772	-0.51035404	0.6277113	-1.10233	-1.0577273	0.1302218	-1.2262431	-0.70557725	-0.7139335	0.3165123
independence	0.6699984	0.48252022	-0.29232332	-0.10708642	1.2567532	-1.7797532	0.8919294	-1.0463269	-1.3696449	-0.64487356	-0.75317055	0.96705353	-0.047257766	-1.010539	-1.3043419	-0.5545594	0.2092521	0.36716935	-0.99874026	0.42192402	-2.6276937	-1.2488391	1.078009	-1.3922927	0.23803079	1.6433195	-0.5677728	0.8286924	1.2126913	1.0309898	1.2984246	1.6434534	0.057159476	-0.46073997	1.2080749	-0.5628592	0.81652117	0.5764583	0.8760663	-1.4810028	0.354924	0.31219926	-0.8182362	0.5067698	0.24282478	-0.832231	-1.5261129	-0.22011925	-0.20686826	-1.7105231
